j
0.0142502
-0.203344
0.0163406
-0.109998
0.0205567
-0.0433798
0.023291
-0.0695738
0.01964
-0.101212
0.0163672
-0.110674
0.0125944
-0.101706
0.0106846
-0.105825
0.00864809
-0.095762
0.0087344
-0.0849738
0.00490097
-0.0890515
0.00491725
-0.0635461
0.0033222
-0.062383
0.00234034
-0.0501638
0.000928114
-0.0365297
0.0117731
-0.0356079
-0.0094219
-0.0187903
0.00914134
-0.0439431
-0.00138327
-0.0637405
-0.0126475
-0.085012
-0.0236697
-0.0894986
-0.036806
-0.0957663
-0.0622264
-0.100668
-0.0579917
-0.102364
-0.0723215
-0.114194
-0.0774773
-0.10956
-0.0820576
-0.102404
-0.077187
-0.104475
-0.0922116
-0.111416
-0.0966424
-0.0967081
-0.0913258
-0.0801201
-0.107482
-0.0866106
-0.108412
-0.0659917
-0.0343882
-0.0287249
0.0270735
-0.02714
0.0091985
-0.0531644
-0.0194899
-0.0877872
-0.121331
-0.176011
-0.241884
-0.261308
-0.291749
-0.296295
-0.335363
-0.320391
-0.391865
-0.326809
-0.404044
-0.337232
-0.408067
-0.340275
-0.448145
-0.326299
-0.449998
-0.299808
-0.47822
-0.236001
-0.387214
-0.162485
-0.788909
0.535632
-0.951401
1.89224
-0.903418
3.07981
0.0161251
-0.0594873
0.01604
-0.166806
0.0127933
-0.144893
0.0174091
-0.110196
0.0145019
-0.0721724
0.0172897
-0.0379195
0.0294789
-0.00997083
-0.00193028
0.00695545
0.0291259
-0.00809163
0.018445
-0.0325455
0.00687443
-0.0453069
0.0108842
-0.0692784
0.0078301
-0.0602212
0.00564569
-0.0843429
-0.00180656
-0.0857578
-0.00426442
-0.0824832
-0.00629776
-0.0836899
-0.0116842
-0.0720304
-0.0428007
-0.0695724
-0.0397504
-0.0691183
-0.0513656
-0.0534846
-0.0518153
-0.0383359
-0.0152921
-0.0027687
-0.0205543
-0.0369925
-0.00104612
-0.0188487
-0.00593382
0.00880936
0.0055301
-0.0334547
0.00263851
-0.0430783
0.0131521
-0.0414127
-0.00581609
-0.0662378
-0.0453038
-0.0816182
-0.0593974
-0.0915036
-0.0805635
-0.119081
-0.115976
-0.13972
-0.134606
-0.160855
-0.139988
-0.192115
-0.155234
-0.210146
-0.321601
-0.224841
-0.316113
-0.175276
-0.324087
-0.140958
-0.119699
-0.0412639
-0.0157738
-0.0112067
0.0299425
-0.00541734
-0.0261722
-0.00750615
-0.0106929
-0.0994047
-0.21504
-0.25302
-0.418562
-0.243338
-0.462721
-0.143307
-0.624834
0.213996
-0.777061
1.2926
-0.790969
0.57935
0.0107741
-0.0566079
0.0199871
-0.130164
0.0173675
-0.129496
0.0158761
-0.0955481
0.00959478
-0.0483049
0.0056656
-0.0416869
0.0262514
-0.0323068
0.0305179
0.00861269
-0.0140071
0.0056321
0.00667717
-0.0407462
0.0303853
-0.0357647
0.0129071
-0.058184
0.00437032
-0.0695289
-0.00312397
-0.0511208
-0.00756177
-0.0769227
-0.0210795
-0.0713105
-0.0318821
-0.0758951
-0.0345512
-0.0510208
-0.00656342
-0.0595982
-0.00690107
-0.0399461
0.00294959
-0.0143553
-0.0114755
-0.00424166
0.00973684
-0.0270621
-0.023257
-0.0327466
-0.0309477
0.00707132
-0.00856425
-0.0142837
0.0191607
-0.0172781
0.024774
-0.00909911
-0.0126921
-0.0127986
-0.00297917
-0.0409454
-0.0375656
-0.103314
-0.102041
-0.141937
-0.14865
-0.163545
-0.171336
-0.173294
-0.200002
-0.161929
-0.189453
-0.143622
-0.192292
-0.1134
-0.134887
-0.0759361
-0.138142
-0.0717218
-0.0934689
-0.0689556
0.0259087
-0.0454931
0.017572
-0.0205282
0.0265206
-0.0280585
-0.0237637
-0.00898271
-0.0114877
0.0421259
-0.673395
0.238001
-0.801947
0.381582
-0.655389
0.536023
-0.54435
0.431308
-0.450044
-0.1473
-0.0388869
-0.110137
0.0236822
-0.112961
0.0188352
-0.111615
0.00980418
-0.04008
0.0164416
-0.0715903
0.013403
-0.0742461
0.00955164
-0.0459947
-0.0138578
-0.00663776
0.024844
-0.0123574
0.000815113
-0.0210052
0.0118921
-0.0408797
0.00754532
-0.0441655
0.00118861
-0.0542617
-0.00517951
-0.0594263
-0.0168585
-0.0565928
-0.0224676
-0.0280095
-0.0124204
-0.0223053
0.0107084
-0.0323513
0.000790061
-0.048698
-0.00076213
-0.0464383
-0.000872029
-0.0292046
-0.00425998
-0.0403573
-0.0119538
-0.0507751
-0.0111529
-0.0311039
0.0208078
-0.0392136
0.0232328
0.003793
0.002019
-0.0317135
-0.0023833
-0.023064
0.00107399
-0.0564402
-0.0349759
-0.0719453
-0.0888769
-0.120155
-0.138124
-0.116484
-0.171934
-0.114723
-0.208701
-0.0927549
-0.17792
-0.0700341
0.0236347
-0.0637057
0.00128922
-0.0657769
-0.0556679
-0.0444941
-0.0810714
-0.0674527
-0.0825552
-0.0578015
-0.125398
-0.0660806
-0.166836
-0.0541976
-0.054493
-0.0593489
-0.0167859
-0.0292011
-0.249573
0.127067
-0.627927
0.184125
-0.57868
0.220543
-0.610215
0.346957
-0.582464
0.307722
-0.25521
-0.140239
-0.433164
-0.32542
-0.387928
-0.242659
0.0235798
-0.118023
0.0210393
-0.0457061
0.0158122
-0.0166317
0.012403
-0.01684
0.0135105
-0.0539278
0.0136359
-0.0628846
0.00993591
-0.0548482
0.017845
-0.0746351
0.00493614
-0.0408188
0.0053589
-0.0423819
0.000657804
-0.048076
-0.0122516
-0.0413467
-0.018382
-0.0340381
-0.00908028
-0.0188338
-0.0221275
0.00862679
0.0247286
0.00965462
-0.0255779
-0.028341
-0.0194003
-0.00675364
0.00135693
-0.0350499
-0.00261856
-0.044417
-0.00961008
-0.0383588
-0.00409333
-0.0287622
-0.00339236
-0.0490651
-0.0148624
-0.0345614
-0.0105775
-0.05215
0.000880007
-0.0573962
-0.0474255
-0.0819613
-0.0823408
-0.0819107
-0.110501
-0.0944966
-0.135127
-0.103554
-0.178286
-0.057316
-0.114801
-0.0516682
-0.0066774
-0.0362699
-0.0151594
-0.0340686
-0.0227609
-0.0100182
0.014533
-0.00304915
0.0055408
-0.00542221
0.00206759
-0.0592123
-0.0571716
-0.0491831
-0.0864954
-0.0720586
-0.0875973
-0.0615028
-0.156148
-0.030398
-0.190334
0.0806861
-0.482426
0.0693994
-0.500904
0.168709
-0.508386
0.211028
-0.466993
0.169837
-0.0915496
-0.0561798
-0.0242551
-0.0362517
-0.299256
-0.305664
-0.369673
-0.319369
0.0226004
-0.119845
0.0124997
-0.014354
0.0340541
0.00951068
0.0296382
-0.0367001
0.0134496
-0.0200337
0.0149208
-0.0489221
0.0129874
-0.0657514
0.00944822
-0.0695652
0.00765163
-0.0539103
-0.000526529
-0.0483946
-0.0178395
-0.0388776
-0.00936736
-0.0277805
-0.00769853
-0.0256441
0.00402143
-0.00566824
-0.0277321
0.00367146
-0.03187
-0.0316947
-0.0310098
0.000661903
0.0328381
-0.0148006
0.0249048
-0.0108273
-0.00915711
-0.0382408
-0.016129
-0.00512555
0.00762808
-0.0277072
-0.00891586
-0.0279709
-0.00628335
-0.0424614
-0.0205198
-0.064434
-0.0292557
-0.069398
-0.0366917
-0.0815141
-0.12079
-0.0723344
-0.150396
-0.0771381
-0.0823277
-0.0473605
0.016478
-0.0350627
0.00923827
-0.0188581
0.00903357
-0.0155204
-0.0135914
0.00177029
-0.0314978
-0.0145155
0.0221758
-0.0241403
0.0322943
-0.000568449
0.0320152
-0.0124085
0.0334232
-0.0546884
0.00238421
-0.0387473
-0.0963086
-0.00333472
-0.0971835
-0.00497769
-0.202
-0.0121216
-0.193581
0.0548498
-0.295175
0.127071
-0.368695
0.105043
-0.0568555
-0.0569583
-0.0343113
-0.0218244
-0.015618
-0.000338235
-0.00233433
-0.119508
-0.352784
-0.352383
0.0234477
-0.108373
-0.00858863
-0.0437328
0.0176325
-0.00162042
-0.00830783
0.00104153
0.0246454
-0.0300754
0.0106371
-0.0343273
0.0119844
-0.0431289
0.0114243
-0.0572376
0.000594185
-0.0613865
-0.00561602
-0.0402458
-0.00803201
-0.0174403
0.0153164
-0.0169142
0.00550193
-0.0228947
-0.0122617
-0.00611799
0.0325838
-0.00339353
0.00363871
-0.0282293
-0.0278561
-0.0213
0.0211273
-0.00639699
0.0247214
-0.00884855
0.0249004
0.001144
0.0147507
-0.0441195
-0.0116211
-0.0347855
-0.0145921
-0.0473182
-0.0356191
-0.0616879
-0.0325466
-0.0784452
-0.0716155
-0.0812195
-0.0999427
-0.0550682
-0.0500794
-0.0533064
-0.0197181
-0.00942032
-0.0218524
-0.0258883
-0.0173205
-0.0355881
0.0294922
-0.0159913
-0.0117903
-0.0237561
-0.0177191
-0.00214489
0.0273767
-0.0174885
0.0352473
-0.0035338
0.0110461
-0.0267184
0.0298251
0.00720853
0.0157403
0.00404044
-0.179416
0.000751588
-0.227877
-0.0166574
-0.237664
0.0337196
-0.233652
0.0609927
-0.208684
0.0795647
-0.224152
0.0380904
-0.02377
-0.0603608
-0.0270186
-0.0182292
0.0188919
-0.0147503
0.0152751
-0.0258539
-0.0202026
-0.00547292
-0.321996
-0.343111
0.0239581
-0.0945945
-0.00434931
-0.0248238
0.0167019
0.00318816
0.0434475
-0.0489161
0.0153393
-0.0265255
0.0172003
-0.0409677
0.00899056
-0.0382697
0.00419865
-0.0493983
0.00416087
-0.0442414
0.0112057
-0.0502368
0.0081366
-0.0313244
0.0211825
-0.0204142
-0.02416
-0.0194868
-0.0233357
0.00129155
-0.0284393
-0.0122774
-0.011782
-0.0200361
0.00394476
0.00329031
-0.0147557
-0.0161422
0.012803
-0.0347037
-0.0111265
-0.0154608
-0.0151513
-0.0333597
-0.0261065
-0.047709
-0.0517884
-0.0541529
-0.0647215
-0.0509314
-0.0836424
-0.0609439
-0.055888
-0.0515982
-0.0406158
-0.0479271
-0.0102669
-0.0479256
-0.0156758
-0.0432438
-0.022437
-0.0233776
-0.0122151
-0.0426353
0.0209264
-0.0205002
-0.0108792
-0.022189
0.0279164
-0.0233627
0.00633118
-0.0135275
-0.0231247
-0.00369845
0.0209847
-0.025334
-0.0404304
-0.00259459
-0.182879
-0.00453524
-0.236068
-0.0100836
-0.284697
0.0263534
-0.305874
0.0627311
-0.236985
0.038667
-0.172676
-0.00492551
-0.0771158
-0.0631618
-0.100853
-0.0558531
-0.0124194
-0.0339769
0.00978595
-0.00813777
0.018621
0.00404499
-0.00804578
-0.0606975
-0.300421
-0.323778
0.0243595
-0.0786694
0.0146755
-0.0417855
0.020333
-0.0358887
0.0243014
-0.0446286
0.018427
-0.0439425
0.0120479
-0.0223397
0.00549294
-0.0269381
0.00980915
-0.0425153
0.0108364
-0.0320373
0.0108983
-0.0339419
0.00924536
-0.0377351
0.00589026
-0.0216255
-0.00177658
-0.0155606
0.00343252
-0.0242044
-0.0182189
-0.0190637
-0.010992
-0.0129101
-0.0193448
-0.0338451
0.0223908
-0.0129458
0.0059564
-0.0317993
-0.022938
-0.0410293
-0.0392756
-0.0326432
-0.0471279
-0.0478037
-0.0677809
-0.0642881
-0.0913357
-0.0304566
-0.0282878
-0.0247066
0.00538087
-0.0174661
-0.0148415
-0.017118
-0.0129016
-0.0259976
-0.0144471
-0.0125913
-0.00917799
-0.0138078
-0.016396
-0.0335061
-0.0145265
-0.039452
-0.0200587
-0.0138967
-0.00132051
-0.0317067
0.0174671
-0.0187539
0.0154922
0.00927589
-0.059332
0.0256941
-0.162438
-0.0317553
-0.20117
-0.0244578
-0.24615
0.0282704
-0.218625
0.0443693
-0.237594
0.0613621
-0.0642923
-0.0486919
-0.0220715
-0.0373268
-0.0713817
-0.0546818
-0.0743352
-0.0473675
-0.0946351
-0.0465576
-0.024277
-0.0391551
0.0139221
-0.0186121
-0.209653
-0.0993779
-0.291372
-0.298714
0.0243186
-0.0534434
0.0214803
-0.0615617
0.0278166
-0.0288362
0.0237331
-0.0380065
0.0151659
-0.0347463
0.00829121
-0.0270501
0.00382475
-0.0409776
-0.00358818
-0.0356679
0.0115947
-0.0293822
-0.0049608
-0.0357131
0.0110144
-0.0266851
0.00903755
-0.0421719
0.00591666
-0.024688
-0.000645772
-0.00824516
0.00985566
-0.00671417
-0.0179033
-0.00246326
-0.0145016
-0.027896
-0.0192934
-0.0330742
-0.0271404
-0.0356388
-0.0231871
-0.0422411
-0.0461459
-0.0316714
-0.062804
-0.038328
-0.0536201
-0.0387633
-0.0166244
-0.00652868
0.0137078
-0.0126164
0.00107125
-0.0264707
0.0152248
-0.0283108
-0.00607502
-0.00415432
-0.000252234
-0.0110762
-0.0179563
-0.0151757
-0.0146315
-0.0225838
-0.0126185
-0.0187492
-0.0226927
-0.00970545
-0.0093648
-0.025952
0.00310961
-0.0185786
-0.100246
-0.0111618
-0.139885
-0.0632543
-0.171157
-0.01559
-0.214654
0.0178357
-0.17251
0.0370688
-0.177903
0.0428528
-0.0717526
0.000649652
0.00427152
-0.0439809
0.0352639
-0.0100918
-0.00618415
-0.0531773
-0.060188
-0.0674715
-0.0886559
-0.0520251
-0.0872116
-0.0469262
-0.00205731
-0.0282573
-0.244281
-0.193218
-0.236373
-0.260818
0.0242861
-0.0470317
0.0224488
-0.072515
0.0263519
-0.057037
0.0178864
-0.0221354
0.0135263
-0.0430995
0.00535619
-0.0403378
0.0119209
-0.0322967
-0.0174771
-0.00853143
-0.0122808
-0.0338399
-0.00804416
-0.018594
0.013906
-0.00609018
0.00718857
-0.035589
0.00365703
-0.0203839
0.00823473
-0.0349487
0.0090618
-0.0261418
-0.0108143
-0.0257836
-0.0149345
-0.0277361
-0.0197566
-0.0179656
-0.0294438
-0.0305824
-0.0481725
-0.0497772
-0.0650144
-0.0344057
-0.0350664
0.00127987
0.00518198
-0.0352843
0.00471613
-0.030482
-0.0213884
-0.0147354
0.0311652
-0.0353873
0.00181113
-0.0145936
0.0246396
-0.0488235
0.0213277
-0.0251852
-0.0170695
-0.0252414
-0.00805811
-0.0393395
-0.016504
-0.0139131
-0.0150584
-0.037194
-0.02808
-0.0287523
-0.0600014
-0.0286838
-0.121918
-0.0438099
-0.161981
0.00601189
-0.175295
0.010342
-0.152217
0.0290333
-0.15529
0.0245834
0.0143857
-0.0451757
-0.00676466
-0.0368522
-0.0203668
-0.00699594
0.0226901
-0.0200009
-0.0013716
-0.0049602
-0.00978658
-0.0607872
-0.0576196
-0.0457948
-0.0960264
-0.0653593
-0.0490325
-0.0543439
-0.224483
-0.213671
-0.122471
-0.202189
0.0290083
-0.00314731
0.0244453
-0.0685357
0.0205848
-0.0546912
0.0165135
-0.0353743
0.00606076
-0.0140195
0.0173306
-0.0362118
-0.0216358
-0.0349451
-0.017442
-0.00546546
-0.00413678
-0.0239817
0.00258954
-0.034843
0.0119004
-0.0157612
0.012577
-0.023346
0.00407527
-0.0310469
0.00975397
-0.0210698
0.00598586
-0.0344385
0.000820406
-0.0353365
-0.00891941
-0.0275932
-0.0253781
-0.0272425
-0.0392563
-0.0333467
-0.0497199
-0.045206
-0.0221535
0.000572589
-0.0165442
-0.00871943
0.00902829
-0.0201326
0.0348916
-0.0121356
-0.0132109
-0.0260659
-0.0245722
-0.015877
-0.00967888
-0.0137806
0.00261094
0.00125345
0.0236429
-0.0264762
-0.0219422
-0.0129894
0.0131724
-0.0132419
-0.00993822
-0.0249857
-0.0217475
-0.015928
-0.024463
-0.0444063
-0.0401792
-0.0370852
-0.082095
-0.00560363
-0.155716
0.0203653
-0.116959
0.0212858
-0.132431
0.0407733
-0.0334873
-0.0122588
-0.0193274
-0.00393362
0.0268416
-0.00664029
-0.002561
-0.0188347
0.00614299
-0.0274273
-0.0116177
-0.0380213
0.000575484
-0.0308057
-0.0316156
-0.0544443
-0.0659127
-0.078179
-0.179325
-0.112178
-0.215444
-0.219322
0.0229037
-0.0786176
0.0274012
-0.0208761
0.024077
-0.0497402
0.0210549
-0.0472196
0.0144084
-0.0442946
-0.000123145
-0.0486139
0.0239122
-0.0343398
-0.00337164
-0.0284198
0.00535511
0.00293813
-0.0125347
0.000529262
0.0291799
-0.00498826
0.00708805
0.00973632
0.0158755
-0.0142641
-0.00550978
-0.0326631
0.00333725
-0.0213542
0.000877406
-0.0239326
-0.00732962
-0.0336373
-0.000581421
-0.046086
-0.0126639
-0.0409809
-0.0272496
-0.0208118
0.00856388
-0.0419132
0.00878442
-0.0314458
0.00746949
-0.0284107
0.0301415
-0.00150455
-0.0229737
-0.00392257
-0.0141002
0.0106374
-0.00406026
-0.0261939
-0.0198573
-0.0260216
-0.00846913
0.0083657
0.00339469
-0.0264897
0.00630244
-0.0143557
0.00592908
-0.044452
-0.0193531
-0.0182378
-0.0455494
-0.0317659
-0.0506822
-0.0135597
-0.0921714
-0.0275737
-0.0325975
-0.00655844
-0.0424132
-0.00876146
-0.0840581
0.0128225
-0.0215753
-0.00166185
-0.00176379
-0.0336719
-0.0174001
0.0048537
0.0304497
-0.00473366
0.0126488
-0.00934404
0.0216981
0.00973175
-0.0155932
-0.0383145
0.00278798
0.00635397
-0.000564315
-0.0215461
-0.0487347
-0.0516036
-0.174281
-0.141988
-0.140972
-0.180562
0.0282677
-0.0179043
0.00897553
-0.0144872
0.0243417
-0.0393099
0.0220606
-0.045789
0.0205498
-0.0517991
-0.0138832
-0.011971
-0.0236446
-0.0427984
0.0334647
-0.00836068
-0.0093294
-0.0254484
-0.00412851
0.00429045
-0.0173324
-0.0152107
0.0334381
0.00387016
-0.00940542
-0.0210616
-0.00715784
-0.0364736
-0.00813078
-0.0206582
-0.00135556
-0.0400173
-0.000378138
-0.0326062
-0.0226926
-0.0226269
-0.00595751
-0.0397048
0.010954
-0.0376085
-0.0146407
-0.0101887
0.0162515
0.000408702
0.0247785
-0.0133291
0.00103309
-0.0158404
-0.0197332
-0.00811827
0.000361011
-0.0364895
-0.00431669
0.0108782
-0.0270993
-0.0246221
0.032013
-0.00402167
0.0267129
-0.00318009
0.0155883
0.00506103
-0.0333372
-0.0458034
-0.081013
-0.0330856
-0.0659766
-0.0245267
-0.0839897
-0.00848569
-0.0562537
-0.0131145
-0.084336
0.00681031
-0.049002
-0.0334584
-0.0188299
-0.0498519
0.0142671
-0.0276321
0.0219393
0.00824205
-0.0199003
-0.0271784
0.0315395
-0.0154074
0.000696018
-0.0132638
-0.0299965
-0.00288889
-0.0162798
-0.0128796
0.0322933
0.00675144
-0.00689532
-0.0328534
-0.147678
-0.0973824
-0.111894
-0.15175
-0.0901962
-0.127518
0.0132897
0.00624166
0.0244571
-0.0283373
0.0254741
-0.0306667
0.0215089
-0.0372939
0.0193002
-0.0414943
0.0125117
-0.019424
0.00855692
-0.0322228
-0.0266092
-0.0229724
-0.0231971
0.00830625
0.0190325
-0.0353171
0.0308417
-0.0100914
0.00908741
-0.0247337
-0.0171739
-0.00430023
-0.00528542
-0.0143491
-0.00977644
-0.0136208
-0.0125941
-0.0278698
-0.0138013
-0.0209277
0.00512779
-0.012015
0.0113483
-0.0425062
0.00654094
-0.0372251
0.00370658
-0.0209397
-0.00778822
-0.0217658
0.0109115
-0.00349806
-0.0143285
-0.014321
-0.00479852
-0.00541515
-0.0253622
-0.0362593
-0.0214476
-0.0190923
-0.0202978
-0.0186151
-0.00827681
-0.0342728
-0.0303107
-0.00820191
-0.0632189
-0.0359473
-0.0634045
-0.0220569
-0.0771156
-0.0134603
-0.0961583
-0.00596453
-0.0563809
-0.0128349
-0.0596514
0.00168286
-0.0389535
-0.0025648
-0.00861896
-0.0356928
-0.0137037
-0.0384947
-0.0218815
-0.0239999
-0.0233649
-0.0152984
0.0144401
0.00917713
-0.0111202
-0.0297295
-0.000197335
-0.0203669
-0.00444283
-0.0128278
0.0140281
-0.00465285
0.0168864
-0.0421059
-0.0606269
-0.0252601
-0.165946
-0.119767
-0.0978539
-0.136601
-0.0703048
-0.0979171
-0.00705937
-0.0384075
0.0329637
-0.0378098
0.0265687
-0.0207303
0.0239166
-0.0410198
0.0198965
-0.0387812
0.0164316
-0.0412157
0.0197452
-0.0393723
0.00590127
-0.0104054
-0.00592348
-0.0386697
0.0308695
-0.0225055
0.0118703
-0.0112884
-0.00272934
-0.0252457
0.00830962
-0.0245538
-0.000893875
-0.0449469
-0.0106423
-0.0167906
-0.016711
-0.0188085
0.000986683
-0.0123349
0.00628371
-0.0335614
0.00160234
-0.00307
0.00962271
-0.0139672
0.010618
-0.0194999
0.0089657
-0.0348058
0.00420756
-0.0300578
0.0161545
-0.0282602
0.0315093
-0.0210089
0.0259477
0.00156904
-0.0187675
-0.0313013
0.0262827
-0.00144662
-0.0175104
-0.0130959
-0.0464354
-0.0218293
-0.0462057
-0.0235422
-0.0729408
-0.00686951
-0.0711606
-0.0185853
-0.0556512
-0.0227089
-0.0714035
0.00460818
0.0119344
-0.0249616
-0.00146316
-0.0388301
-0.0066588
-0.0185988
-0.0108556
-0.025801
-0.0133157
-0.0371403
-0.0165234
-0.0409665
0.00418163
-0.0262209
-0.0102654
0.00113742
0.015335
-0.0216003
-0.0278561
-0.0334403
-0.00672046
-0.00276894
0.0290133
-0.0195043
-0.130135
-0.0825381
-0.122257
-0.0969714
-0.0422946
-0.120934
-0.0676456
-0.080841
-0.0485646
-0.0335307
0.0311044
-0.0274459
0.0250642
-0.0265872
0.00340488
-0.0324497
0.0202731
-0.0185584
0.0157137
-0.0426613
0.0157862
-0.0169558
0.00179129
-0.0187464
0.00200665
-0.0458713
-0.0123725
-0.0219224
-0.0085913
-0.00922787
0.00870741
-0.011192
-0.000255299
-0.0356712
-0.00309648
-0.00250384
-0.0138101
-0.0238359
-0.0177495
-0.0371109
0.0272603
-0.0032512
-0.0166708
0.000250402
0.0241883
-0.0189153
0.0135138
-0.0403273
0.00617924
-0.0308582
0.0102157
-0.0300426
0.00721533
-0.0174047
0.0172322
-0.0420275
-0.00746608
-0.0345003
-0.0193437
0.00133775
0.0323788
-0.0025281
-0.0269004
-0.00788079
-0.0386803
-0.0294543
-0.0485667
-0.018826
-0.0485246
-0.00274429
-0.0621181
0.00437434
-0.04554
-0.00729258
-0.035305
0.00373203
0.00366876
-0.0178662
-0.0106367
-0.0255668
0.0198635
-0.0154285
0.0168868
-0.0222587
-0.00582211
-0.0226218
-0.00507025
-0.0084965
-0.0097788
-0.0152617
-0.0178038
-0.022813
0.0300697
-0.00689429
0.0039727
-0.0143939
0.0260793
-0.024656
-0.0109391
-0.00885105
-0.10732
-0.0527792
-0.11921
-0.0715071
-0.0892883
-0.097681
0.0454625
-0.0777618
-0.0471363
-0.0651087
-0.0566515
-0.0704679
0.0302159
-0.0245348
0.0277003
-0.0345142
0.00461057
-0.00408231
0.0211829
-0.0200362
0.0177456
-0.0165661
0.0160996
-0.0353834
0.00610507
-0.0192032
0.0216024
-0.0320188
-0.00883061
-0.015761
0.0127758
-0.0158838
0.00168103
-0.0116481
0.00822281
-0.0353279
-0.0044727
-0.0372624
0.00516966
-0.0242249
0.0254176
-0.00116008
-0.0226215
-0.0119019
-0.0190972
-0.0101633
-0.0149589
-0.00173249
0.0233303
-0.0146308
0.0164544
-0.0330123
-0.000322673
-0.0355098
0.00399729
-0.0386827
0.00809682
-0.0212565
0.0108575
-0.0014239
-0.00729409
-0.012143
-0.028552
-0.041983
-0.0334298
-0.0197063
-0.0344779
-0.00311344
-0.0453972
-0.0273768
-0.058796
-0.0199985
-0.0466626
-0.0178
-0.048653
-0.0136771
-0.0305071
0.000945145
0.00355678
-0.0210011
0.0273684
-0.0277173
0.027558
-0.033904
0.0303258
-0.0125135
0.0095549
-0.032954
-0.00637757
-0.0427369
-0.00331575
-0.00676816
-0.0116519
-0.0184871
-0.0159484
-0.0128239
-0.0236118
-0.0080218
0.0158198
-0.029299
-0.0616065
-0.0110582
-0.117783
-0.0543572
-0.0853308
-0.0916923
0.0047186
-0.0828126
0.0073908
-0.0349714
-0.0231639
-0.0591617
-0.0571485
-0.0722781
0.0343207
-0.0322141
0.0254328
-0.0158627
-0.00646942
-0.0253996
0.0130159
-0.0323221
0.020985
-0.0399981
0.0175527
-0.0101836
0.0181699
-0.0449391
0.0157847
-0.0364632
0.0068442
-0.0322337
0.00734766
-0.0314288
0.00669726
-0.0107044
0.00284427
-0.0365972
-0.0185562
-0.011169
0.00740399
-0.0153472
-0.021795
-0.0195771
0.0215265
-0.036732
-0.0219708
-0.0369652
0.0241641
-0.0330778
-0.0228968
-0.020626
-0.00649482
-0.00796566
0.0095382
-0.0201912
0.0108449
-0.0367526
0.00713201
-0.0378511
0.00641542
-0.0284637
-0.00737462
-0.00731405
-0.0288951
-0.014795
-0.0379159
-0.00956276
-0.0483759
-0.0224469
-0.033252
-0.0124446
-0.0271292
-0.0115537
-0.0323792
0.00957539
0.00992497
-0.0291357
0.00700298
-0.0214231
-0.0068616
-0.0143227
-0.0291197
0.00330708
-0.0127767
-0.0210027
0.0173368
-0.0229372
0.00373888
-0.0231737
-0.0162087
-0.031885
-0.0141369
-0.0337256
-0.00356725
-0.0203719
-0.013037
-0.0307251
-0.0184402
-0.0321548
-0.040723
-0.00666143
-0.105073
-0.0576644
-0.0877322
-0.0734897
-0.0367692
-0.0661846
0.0396871
-0.0442256
0.0120553
-0.0117727
0.026897
-0.0519422
-0.0528343
-0.076804
0.0327019
-0.025889
0.0200741
-0.0339479
0.00376899
0.0104986
-0.0191848
-0.0257525
0.00177686
0.00215475
0.019833
-0.0370697
0.0138311
-0.0218483
0.014237
-0.0306955
0.0142242
-0.0122471
0.0120502
-0.0270963
0.0094823
-0.038746
-0.00895538
-0.00598866
-0.028617
-0.0229024
-0.00551363
-0.0191901
0.0207923
-0.0148844
-0.00986706
0.00685635
-0.00952171
-0.0220668
0.0123758
0.00716737
-0.0126894
-0.00728411
0.0162227
-0.0117022
-0.0193165
-0.030801
0.011238
-0.00843206
0.0108733
-0.0121783
-0.00393475
-0.0112364
-0.00553155
-0.0347239
-0.00649698
-0.0293173
-0.0263858
-0.0301819
-0.0249207
-0.0241514
-0.023448
-0.00200791
-0.00883516
0.00406064
0.00931186
-0.0101
0.0037927
-0.0186378
-0.0245252
0.00392135
0.0093297
-0.0354177
-0.0265926
0.00116959
-0.0240077
0.0109941
0.00491877
0.00190293
-0.00500067
0.00506015
-0.0162951
-0.031683
0.0111425
-0.0287569
0.00215348
-0.0282935
-0.0049113
-0.0404484
-0.00759437
-0.0386052
-0.037235
-0.0549386
-0.0825115
-0.0590761
-0.0515548
-0.0658262
0.0230528
-0.0402633
0.0300674
-0.050921
0.0311259
0.0022795
0.0353303
-0.00672649
-0.0492121
-0.0759095
0.0351629
-0.0283501
-0.0258457
0.00227712
-0.0191439
0.00657278
0.0163214
-0.00122098
0.0162518
-0.0187963
0.017852
-0.0420455
0.0183885
-0.0193403
0.0182413
-0.0322488
0.0174465
-0.027016
0.0141041
-0.0165353
0.0184227
-0.0171855
-0.000597088
-0.0320376
0.00341198
-0.00256666
0.0142948
-0.000210168
-0.0124458
0.00688989
-0.00340886
-0.0122347
-0.0028774
-0.0289824
0.00668273
-0.000496793
0.0141956
-0.0105988
-0.024653
-0.0314438
0.00712582
-0.00566602
0.00614198
-0.0322386
-0.0125624
-0.010622
0.00316001
-0.0322084
-0.0101683
-0.0249682
-0.0125237
-0.00825724
-0.00203631
-0.00213804
-0.00962842
-0.000651936
-0.0250186
-0.0114521
0.00983324
-0.0392291
0.0269901
-0.0213929
-0.0250065
-0.0278271
0.00467889
-0.0310498
-0.00957548
-0.0372122
0.02839
-0.0387947
-0.00627297
-0.0222208
-0.027912
-0.0357974
-0.020395
-0.0377672
0.0303032
-0.00305571
0.0232873
-0.0499637
-0.00152231
-0.0336264
0.00102063
-0.0217744
-0.0644175
-0.0330409
-0.02072
-0.0492947
-0.031581
-0.0623003
-0.00867511
-0.0487366
0.0236984
-0.0190049
-0.0281932
-0.00502333
0.0111371
-0.0231691
-0.0138694
-0.0113779
-0.0453226
-0.0762142
0.0348908
-0.0245877
0.0223803
-0.0235409
-0.00440561
-0.0343521
0.0001294
-0.0314477
0.0286398
-0.0488737
0.0120272
-0.0093017
0.0196588
-0.00428218
0.0189591
-0.0176428
0.0260484
-0.0305151
0.0194505
-0.0158348
0.0094433
-0.0178154
-0.00320542
-0.00653538
-0.0219184
-0.0103266
0.0134656
-0.0361145
0.0224426
-0.0380294
-0.0307761
-0.0117026
0.00292527
-0.0366481
-0.00811137
-0.0107284
0.00606855
-0.0354208
-0.00813826
-0.00632839
-0.0146289
-0.0212196
-0.0211772
-0.0256577
-0.0156328
-0.0336005
-0.00417631
-0.0180813
-0.00242295
-0.00479376
-0.008031
-0.00827826
-0.0124693
-0.00915318
-0.00252804
-0.0136228
0.0183442
-0.0376476
0.0127441
-0.0332742
-0.0247356
-0.0177162
-0.00801832
0.00584707
-0.0218053
-0.000115643
-0.022494
-0.00971147
-0.00722216
-0.0380827
0.00714802
-0.0211109
-0.0233377
-0.0135855
0.0185962
-0.0380355
-0.00678096
0.00377563
-0.0235995
-0.0352066
-0.012994
-0.0261835
-0.0486177
-0.0414536
-0.032399
-0.0362774
-0.0283198
-0.0457378
-0.0164634
-0.048155
0.000467182
-0.0341918
0.0348831
-0.0234721
-0.0154567
-0.0131418
-0.019481
-0.00420157
-0.0175619
-0.0284509
-0.0409442
-0.0777038
0.0403571
-0.0249903
0.0475498
-0.026917
-0.00727179
-0.0213503
-0.00693424
-0.0128636
0.0195355
-0.0389818
0.0125496
-0.0152148
0.0280637
-0.0058329
0.0248993
-0.0116876
0.0239135
-0.0313278
0.0162095
-0.0181404
0.00624907
-0.0170407
-0.000425817
-0.0112686
-0.0235118
-0.0139991
-0.0124144
-0.0360339
0.0295563
-0.00464523
0.0273167
0.00865233
0.0126343
-0.00855735
-0.00335716
0.00517167
0.0101031
-0.0365963
0.00149011
-0.0277604
-0.0240397
-0.00832055
0.00380352
-0.0183733
-0.0130091
-0.0165652
-0.018474
-0.0120421
-0.000988448
-0.0278139
0.00106376
-0.0286229
0.00576173
-0.0351081
0.00537963
-0.00409902
0.00884875
-0.0234707
0.0198694
-0.0164333
0.0127744
-0.0109322
-0.0271604
0.00757057
0.0322467
-0.0212984
0.00957786
-0.0271376
-0.020182
-0.0200925
0.0302491
-0.00248335
0.0252529
0.000126768
0.0248471
-0.0224407
-0.00558366
-0.0194259
0.0158587
-0.0104481
-0.0477316
-0.0389203
-0.0550198
-0.0570939
-0.0342871
-0.061965
-0.0207201
-0.0603165
-0.00572541
-0.042596
-0.00508438
-0.0590235
-0.00714546
-0.00427254
0.0294674
0.0103248
-0.00127887
-0.00422596
-0.0121387
-0.0232946
-0.0374226
-0.0773867
0.042248
-0.0187799
0.0432059
-0.00742691
-0.00290221
-0.0177202
0.0222006
-0.0393642
0.0181851
-0.00213608
0.0297124
-0.00614958
0.0366603
-0.0267395
0.0319951
-0.0318083
0.0160568
-0.00727457
0.0123287
-0.0347187
0.0186584
-0.0208324
0.00730594
-0.020786
-0.0176306
0.00662855
0.00469509
-0.005533
-0.0206193
-0.0246291
0.00767121
-0.00400032
-0.0104585
-0.0218885
0.0301412
-0.0287913
0.0288997
-0.0440779
-0.0185971
-0.0233221
0.0028233
-0.0205886
-0.0105314
-0.0163364
-0.0163875
-0.00238854
-0.00880731
-0.0161975
-0.0153076
-0.00627992
-0.00743168
-0.00577869
0.0120402
-0.0180448
0.0031954
-0.0259216
0.011388
-0.0118012
0.00207486
0.000104538
0.0163188
-0.0175208
0.00359293
-0.00564258
-0.0294269
-0.00749365
-0.0280629
-0.0203318
0.0143259
-0.0332238
0.0260553
-0.00728736
0.000373418
-0.0212939
-0.0177165
-0.0154464
-0.00182729
-0.0283281
-0.0251467
-0.0304216
-0.0508014
-0.0225575
-0.037564
-0.0578332
-0.0266972
-0.0531559
-0.000618519
-0.0476164
0.00464111
-0.0408723
-0.00835853
-0.0355138
-0.000728577
-0.0207294
0.0319017
-0.0351874
-0.0282842
0.00371872
-0.00173238
-0.0225448
-0.0298222
-0.0740002
0.0435179
-0.0130916
0.0366217
-0.00613514
0.0124412
-0.0182084
0.00893079
0.00357183
0.0308129
-0.00844243
0.0391523
0.00599278
0.0321957
-0.0275526
-0.0103358
-0.0223758
0.0191632
-0.0237294
0.020156
-0.032157
0.0141325
-0.0389115
0.0159577
-0.0186963
0.00546935
-0.0249
0.0175449
-0.0116249
0.00969423
-0.00196666
-0.0234765
-0.0239911
0.00363996
-0.0187055
0.0136832
-0.0328482
-0.0129045
0.000518381
-0.0135567
-0.0244749
-0.000291312
0.00156395
-0.0079624
-0.022468
-0.00667889
-0.00225881
0.0119317
-0.0195309
-0.0036975
0.00796989
-0.00218336
-0.0260887
0.0117603
-0.0149287
0.0108748
-0.0158245
0.00437647
-0.0377925
0.00250895
-0.0311391
0.011892
-0.03077
0.013589
-0.0311567
-0.0135487
-0.00300997
0.0125098
-0.0149354
-0.0191646
-0.00204731
-0.0247894
0.00509391
0.0105674
-0.0261173
-0.0240963
-0.0389071
-0.0220504
-0.0182414
-0.0424495
-0.0379553
-0.0400885
-0.0405431
-0.025431
-0.0558572
0.0272806
-0.0482485
0.0043252
-0.0597457
-0.00276448
-0.0419562
-0.00296486
-0.030689
-0.00677884
-0.0175383
0.00997043
-0.0281975
0.0216327
-0.00755309
-0.0291153
-0.0260552
-0.0208511
-0.0674673
0.045297
-0.025142
0.0368556
-0.00476357
0.0528818
-0.0365779
0.0287588
-0.0114552
0.0440852
-0.0134751
0.0402811
-0.00387446
0.0146484
0.00142866
0.0183403
-0.010149
0.0226509
-0.00369501
0.0220989
-0.0318396
0.0143222
-0.0134144
0.0182433
-0.0308369
0.0096287
-0.0103701
0.0078707
-0.0351268
-0.0226628
-0.0107847
0.016552
-0.00421594
0.0280152
-0.0189186
0.00916754
-0.0191627
-0.00895216
-0.0161954
0.0145303
-0.00323661
0.00320199
-0.0245699
0.00260945
-0.0116885
-0.00575531
-0.0192818
0.0324762
-0.00815256
-0.00534768
-0.0348669
0.00161141
-0.0312795
0.0044589
-0.0393596
0.00801254
-0.0013883
0.0120678
-0.0114265
0.0138203
-0.0362995
0.00667465
-0.0290868
-0.00271487
-0.0306699
0.0118626
0.00166418
0.00717661
-0.0427076
-0.0113175
-0.00122853
-0.00474259
-0.0334796
-0.0286675
-0.017135
-0.00806226
-0.0113157
-0.0337177
-0.0262005
-0.0313551
-0.0485139
-0.0199642
-0.0530813
0.00361661
-0.0227453
0.00836986
-0.0393595
0.0372457
-0.0247606
-0.0106231
-0.0179944
-0.00236436
-0.0145237
-0.00201616
-0.0355464
-0.005078
-0.0220718
0.0230952
0.00186255
-0.0239953
-0.0347604
-0.00545462
-0.0448384
0.0459297
-0.00297819
0.0393331
-0.00310475
0.0292109
-0.0254697
0.0492563
-0.00101002
0.0547507
-0.013117
0.0486498
-0.0225894
0.00541865
-0.0258252
0.0134864
0.00962882
0.00923423
0.00016117
-0.0125359
-0.00954932
0.0238923
-0.0182926
0.0181993
-0.0391644
0.0112127
-0.0252727
0.0140273
0.00255532
0.0011056
-0.0138128
0.00194402
-0.0108389
0.00249427
-0.00964445
-0.000128637
-0.0176046
0.0196085
-0.00309044
0.00906748
-0.0160173
0.016846
0.000774891
0.0155403
0.00370019
0.026967
-0.0391963
0.00409365
-0.0195487
0.0181824
-0.0374144
-0.00849394
-0.0130122
0.00272294
-0.0333094
-0.00288469
-0.00961287
0.018846
-0.0287331
0.00168863
-0.0117616
0.0128651
-0.00171652
0.00837047
-0.029153
0.0134305
-0.00949604
0.00972643
0.00268443
-0.0102759
-0.0343492
-0.0064465
-0.036872
-0.0159638
-0.0391785
-0.0295276
-0.011122
-0.0267952
-0.0385529
-0.015134
-0.0253431
-0.00922979
-0.0424527
0.0288607
-0.0211588
-0.0165007
-0.0483496
0.0271099
-0.0372297
0.0189252
-0.0206931
0.00551595
-0.0382582
-0.00175209
-0.0276014
-0.00346007
-0.0240464
-0.00189741
-0.0375387
-0.0200627
-0.0487011
0.00321188
-0.0249557
0.0308296
-0.0173318
0.0488883
-0.0208589
0.0438153
0.00562724
0.0595866
0.00283421
0.0511581
0.00371458
0.00731272
-0.0162228
0.00881881
-0.031437
-0.024839
-0.0184733
0.0190077
-0.0288056
-0.0196108
-0.0203771
-0.00331211
-0.0358625
0.00928074
-0.00425008
0.0160093
-0.0221953
0.017325
-0.0255038
0.00987273
-0.021184
0.0109196
-0.0144295
0.0052805
-0.0147093
0.0248191
-0.0231054
0.0226696
-0.018143
0.0257119
0.00802091
-0.00502257
-0.00760081
0.0315849
-0.0366214
-0.0264308
-0.0151787
0.0253083
-0.0224431
0.00227386
-0.0218503
0.0166895
-0.0123063
0.0335412
-0.0193043
-0.0062984
0.00525107
0.000957987
-0.00953885
-0.00135286
-0.0173324
0.0046997
-0.0211401
0.0151323
-0.0367762
0.0101301
-0.00835186
0.00345413
-0.0295871
0.00633687
-0.0125976
-0.0170327
-0.0296168
-0.0237382
-0.0372677
-0.0220168
-0.0256296
-0.0161996
-0.0432
0.0168402
-0.0374145
0.0260035
-0.0207037
0.0288088
-0.036896
-0.00666588
-0.022823
0.00248066
-0.0135916
0.000177827
0.0015195
-0.000301885
-0.00859426
-0.000947699
-0.0429439
0.000436779
-0.0272981
-0.0075021
-0.038633
-0.0181372
-0.0536942
0.0390549
-0.0092776
-0.0245764
-0.0227129
0.0493634
-0.0253419
0.0509766
0.00505046
0.0664273
-0.0111644
0.0215863
-0.0123456
0.000871379
0.000868703
-0.0102372
0.00178096
-0.00605583
-0.000598941
-0.0218674
-0.0145658
-0.0149211
-0.018295
0.0136088
-0.00959983
0.0241842
-0.0118515
0.00793246
-0.0230351
0.016597
-0.0227393
0.0162287
-0.0108302
0.0238927
-0.00530295
0.0220014
-0.00565435
0.0182215
-0.0218222
0.0147402
-0.0103561
0.0186629
-0.0382314
-0.0187822
-0.0175732
-0.0159137
-0.035302
-0.0245938
-0.0243195
0.0131513
0.00907922
0.0240204
-0.013494
0.00488775
0.00699052
0.0138709
-0.0250322
0.0219194
0.00787783
0.0359898
-0.0225345
-0.00899666
-0.00764284
0.0137845
-0.0394224
0.00539713
-0.0302376
0.0154856
-0.00820231
0.00560152
-0.0167201
-0.00235826
-0.0167976
0.00191032
-0.0287398
-0.0164408
-0.04128
2.79387e-005
-0.0440638
-0.00184018
-0.0146898
0.0260261
-0.0350495
0.000942874
-0.0221133
-0.0244957
-0.0285967
0.00150459
0.00414714
0.0153785
0.00915392
0.00680887
0.00439717
-0.0131073
-0.0125115
-0.001193
-0.0471376
0.00364859
-0.0513492
-0.00434226
-0.0415356
-0.0041344
-0.035308
0.0461618
-0.00526564
-0.00994102
-0.0116415
0.0534072
-0.00624162
0.0586357
0.00688102
0.0521013
-0.0075357
0.0041964
-0.0046334
-0.013747
-0.00190472
-0.0180934
-0.000783418
0.0319799
-0.027374
-0.0182547
-0.0228322
0.0203064
-0.00083373
0.0350653
-0.0115288
-0.0180162
-0.0437978
0.0219842
-0.0425023
0.0216235
-0.00673808
0.0193236
-0.0133966
0.0279638
-0.0139002
0.019477
-0.0128843
0.0202475
-0.0114055
0.00608111
0.00186026
0.002627
-0.00591341
0.0024436
-0.0149685
0.0291731
0.00175237
0.00108686
0.00394284
-0.000166316
-0.023718
0.022153
0.000477426
0.00162453
-0.0116782
0.0214665
-0.00599907
-0.00288774
0.00695697
0.0174816
0.00675725
0.014373
-0.0102811
-0.00823
-0.0137193
0.0212855
-0.0156901
0.0143687
-0.0121788
0.00109255
-0.0359311
-0.00825794
-0.023449
0.00749337
-0.0201982
0.0105184
-0.0208531
-0.00328088
-0.0267679
-0.00144168
-0.0153062
-0.00437024
-0.0559804
0.0280901
-0.0181349
0.024496
-0.0288543
0.0242396
-0.0158937
-0.00554712
-0.0132089
0.0202629
-0.0137318
-0.0214286
-0.0277996
0.0174799
-0.0218657
-0.00224123
-0.0542785
-0.0134061
-0.0449957
0.00135428
-0.0477173
0.0236621
-0.0213769
0.00970674
-0.00696507
0.0604756
0.0134492
0.0686444
-0.00073002
0.0305592
0.0014359
0.0340698
-0.0189595
0.0244584
-0.0185356
-0.0300461
-0.0265431
0.0230175
-0.0336401
0.0238674
-0.00469554
-0.0247046
-0.031158
0.0118094
-0.0200281
0.0504077
-0.0465802
0.0400229
0.0035278
0.0244775
0.010993
0.0284346
0.000666622
0.0241725
-0.02002
0.0372981
0.00181225
0.0253152
-0.0251603
0.000283353
-0.0262192
-0.0162466
-0.00251619
0.0165677
-0.0271205
0.0157869
-0.00472573
0.000673271
-0.00234003
0.0249655
-0.0126311
-0.0195781
-0.0226675
-0.0115297
-0.0174595
0.00736929
0.00589128
-0.0300171
-0.0033173
0.0333923
-0.0307128
0.00882618
0.00411874
0.0015657
-0.0345404
0.0162683
-0.0341698
-0.00855129
-0.0315394
0.00251
-0.00970592
0.0109991
-0.0104115
0.0108234
-0.0328609
0.00885239
-0.0312316
0.0161311
-0.0375502
0.0271205
-0.0572896
-0.00569571
-0.0219095
0.00693502
-0.0208151
0.0238095
-0.0304338
0.0246697
-0.0124054
-0.00187651
0.00954422
-0.0100863
-0.000188824
0.00099925
0.00307172
0.0181309
-0.0363759
-0.00979129
-0.0369425
0.00129147
-0.0425332
0.00604867
-0.0458852
-0.0306419
0.000586414
0.0266311
-0.0121548
0.0882284
0.0247499
0.0635593
-0.00570159
0.0390136
-0.00154052
0.0213296
-0.00829748
0.0366043
-0.0111432
-0.0287847
-0.0139178
-0.0164969
-0.0375064
-0.00202747
0.0089725
-0.0242669
-0.0165145
0.0563103
-0.0424993
0.0477762
-0.00318292
0.0481002
0.0147394
0.043234
0.0132782
0.0247248
-0.0174471
0.0293182
0.00175671
0.0196437
-0.0270177
0.0172473
-0.002965
0.00761856
-0.015279
0.0155518
-0.0278218
-0.00631505
-0.0153565
-0.0146077
-0.0171534
-0.0107058
-0.00254632
0.021665
-0.011977
0.0238074
-0.0126799
0.0264585
-0.0039805
0.00994802
-0.0322222
0.00755127
-0.0242119
-0.00825235
0.00723672
-0.0140146
-0.0213589
-0.00213151
-0.0109282
-0.00814103
-0.0218164
0.00133394
-0.0358993
-0.000485939
-0.0271819
0.0046833
-0.032736
0.0140441
-0.0198328
0.0193774
-0.0112659
0.0201846
-0.0287151
0.0158452
-0.00231677
0.0131507
-0.0153273
0.0160944
-0.0300725
-0.0239808
-0.0245123
0.00524757
0.00864623
-0.019117
-0.00788195
0.0327203
-0.0200848
-0.00208528
-0.038105
-0.0130524
-0.00201123
-0.00918557
-0.0404493
0.00513288
-0.0545286
0.00612971
-0.0351124
-0.0246771
0.00313367
0.0550201
0.00493476
0.0963247
0.0259166
0.0621179
-0.0192769
0.0447609
-0.0129682
0.0354677
0.00345048
0.0344544
-0.00701398
0.0403197
-0.0222707
-0.00838641
-0.00517274
0.00535511
-0.025331
0.0538434
-0.0451848
0.0382832
0.0154476
0.0465422
0.018828
0.0622994
0.00107034
0.0503341
0.0141379
0.0506183
0.00424197
-0.0154133
-0.0102695
0.019049
-0.0206737
0.0139888
-0.0355888
0.0172052
-0.0316547
0.00734471
-0.035
0.00845143
-0.0118364
-0.00111322
0.000487603
0.0134114
-0.0147711
0.0133532
-0.00871503
0.00898883
-0.00382547
0.0146567
-0.00170733
0.0292999
-0.0370658
0.00161292
0.000557729
-0.0207929
-0.00793437
0.000895091
-0.0327543
0.0107414
-0.0245086
0.000213149
-0.02012
0.00285533
0.00295592
0.00995196
-0.0211069
0.001002
-0.0127367
0.00696198
-0.0299424
0.0240892
-0.040519
0.0171377
-0.00151267
0.010478
0.00011016
0.0197114
-0.00153286
-0.000453476
-0.0396723
0.0126754
-0.0183049
-0.0118647
-0.00763192
0.0163855
-0.0128079
0.00146781
-0.0375019
0.00667779
-0.0266513
-0.00282995
-0.0188619
0.00358419
-0.0339171
0.0113425
-0.0292297
0.00923222
-0.0487142
0.00243518
-0.0328871
0.0872314
0.02163
0.095237
0.0275717
0.0276363
-0.025873
0.059582
-0.0114077
0.0388811
-0.0225714
0.0262983
0.00860154
0.0186883
-0.024211
0.040782
-0.00842548
0.0177878
-0.04868
0.0657419
0.00729984
0.0594966
0.00733367
0.0672875
-0.00496334
0.0628895
0.0150226
0.0571205
0.00377448
0.0180133
0.00323326
-0.0076767
-0.0140059
-0.0214728
0.00392386
0.00561264
-0.0277051
0.0146848
-0.000993561
0.0185682
-0.00444984
0.0206222
-0.00696821
0.00950149
-0.0307355
0.0212946
-0.00236766
-0.0224877
-0.0198906
0.0110518
-0.0110202
-0.0107055
-0.020603
-0.0200109
-0.0287153
-0.00337096
-0.0189245
0.00155663
-0.0355718
0.00409383
-0.032217
0.00955793
-0.0260977
0.00846668
0.00389936
0.00699873
-0.0251495
-0.0120916
-0.00823336
0.0290613
-0.0222939
0.000825926
-0.047689
-0.00697902
-0.021665
0.0119814
-0.011506
0.0187815
-0.0281993
0.0172518
-0.00425343
0.0171989
0.00032007
-0.0248373
-0.0346355
0.0260116
-0.0149015
-0.025383
-0.019577
0.00262483
-0.010383
-0.00337229
-0.0214883
-0.00533036
-0.0380774
0.00624475
-0.0128406
0.0179546
-0.0275965
0.00918215
-0.0428658
0.0106351
-0.0449564
0.103628
0.0282492
0.101057
0.0153442
0.021709
-0.0278162
0.0502758
-0.00738733
0.0538788
-0.0251476
0.0368142
-0.024639
0.0250086
5.8394e-005
0.0515697
-0.0506517
0.0638022
0.0171343
0.0724244
0.0242922
0.0710683
0.00832788
0.0797485
-0.00804166
0.0606658
-0.0105789
-0.000327799
-0.00151277
-0.00381844
-0.0175473
0.0196833
-0.034156
0.00979128
-0.00857024
0.028356
-0.00512487
0.0231818
0.00142788
0.0123579
-0.032879
0.0168181
-0.00574943
0.0141533
-0.0353639
0.0204248
-0.0191465
-0.00284752
0.00602027
0.0169095
-0.0258801
-0.00288309
-0.0213787
0.00723602
-0.0129093
0.0278377
0.00304004
0.0226166
-0.00147796
0.015915
-0.0251983
0.0241586
-0.0277726
0.012474
-0.00173888
0.0129462
-0.0184637
0.0168886
-0.0283927
0.00849342
-0.0108045
-0.0204963
0.00487794
0.0035087
0.00628202
0.023249
-0.023445
0.0157346
-0.0285005
0.0174735
-0.0181645
0.0201462
-0.017378
0.00907428
-0.01278
-0.0174995
-0.00892815
-0.0157561
-0.0101659
0.00948608
-0.0177852
-0.000218511
-0.0211424
0.00758635
-0.0189699
0.00693599
-0.0120833
0.0431506
-0.0571059
0.0117637
-0.0674516
0.0135021
-0.0396123
0.118408
0.0492312
0.0831647
-0.00654815
-0.0216192
-0.0204721
-0.0125199
0.0123603
0.0522149
0.00510061
0.0460861
0.001891
0.040448
-0.0245876
0.0553041
0.00117577
0.0917505
0.0348685
0.0936554
0.00124204
0.0857356
0.0218569
0.0612087
-0.00865395
0.0192074
-0.0274947
0.0206493
0.00592495
-0.0267608
-0.00257737
0.00810341
0.00233286
-0.0127002
-0.0367746
-0.0307379
0.00567989
0.01666
-0.0228983
0.021607
-0.0123485
0.0196351
-0.0296788
0.0121467
-0.0129522
0.021284
0.00305275
0.015997
-0.0189086
0.011836
-0.0325875
0.0110512
-0.0205913
0.027858
-0.0386745
0.0245561
-0.0199016
0.0227106
-0.00439282
0.0262744
-0.0123382
0.0162819
-0.00868186
-0.0057459
0.00703041
0.0242741
-0.0475944
0.0123879
-0.030697
-0.0152934
-0.0299627
-0.0131675
0.00514575
-0.0210936
-0.013862
-0.0182832
0.00696482
0.00420054
0.00809386
0.0261542
-0.0131381
0.0174133
-0.0138258
0.0250392
-0.0141882
0.0254247
-0.0235855
-0.00973179
-0.0303367
0.00364801
-0.0154199
0.0088885
-0.0311614
0.0170178
-0.0266685
0.0362773
-0.0233723
-0.0228579
-0.0282704
0.0116606
-0.0422371
0.017926
-0.0436495
0.120605
0.059562
-0.0049696
-0.00369381
0.0329188
-0.0165996
0.0103997
-0.0241576
0.0335291
-0.000946323
0.0564657
-0.000471604
0.0430774
0.00538848
0.0607695
0.0190249
0.0958419
0.0218496
0.100476
0.025724
0.0744038
-0.0127325
0.00954643
-0.00358944
-0.022607
-0.015503
-0.0162342
0.00946235
-0.00804106
-0.0262778
-0.00710221
-0.0291349
0.027081
0.00230999
-0.0231536
0.00518691
0.0101425
0.00180687
-0.0239986
0.00337924
0.0273025
-0.0329094
0.0176131
-0.0189847
0.0187092
-0.0109507
0.0181561
-0.0168171
0.0230747
-0.00872714
0.0300429
-0.0136085
0.030003
-0.00780224
0.0219597
-0.00166083
0.0271754
0.00599255
0.00930061
-0.00388823
0.00966413
-0.0128792
0.0213378
-0.0426431
-0.0177575
-0.00769988
-0.00518729
-0.0183331
0.0163008
-0.00614239
-0.0245205
0.00738996
-0.00831817
-0.00258702
-0.00311397
-0.024258
0.0204835
0.00122816
0.0248377
-0.0224117
0.0294597
-0.022965
0.0270409
-0.013595
0.0252007
0.000641374
0.0206298
-0.0157578
0.0064258
-0.0433915
0.016191
-0.0192854
0.0188354
0.00455514
0.0318149
-0.0185748
-0.0152913
-0.0375278
0.00943923
-0.0506068
0.0174879
-0.0537076
0.123799
0.0614946
0.000454532
-0.0207294
-0.0132812
-0.0284076
-0.024475
-0.00186741
-0.0220727
-0.0159763
0.0686296
-0.0255262
0.0627082
0.0358836
0.0973925
0.0271296
0.0763781
0.0280101
0.0827429
0.000295485
0.0280944
-0.0240585
-0.012988
-0.0317946
0.0348574
-0.0109828
-0.0154712
0.00103543
0.000667067
-0.0208029
0.0027681
-0.0161666
0.0115631
0.00823764
-0.0159923
0.00656058
-0.00969956
0.00908532
-0.0136675
-0.00931917
0.0139461
0.00405973
-0.00612529
0.00315663
-0.00100657
-0.0170181
0.0178805
-0.0254066
0.0465306
-0.0124246
0.0356598
-0.00512506
0.0321808
0.00184164
0.0287341
-0.000750427
0.00844765
-0.010263
0.00486463
-0.0264238
0.0111415
-0.0471483
0.0118241
-0.00255009
-0.0071932
0.000236539
0.00724314
-0.0078164
0.0347551
-0.0105485
0.026777
-0.0317999
-0.00818996
-0.0163907
0.0353362
-0.0251724
0.0318707
-0.0190829
-0.0110442
-0.0156763
-0.00466748
0.0159165
0.0285319
-0.00553409
0.017859
-0.0158837
0.0251588
-0.0224126
0.019458
-0.0169477
0.0106612
-0.00260754
0.0424409
-0.050616
0.0210405
-0.0102756
-0.0292851
0.00634256
0.0182812
-0.0328028
0.0229338
-0.0564131
0.137874
0.0786081
0.00495523
-0.0268372
0.00767741
-0.0147731
0.0252777
-0.0182172
0.0881935
-0.000106233
0.123541
0.0536403
0.07722
0.0415803
0.0678483
0.0248844
0.108434
0.0210653
0.0525666
-0.0102926
0.0267478
-0.0161713
0.0321057
-0.0346335
0.0345903
-0.0241951
0.00406677
0.00895725
0.0233814
-0.0249895
0.0314092
0.00425538
0.0232284
0.00834893
0.0040585
-0.0119542
0.00968125
-0.0187554
0.00638837
-0.0280031
-0.0284276
-0.0357964
0.00946472
-0.0274368
0.0241194
-0.0187187
0.0409801
0.00186692
0.0261201
-0.0121853
0.0319613
0.00585592
0.0345743
-0.0160247
0.0271243
-0.0167132
0.0181297
-0.0284468
0.0203813
-0.0183615
0.00722669
-0.0231575
-0.0182478
-0.0302332
0.00458376
-0.00964134
-0.00254652
-0.0105104
0.0160857
-0.0187097
-0.0162508
-0.00360545
0.0240762
-0.035311
-0.0111657
0.00202185
0.0190061
-0.00813257
-0.0141839
0.00264233
-0.00571248
0.00405115
0.0193182
-0.012918
0.0296717
-0.0107643
0.0266054
-0.0102352
0.0307839
-0.00103426
0.0328124
-0.0246882
-0.0131588
-0.0422983
0.0255197
0.00790528
-0.00216809
-0.00426865
0.0299523
-0.00523653
0.0223153
-0.0650775
0.141492
0.0878287
0.049905
0.00993161
-0.0027802
-0.0372793
0.0326843
-0.0571455
0.131862
0.043866
0.160374
0.0831969
0.15147
0.0461265
0.0787323
0.0350848
0.0521579
-0.00547958
0.0369414
-0.0222082
0.0282613
-0.00874901
-0.0019425
-0.00739708
0.0111147
-0.00729926
-0.00205247
-0.0436249
-0.0305465
-0.0202815
-0.00601241
-5.31346e-005
0.0329312
0.00591415
-0.00263958
0.00499939
0.00424492
-0.0128199
-0.0230374
-0.00206423
-0.00433511
0.000610165
0.0501622
0.00499525
0.0641207
-0.00422035
0.0540229
0.011944
0.0428423
0.0107538
0.0265509
-0.00863847
0.0243436
-0.022878
0.022828
-0.0295007
0.0276078
-0.0421349
0.0217378
-0.0160289
0.00433188
-0.0183158
0.034678
-0.0184293
-0.00361235
-0.0366825
-0.0220845
-0.0133446
-0.025416
-0.027252
0.0249158
-0.0193027
0.0268887
-4.34737e-006
-0.0105228
-0.00887371
0.00969771
-0.00053387
-0.0152461
-0.0153488
0.0175664
-0.0195022
0.0117861
-0.0166726
0.0186436
-0.00642353
0.0331797
0.00173911
0.0388252
-0.00498578
0.0364593
-0.0076072
-0.00637234
-0.0188142
0.0139375
-0.0331621
-0.0112733
-0.0321017
-0.0181435
-0.0112633
0.0277612
-0.0621522
0.14889
0.0842237
0.0949496
0.0568037
0.0303777
-0.0225894
0.158724
0.0182459
0.177661
0.111951
0.174652
0.0784816
0.147119
0.0532933
0.0058432
0.000297325
0.059795
0.003762
0.0576121
-0.0186797
0.0361246
-0.00278698
0.0315721
-0.0198303
0.00498498
0.00144157
-0.00730776
-0.00328387
0.0116986
-0.0454532
0.0237392
-0.0241891
0.0170928
-0.0294398
-0.0209446
7.98353e-005
0.0314312
-0.00420104
-0.00928367
0.00597551
0.0778405
0.0136187
0.0717113
0.00768407
0.0652981
0.00247992
0.044564
0.0298037
0.0428537
-0.00104097
0.00830854
-0.0241197
0.0208898
-0.0368234
0.020703
-0.0434201
0.0196268
-0.00738027
0.0191373
-0.0271672
0.0150193
-0.0264049
0.0058872
0.00658917
0.0172217
-0.0189239
-0.0100558
-0.0121808
0.0303711
0.00566716
-0.0219935
-0.00878604
0.026542
-0.00254077
0.0240243
-0.00814837
0.00193278
-0.0135137
0.0212089
-0.0213077
0.0152278
-0.017423
0.0132005
-0.00899419
0.0219042
-0.0189368
0.0394543
-0.00974701
0.0414475
-0.0151286
0.0399136
0.00934044
0.0370332
-0.00479274
-0.0131112
-0.0388416
-0.0251304
0.00188794
0.0296676
-0.0282008
0.025291
-0.0658601
0.157751
0.0644123
0.143851
0.0801989
0.149699
-0.0122946
0.188104
0.145745
0.212364
0.107889
0.169552
0.0765898
0.0348059
0.0184514
0.0207084
-0.0245724
0.0177714
-0.00851656
0.0567326
0.00505001
0.0554074
0.00208193
0.0373877
-0.00950128
0.0303466
-0.013188
0.0209685
7.927e-005
0.00871384
-0.00960755
0.0252695
-0.0247362
0.00710521
-0.0386097
-0.0139835
-0.0192371
0.0534417
0.0155051
0.0928597
-0.00121289
0.0766302
0.00423071
0.0704398
0.0207241
0.0456131
0.0190656
0.0442738
-0.00582294
0.0017917
0.00473466
0.00263451
-0.0185538
-0.0218538
-0.0331809
0.0130478
-0.0236739
0.0244205
-0.0274102
0.0237346
-0.0279772
0.0216511
-0.0228916
0.0248221
0.00499343
0.0214145
-0.00721801
0.0126567
-0.0211833
-0.014095
-0.000304346
0.036088
-0.00599437
-0.0158744
-0.00276937
0.0123724
-0.0108744
0.022228
-0.0178058
0.0177852
-0.0301712
0.0158724
-0.0148674
0.0259831
-0.0118384
0.0235731
-0.0332475
0.0427346
-0.0487332
0.0382885
-0.001966
0.0464598
0.00439649
0.042125
-0.0123901
0.0378953
-0.0233991
-0.0160734
-0.000711724
0.0338924
-0.0304879
0.0249732
-0.0548504
0.156469
0.0395165
0.169011
0.100898
0.192735
0.0968706
0.245279
0.15192
0.199776
0.104665
0.0976638
0.000159718
0.0250742
0.00926666
-0.0267903
-0.0183309
-0.0229237
0.000365158
0.0177571
-0.0172738
0.0453489
-0.00623994
0.0584805
-0.0220646
0.0369878
0.00201182
0.0360475
-0.00448214
0.0229025
-0.0037043
0.00739585
-0.00322722
0.0106262
-0.0147152
0.0997875
0.0187135
0.106469
0.0289181
0.0966004
0.00993972
0.0756716
0.0276447
0.0496898
0.035426
0.0238095
0.0149351
-0.001106
-0.0445779
0.0181031
-0.00981422
0.0229761
-0.0155507
-0.0300314
-0.0319383
0.023081
-0.0132286
0.00995384
-0.0255496
0.0130846
0.00350905
0.0240684
-0.0118053
0.0211809
0.00091904
0.0232268
-0.0249572
0.0318644
-0.0128835
0.00979891
0.0131006
0.0297092
-0.0149855
0.0349047
-0.0306443
0.0253984
-0.00804238
0.0215893
-0.0285151
0.024246
-0.0318298
0.0243337
-0.0177944
0.0309698
-0.030436
0.0326263
-0.0443214
0.0192897
-0.0321855
0.0128459
-0.00941598
0.044573
0.00766569
0.0519199
0.0154697
0.0465283
0.00467215
0.0301893
-0.0280252
0.0317016
-0.0371778
0.0223535
-0.0640875
-0.00854173
0.0120019
0.169301
0.10938
0.218789
0.189804
0.236849
0.158684
0.128456
0.0391465
0.0147042
0.00721876
0.00601739
0.00599517
0.00312379
0.00789155
0.0133601
-0.0108305
0.0320854
-0.0368365
-0.023708
-0.0203657
0.0191086
-0.0204581
0.0583789
-0.00382876
0.0432744
0.000657027
0.0333684
0.0109949
0.0732311
-0.00790859
0.107865
0.022136
0.118019
0.0365188
0.104684
0.0530105
0.0767104
0.023214
0.0441598
0.00898124
0.0368279
-0.0337236
0.0446045
-0.0273307
-0.00896337
0.00455878
0.0147912
0.0104925
-0.00872762
-0.0168878
-0.00217429
-0.00197108
0.031647
-0.0102253
0.0256368
-0.0397507
0.0153619
-0.0126623
0.0123547
-0.0186677
0.0237495
-0.0188694
0.027018
-0.000719301
0.0297266
0.00198584
0.0290237
-0.00420418
0.0403115
-0.0158699
0.0277258
-0.021421
0.024988
-0.0317282
0.0152314
-0.0247607
0.0282361
-0.0185535
0.00577016
-0.011797
0.00486208
-0.021562
-0.0202047
0.00469294
0.0306399
-0.0243781
-0.0145854
0.00511449
0.0336377
-0.026623
0.0397335
0.0317921
0.0567722
0.0246892
0.0407955
-0.00674571
0.0304757
-0.0395905
-0.00437075
-0.0302131
-0.0250136
-0.0125259
0.220861
0.170837
0.23317
0.226396
0.198586
0.1583
0.054437
0.0032995
0.0249154
-0.0186757
0.0231891
-0.0379105
-0.0145758
-0.0373631
0.00990459
-0.0123597
-0.0276431
-0.0263632
-0.0296449
-0.0366191
-0.0128477
-0.0147012
-0.00892964
-0.0138313
0.0575814
-0.00489086
0.103299
0.0206439
0.12823
0.0341463
0.080655
0.0385807
0.0865364
0.0492302
0.0591319
0.0210865
0.0444902
-0.00728647
0.0105517
-0.0200452
0.0343832
-0.0444139
0.00516692
-0.0018049
0.00731759
0.000622263
0.00452793
0.0106663
0.00381035
-0.000385497
-0.00639084
-0.0196747
0.0283197
-0.0257121
0.0068006
-0.0111842
0.0216919
-0.0239268
-0.0108961
-0.00803439
-0.0137033
-0.0215402
0.0296491
-0.0113348
0.0387103
-0.0162699
0.0405178
-0.00793969
0.0356518
-0.0208172
0.0359459
-0.00350877
0.0218705
0.0151723
0.0281351
-0.0167164
0.0494232
-0.0558818
-0.004863
0.00192375
-0.0186476
-0.0373418
-0.00220118
-0.00144814
0.0296887
-0.0108031
0.00126264
-0.00455985
0.021268
-0.0265936
0.0291004
8.32924e-005
0.0404994
0.0100226
0.0372762
0.00519985
0.0577229
-0.0132746
0.0244366
-0.01915
0.270943
0.0679175
0.343206
0.35667
0.237861
0.226864
0.167364
0.107905
0.0730448
0.0755066
0.0546148
-0.0492792
-0.0290907
-0.0207648
0.000278293
-0.00783317
-0.0243075
-0.0290739
0.0187205
-0.000537269
0.0332956
-0.0246621
0.00418115
0.00316603
0.116929
0.0445538
0.182034
0.0735372
0.100039
0.0541448
0.0758028
0.0683871
0.0833944
0.0472252
0.039813
0.0249794
0.03975
-0.0180951
0.0325506
-0.0257266
0.00991688
-0.00913899
-0.00258199
-0.0138023
0.00541284
-0.00178961
-0.00489158
-0.0132028
-0.0177129
-0.0247456
-0.0155808
-0.021579
-0.0279203
-0.0176897
0.00628155
-0.00411162
-0.00536168
-0.022812
-0.0143017
0.00133227
0.0118506
-0.00130734
0.0395838
-0.00577801
0.0545896
-0.0106938
0.0377395
-0.0167793
0.0346877
-0.0194914
0.0375598
-0.00302855
0.0378615
-0.0117869
0.0396992
-0.00433582
0.0318372
0.00614497
0.0315654
0.0169829
0.0396668
-0.0287773
-0.0269595
-0.018226
-0.0296387
-0.0317983
0.0105767
-0.0171226
0.0118112
-0.0230822
-0.00791948
-0.0278238
0.0293978
0.00049985
0.0356225
-0.0259769
0.0557503
0.018376
0.0674823
0.0398434
-0.0142968
-0.010088
0.379516
0.283007
0.31216
0.403535
0.18399
0.0888852
0.195638
0.103392
0.165125
0.0926905
0.0977155
0.0707647
0.0369341
0.000947273
-0.00511094
-0.0293515
0.0297211
-0.0240686
0.000219643
0.00852698
0.0980818
0.0503422
0.203333
0.089547
0.201849
0.112767
0.183775
0.110563
0.151705
0.10319
0.0595216
0.0505821
0.0614141
-0.00271259
0.058668
-0.0157063
0.0521949
-0.0148756
0.037769
-0.01811
0.0363972
-0.000335449
0.0283036
-0.0105803
0.0163988
-0.0160059
0.023758
-0.00829307
-0.00208943
-0.0132015
-0.00924875
-0.0320072
0.0314748
-0.0112716
-0.0224115
-0.00769747
0.0310521
-0.0238815
0.061959
-0.00411308
0.0557537
0.00262674
0.0455733
-0.0205615
0.0340092
-0.00999603
0.0331941
-0.0149516
0.0243243
-0.0179655
0.0216249
-0.0326863
0.0353204
-0.0138124
0.0394065
-0.00821846
0.042154
-0.00461585
0.0457852
0.00669532
0.0310074
0.014596
0.0191518
-0.00662829
0.0293812
-0.023803
0.0136844
-0.0151757
0.0293424
-0.0152842
0.0376126
-0.00233805
0.0382143
-0.01827
0.0364963
-0.0298974
0.0415014
-0.0224819
0.0689867
0.101558
0.0691097
0.0295783
0.395795
0.522372
0.305542
0.337322
0.00233915
-0.0168638
0.129642
0.00752626
0.198325
0.102718
0.168031
0.0947202
0.13885
0.0821508
0.0472216
0.0358869
0.13549
0.0379072
0.241267
0.103367
0.248261
0.159314
0.233978
0.165874
0.188152
0.164644
0.108609
0.0725249
0.0706382
-0.00437429
0.0379339
-0.0108289
0.0313451
-0.0115012
-0.00568268
0.00721152
0.0400501
-0.0208531
0.0574994
0.00414321
0.0516468
-0.00335731
0.0368891
-0.00123746
0.036722
-0.0179677
0.0340531
-0.0123678
0.0198218
-0.0345778
0.0247341
-0.0287635
0.012381
-0.00493126
0.0756868
-0.024847
0.0752271
-0.0235266
0.0530512
-0.0150793
0.0459608
-0.0120617
0.037977
-0.00883723
0.0127282
-0.0117625
0.00613909
0.00104243
0.0422319
-0.0339964
0.0237205
0.00624418
-0.0114291
-0.00578178
0.0307935
-0.0270484
0.0376531
-0.0100717
0.0462561
-0.000692975
0.050509
0.0279459
0.0530476
0.0310564
0.0447307
0.0401168
0.0454136
-0.02459
0.0464511
-0.029519
0.0393482
-0.0254419
0.0376802
-0.0286963
0.0207884
-0.0230996
0.0107973
-0.0152412
0.0729095
0.10863
0.0810789
0.130374
0.385564
0.641903
0.0481649
0.061358
0.00457135
-0.0366207
0.011572
-0.0255522
0.00806164
0.0261528
0.200822
0.0744975
0.215804
0.136883
0.274454
0.233801
0.246504
0.256273
0.273685
0.248249
0.246921
0.21724
0.135492
0.109009
0.0527447
0.0160794
0.036021
-0.0537203
-0.0309643
-0.0106842
-0.0142594
0.00365774
-0.00571049
-0.0234618
-0.0241421
-0.038534
0.0234816
-0.0364547
-0.0131864
0.000938549
0.0276538
0.000886682
0.04978
0.00126891
0.0530842
-0.00638635
0.0496764
-0.00823285
0.0873386
-0.000887338
0.0776915
-0.0161988
0.0676812
-0.00930924
0.0583512
-0.0184296
0.0483592
-0.00319153
0.043235
-0.0248164
0.0240068
-0.01347
0.0323203
-0.0202775
-0.00736933
-0.00862806
0.0091105
0.00710181
-0.0268821
0.00846023
0.0316946
-0.000158332
-0.00364047
0.000355458
-0.0271177
-4.00878e-006
-0.00833252
-0.0080547
0.0306884
0.00110832
0.0464217
-0.00716324
0.0480366
0.0150164
0.0476629
0.0202336
0.049416
0.0223619
0.0479005
-0.0012151
0.0398022
-0.0246971
0.0346135
-0.0426105
0.0334339
-0.00519737
-0.00285051
-0.037418
0.0487421
0.0284086
0.0831973
0.203311
0.415675
0.740186
0.479347
0.369114
0.0103006
-0.00558927
0.0454112
0.067897
0.365183
0.279957
0.394793
0.391445
0.32457
0.419214
0.244908
0.288912
0.233092
0.196689
0.186345
0.13006
0.152936
0.0857248
0.120468
0.0364592
0.0570018
0.0257512
0.0382295
-0.0159345
-0.00875631
-0.0271756
0.0188774
-0.0184962
0.0108504
0.00566886
-0.0115128
-0.0264438
0.0174352
0.00117684
0.012694
-0.0263684
0.118482
0.00864148
0.115635
0.00849267
0.110169
0.0143611
0.071979
0.0114916
0.059844
-0.00943501
0.0574054
-0.00328569
0.0578622
-0.0163761
0.0542178
-0.0286154
0.0421758
-0.0357122
0.0406814
-0.0346326
0.0360044
-0.0327946
0.0231368
-0.0286539
0.0117093
-0.036509
0.0343049
-0.00469736
0.0205814
-0.0210286
-0.00151255
-0.0283787
0.0138776
-0.038585
0.00825222
-0.00982229
0.0412553
-0.0164794
0.0452299
-0.00703308
0.0455444
-0.0175402
0.0474262
-0.0220786
0.0528609
-0.00302721
0.0545757
0.0280821
0.0615711
0.0693787
0.0776871
0.107704
0.0814145
0.108457
0.0821681
0.043113
0.027992
-0.0316938
0.0695027
0.0856852
0.0813932
0.240496
0.45478
0.63045
0.461758
0.794868
0.45032
0.743989
0.4278
0.666839
0.399813
0.565136
0.393948
0.420654
0.238641
0.21982
0.0711726
0.0322831
-0.00627554
0.000701127
0.0838629
0.0184629
0.178065
0.05824
0.187507
0.0742884
0.169038
0.0793053
0.161445
0.0735412
0.156935
0.0678577
0.151015
0.05248
0.146525
0.0479734
0.139386
0.0433003
0.132733
0.0396551
0.117538
0.0215363
0.0911324
0.00647272
0.0760991
0.00679019
0.0597732
-0.0237305
0.0340418
-0.0359881
0.0383847
-0.0445888
0.00209385
-0.0354897
-0.0166581
-0.0111596
0.0348206
-0.0295303
0.0507226
-0.0144514
0.0520223
-0.0014337
0.0525671
-0.0154688
0.0525395
-0.0144587
0.0521718
-0.0288012
0.0500248
-0.0201689
0.0514482
-0.0369412
0.0508837
-0.0391635
0.050274
-0.0379953
0.0496093
-0.0367754
0.0450732
-0.0389465
0.0413511
-0.0382157
0.0386555
-0.0381468
0.0305869
-0.0381338
0.0372182
-0.0480622
-0.0182756
-0.0055087
0.0157735
-0.0133593
0.0605058
0.0667803
0.066522
0.114306
0.0714307
0.175032
0.0769881
0.212115
0.0833991
0.243699
0.0954026
0.234923
