j
0.0190269
0.0569681
0.0149262
0.0278142
0.00816451
0.0437177
-0.0120966
0.0373895
-0.00231002
0.0452021
0.00947227
0.0375423
-4.6383e-006
0.0123953
0.0103863
0.0397841
-0.00365531
0.0193633
0.0322023
0.00259581
0.0132823
0.0109931
-0.00594385
0.031534
-0.0194568
0.00975947
0.0235301
0.00327421
0.0214638
-0.00584185
0.00120203
0.0232542
-0.0260208
-0.00210168
0.0112992
0.025323
0.00238174
0.0349547
0.00958536
-0.00690316
0.00943631
0.0493848
-0.0158741
0.02552
-0.00363873
0.0211755
-0.0198425
0.0384912
-0.00533153
0.049107
-0.0131895
0.012905
-0.0191013
0.0420733
-0.0155001
0.0343819
0.00906796
0.0127474
0.0177851
0.0188896
0.0186074
0.0324834
0.00735389
0.0220238
0.0312578
0.00680381
0.0238265
-0.0230218
-0.0215386
0.00582458
-0.00174875
0.0171368
-0.011838
0.0789498
0.0134471
0.0256298
0.00911812
0.0857868
0.0113633
0.0815065
0.00693103
0.0485032
0.0463166
0.100956
0.0366435
0.11009
0.0779486
0.134193
0.0768107
0.0875597
0.0540477
0.0456775
0.0464967
0.0623615
0.0410034
0.0626775
0.758928
-0.828073
1.73398
-2.72483
2.21941
-6.33012
-0.00162902
0.000728923
-0.0145193
0.0652136
-0.00972334
0.0149323
0.00304223
-0.0210505
-0.00293754
-0.018383
0.0343782
-0.0174922
0.0289617
-0.0191426
-0.000644421
-0.0252338
0.02354
0.00856716
-0.00731684
0.0213322
-0.0238612
0.0439119
-0.0190258
0.0126335
0.00272676
0.0406087
-0.0165827
0.0193308
0.0150491
0.0227834
0.0173499
0.00141336
0.0041511
-0.0154191
0.0353572
0.0055628
0.0186681
-0.0265421
-0.0058577
-0.0228746
-0.0123513
0.0160694
0.00370296
0.0321312
-0.0097555
-0.020083
0.0210994
-0.00465545
0.0360964
0.010812
-0.0105138
-0.0065218
-0.0121194
-0.0113759
0.0029839
0.041914
-0.0182777
0.0110429
-0.0112103
0.00256515
-0.0199221
-0.000717727
-0.000392399
0.0102225
-0.0276728
0.045766
-0.00792245
0.0479731
0.00468193
0.0428953
-0.0136819
0.0128024
0.0320941
0.0200886
-0.0229689
0.01557
-0.00595635
0.0353231
-0.00644691
0.0440582
0.0186875
0.0363829
0.0402429
0.00945122
0.0283113
0.00937536
0.03399
0.00502913
0.0624634
0.0314421
0.112033
0.186502
0.26821
-0.160663
1.03859
-0.90126
0.937642
-0.726838
0.145913
0.0256155
0.465834
-0.172023
0.002105
0.0486246
-0.00483918
0.0432018
0.0312688
0.0031774
0.014599
0.00191996
0.00727729
-0.0140353
0.00122964
0.0185294
0.00226094
0.0107314
0.0341663
-0.00628546
-0.0169764
-0.021068
0.0136915
-0.0160326
0.020827
-0.000553188
-0.0168833
0.0224751
-0.00432583
0.0164743
-0.00373915
-0.0130507
-0.0212365
0.0148451
-0.00608233
0.0136575
0.012397
-0.00670854
-0.00218554
0.00897466
-0.00603099
0.0130384
-0.00313078
0.00986624
0.0191459
0.00443304
0.0229708
-0.0171106
0.00987875
-0.000398422
0.0240595
0.0081025
-0.00606204
-0.0306634
0.0236111
0.0204086
0.0015693
-0.016146
0.0221136
0.0166557
-0.0174242
0.0342859
0.000576452
0.040243
-0.00432379
0.0225691
-0.0147304
0.0078121
-0.00228046
0.00675957
0.00908634
0.0390682
-0.0269308
-0.00345985
-0.0077912
0.024443
0.0264519
-0.00980428
0.0369612
-0.00555018
-0.000102241
0.0247493
-0.0115182
0.041313
0.0114606
0.0327242
0.0257452
0.00539731
0.0209165
0.00271395
0.00239513
-0.0109979
0.0665412
-0.0591687
0.623233
-0.364176
0.749813
-0.305949
0.14259
0.206383
0.0941311
0.0590477
0.206683
0.035182
0.00666308
0.0332417
-0.0179909
0.0275729
0.0236624
-0.000611228
0.0195686
-0.00283678
-0.000932549
-0.000975007
0.023258
0.0245888
-0.0188384
0.00803537
0.0159259
-0.0261077
-0.0093795
0.0399103
0.00216095
0.0191084
0.0037295
0.0337744
-0.025185
0.00643671
-0.00799778
0.0183761
0.0371308
-0.0271224
0.0148415
0.0356988
0.00160376
0.0286778
-0.0260998
0.0403109
-0.0221455
0.00113475
0.0177836
-0.00780674
0.0279229
-0.0190643
-0.021834
0.000198473
0.0350632
-0.014582
-0.0216189
0.0186679
0.0117411
0.0323227
-0.016788
0.0356198
0.00522089
0.00136665
-0.0334491
-0.013335
-0.0252977
0.0122607
-0.0271424
0.0440577
0.00511044
0.0167037
-0.0232605
-0.0186306
-0.0118368
0.0175684
-0.00177056
-0.0170996
0.000339679
0.0183062
0.0165296
0.0412386
0.00959326
0.0492303
-0.0164174
0.0377344
0.0289288
0.0266039
0.0202185
-0.0296358
0.034495
-0.017116
0.0137011
-0.0173133
-0.0205998
0.0187462
0.0241787
0.0203735
-0.0220944
0.0118964
0.2419
-0.211338
0.554432
-0.254025
0.145561
0.00988003
0.02842
-0.0109054
0.0300098
0.0146779
0.205868
0.12719
0.0691064
0.100076
0.00912748
0.0742186
0.00295269
0.0414871
0.0222701
-0.0175909
-0.00816973
0.0308302
0.00383519
0.040963
0.034142
0.0282181
-0.0142169
0.0329881
-0.000673538
0.0443796
0.00892531
0.035305
0.00529505
0.0162661
0.0129264
0.0309243
0.0318207
-0.0302031
-0.0130563
-0.0202768
0.00977051
-0.0207417
-0.0255493
-0.0179869
-0.00708669
-2.92242e-005
-0.00314579
-0.0297797
0.0127644
-0.022471
0.016968
0.0330941
0.0260729
0.0264006
-0.0164418
-0.00754673
0.0103836
0.00509174
0.00103159
0.0232426
0.031772
-0.0198719
0.025327
0.0476606
-0.030746
0.0197829
-4.80119e-005
0.030212
0.0240108
0.00492488
0.00717586
-0.023413
0.00901802
0.0212204
-0.000660654
-0.0227183
-0.0105727
-0.0302154
0.0317311
-0.0125017
-0.00030475
-0.0134601
-0.0162776
0.01889
-0.0138504
-0.0243574
-0.00990444
0.0307478
-0.000221736
-0.00303419
-0.0207951
0.0135479
0.0114626
0.0105019
-0.0207566
-0.0188033
0.0142409
-0.0146067
0.0194224
-0.0603144
0.363816
-0.207289
0.314786
-0.0488752
-0.0226769
0.0108057
0.0122524
0.00218373
0.0354325
-0.0101648
0.0446227
0.0337979
0.0281241
0.0294958
0.136378
0.155106
0.00993265
0.0656363
0.0017548
0.0537891
0.0304663
-0.0223639
-0.00178679
0.0127779
-0.00319614
-0.012278
0.00144733
0.0211766
0.0223321
0.0411605
0.000968623
-0.00822415
0.00467581
0.0275749
0.0284841
-0.0108401
-0.0216219
-0.00825949
-0.0181377
0.0301488
-0.00189735
0.0236239
-0.00952222
0.0160851
-0.0275909
0.00719194
0.0262002
0.0331977
0.00575121
0.00105546
0.0171668
-0.0228354
-0.0198192
-0.0262367
-0.0192492
0.0426303
0.022581
-0.0107926
-0.0184167
0.0218185
-0.02226
0.0266676
0.00472868
0.0390119
0.0153487
-0.0118049
0.0114885
0.0317408
0.0301183
0.0114976
-0.00934914
0.0113064
-0.0156053
0.0390997
0.0220541
0.0105827
-0.0100122
-0.00457343
-0.0103804
0.0321268
0.000565203
0.023996
0.0274522
0.00918878
-0.00346077
-0.0065814
-0.0171448
0.00727017
-0.0216839
-0.0184498
0.0266547
0.0227063
-0.03262
-0.018117
-0.00822574
0.0212814
-0.00901332
0.0222479
0.160489
-0.0760823
0.293083
-0.0897172
0.0866811
0.0372583
-0.00231007
-0.0143496
0.0139624
-0.011388
0.033512
0.0334336
0.0541752
-0.0109097
0.00929093
0.0206567
-0.00168939
-0.0161686
0.0925368
0.108105
0.0795376
0.0956814
0.0164174
0.00378206
-0.00861229
0.0274088
0.0149612
0.00272834
-0.00511447
0.0179507
-0.0285975
0.020072
0.00346213
0.0121586
0.00436333
0.0119826
0.0138776
0.0194324
0.000550702
0.0163354
-0.0101908
0.0244994
0.024298
0.00271944
0.00161205
0.0146299
0.0203342
-0.0134414
-0.0209311
-0.0196459
0.0371775
0.00590146
0.00235861
-0.00262322
0.00476103
0.0129917
0.028349
-0.0159035
0.0298951
-0.0295495
0.0120785
0.0324836
0.000361961
0.0195319
-0.0135077
0.0323153
0.0150545
-0.00879906
-0.00496229
-0.026884
0.0174874
0.0114298
0.012928
0.0208299
0.0284788
0.0193646
0.0354704
-0.0299129
-0.0150088
-0.0189867
0.0322273
0.0223351
0.000472186
0.0275936
-0.0236379
-0.0123933
0.00260209
-0.00274447
0.0215313
-0.0085646
0.0363476
0.0345726
0.00644921
0.0167217
0.0218945
0.0307089
0.0229395
0.0292745
0.0432359
-0.00613306
0.179858
-0.0333476
0.184254
-0.0156195
0.0160057
0.0366353
0.0219574
0.0214382
-0.0204887
0.000332056
-0.0135074
0.0314014
0.0173431
0.0242328
0.0328327
-0.0135935
0.00438565
0.00743458
0.0038033
0.03142
0.0186036
-0.0112834
0.104327
0.119978
0.0297262
0.0347661
0.0120589
0.0536464
0.0036004
-0.00619709
-0.032222
0.033422
-0.0251086
0.0417779
-0.00171641
0.0322803
0.0210747
0.0220198
-0.0142209
-0.0261935
0.0168836
0.0297408
-0.0121386
-0.0137964
-0.0145692
0.0329236
0.000854488
0.0281826
-0.00565397
0.0223376
0.00361475
0.00948237
0.026602
-0.0271841
0.011672
0.0175068
-0.0090529
0.014087
-0.0120478
0.0270981
-0.0280798
-0.00124444
0.00348768
-0.00920586
-0.0120197
0.0021752
0.0190516
-0.0163293
0.00488176
0.00151001
-0.00694461
0.0116285
-0.0073539
0.029413
-0.0286842
0.00382989
-0.026238
0.035947
-0.00520826
0.00263691
0.0371164
0.0284479
0.00309922
0.0201332
-0.010985
-0.000897098
-0.00161682
-0.00632877
-0.00570596
0.0274356
0.0294325
-0.0221613
0.00961457
0.0252567
-0.0232503
-0.00943187
-0.0252571
0.0259266
0.0387653
-0.0326685
0.194282
-0.0466831
0.125628
0.00392691
-0.0167552
0.0215553
-0.0244003
0.00911337
0.0104966
0.0051989
0.0265001
0.0343211
0.0334083
0.0256247
0.00532603
0.0126529
0.0119908
0.038215
0.00368276
0.0302938
-0.0166903
-0.0287583
-0.0020163
-0.00740646
0.0761056
0.1659
0.0290264
0.0292081
-0.0165993
0.0514882
0.0196657
0.0301514
-0.0227424
0.0131292
0.0211397
0.00266668
0.0191066
0.0338636
-0.0198647
0.0132411
0.00457109
0.0187337
0.0223046
0.0256649
-0.0206044
0.0163744
-0.00293119
-0.00389946
0.0127211
-0.0151451
0.030999
0.0305733
0.026214
-0.00457962
-0.0220716
0.0339903
-0.00406138
0.00763393
-0.0213163
-0.00766608
0.00521694
0.0410444
0.00765509
-0.00976753
0.00612297
-0.00248412
0.0323341
0.0262781
0.00809276
-0.00120313
0.0255164
0.0327065
-0.0154045
0.012015
0.015837
0.0420146
-0.00684332
0.0303939
0.00119176
-0.022243
0.00424767
-0.00619709
-0.0236724
-0.0197219
-0.0147728
0.0177452
-0.0279476
0.027653
-0.0277549
-0.0160555
0.0239355
0.00756021
-0.0225905
-0.00805352
-0.0204948
0.0144919
0.0322306
-0.00723904
0.0860171
0.011151
0.143514
-0.0152404
0.0574572
-0.00798451
0.0215638
0.0254129
0.0277403
0.00285165
0.0114744
0.0356529
3.6325e-005
0.0295348
0.0221532
0.00551408
-0.0189932
0.0297516
0.0222395
0.0095041
0.0253947
0.0312618
-0.011437
0.026031
-0.0255894
-0.0165809
0.0350271
-0.0102857
0.0838097
0.1183
-0.000459138
0.00313451
-0.00193686
0.0320715
0.00461087
0.0156457
-0.0248875
0.0033066
-0.00695686
0.0323777
-0.000954869
-0.0190807
-0.000183746
-0.0103996
-0.0161567
0.029289
0.00853792
0.00702889
-0.00754661
0.0168989
0.031628
-0.0198884
-0.012762
-0.0268429
-0.0140383
-0.027739
0.0142368
-0.0243932
-0.021914
-0.00012741
-0.00881695
0.041192
-0.0267951
0.0451746
0.0159234
0.0223184
-0.013596
0.0198085
-0.0211644
0.012595
0.000934197
0.0109016
0.0105642
-0.0294386
0.0211235
0.0267199
-0.0193445
0.0134998
-0.000850324
-0.0198322
0.0299122
0.0219438
0.0150939
-0.0104655
-0.0223018
-0.0186331
0.0243152
0.0150797
0.0356334
1.3511e-005
0.0350328
0.0354234
0.00526829
-0.0268409
0.0192425
-0.0161295
0.0098694
0.00619305
0.00287275
-0.0288512
0.121852
-0.0097776
0.116955
0.0249592
0.0353655
0.00310032
0.000968691
0.000517018
0.0225479
0.00606381
-0.00862476
0.0217568
0.0174568
-0.0209928
0.00560364
0.000834774
-0.0243593
0.0526271
0.0180078
-0.0228599
0.0285397
0.0343075
0.0255793
-0.00429404
0.0312639
-0.0113071
-0.00929604
-0.0108784
-0.0185233
-0.00887218
0.0572016
0.10574
-0.0088652
0.0334377
0.0129322
0.0117055
0.000813727
0.0226602
-0.0211887
0.00320202
-0.00909956
-0.016483
0.0221375
-0.0144483
0.000728901
-0.0276955
-0.0165848
-0.00147029
-0.00470177
-0.0187487
0.00679102
0.0211708
0.0186483
0.016945
0.0162638
0.0230495
-0.00807488
-0.00064002
0.0111303
-0.0153445
-0.0210905
0.013894
-0.0175343
-0.00877135
0.0231752
-0.00794737
-0.00361347
0.0206836
-0.00575362
-0.0124673
-0.00838939
0.0144015
0.0349293
-0.0236698
0.0166108
-0.0134106
-0.0257452
0.0125023
0.031088
0.00249433
0.00732242
-0.00472992
-0.0011943
0.00322979
0.000210852
-0.0182791
-0.0103866
-0.0141153
0.00225892
0.00870758
-0.00163258
0.0106529
0.00475494
0.0330929
0.0278884
-0.0155274
0.0350672
-0.00688762
0.0265153
-0.0265154
0.0958871
0.00198931
0.0278948
0.0484654
-0.0237815
0.0110683
-0.0266571
0.0327332
0.0103491
0.0029318
0.0216733
0.0290443
0.0153474
-0.022954
-0.00106917
-0.000620845
0.00899772
-0.0205573
-0.00359039
0.0124222
-0.0220438
0.0215144
-0.00777572
0.000572494
0.0231667
-0.0062608
-0.00716193
-0.00908871
-0.00433382
0.0193525
0.0162418
-0.0217782
0.0749634
0.0977514
0.00590886
0.00460129
0.00657602
-0.00653487
-0.014641
0.00322113
0.0204634
0.0394055
0.0214177
0.0184191
0.00836332
0.0155796
-0.0277812
-0.0106773
0.034773
-0.0270628
-0.0118753
0.00543289
-0.000664341
0.031318
-0.00433538
0.0148847
0.0102467
-0.0037375
0.00267266
0.0287863
0.00768165
-0.00794155
-0.000580476
-0.00219336
0.0245004
-0.0177151
-0.0130542
-0.0133202
0.0217789
0.010763
0.0249667
-0.0243684
-0.018971
0.0349672
0.0221988
0.0205496
-0.0053065
-0.000293044
-0.0182734
0.0125569
-0.0148662
0.00563224
-0.0278888
0.019975
0.0293473
0.00585625
0.0223105
0.0308076
0.0345214
-0.0229813
-0.0213347
0.0270272
0.0018055
-0.0119917
-0.0106313
0.00985405
0.0147217
-0.0300428
0.0499626
0.0304193
0.074905
0.00691934
0.0446087
-0.00253007
-0.0166558
0.0295868
-0.000945898
0.000414465
0.0348848
0.00827585
-0.0159436
0.0191324
0.000197132
0.0217193
0.0209864
0.0166717
0.00561899
0.0309287
-0.0197705
0.0201415
-0.000423252
-0.0166228
0.0216031
0.0269564
-0.00928622
0.0115315
0.0210825
0.0283124
0.0189826
-0.0206354
0.0260197
0.0256952
0.00229098
0.00164923
0.0506559
0.117447
-0.0065951
0.0267753
-0.0256922
0.0413539
0.00458247
-0.0143703
-0.0168201
-0.00364308
0.024955
-0.00757691
0.0247954
-0.00615188
-0.0141662
0.0032524
-0.00904478
0.0280373
-0.0221668
0.0118449
0.0147806
-0.000358468
0.0226372
-0.0121118
-0.0252987
0.00136691
0.0145441
-0.00216043
-0.017928
0.0248762
-0.0249568
0.00833268
-0.0183907
0.00175215
-0.00415472
0.00478141
0.0259283
0.000210803
-0.0257956
0.00429748
-0.0242379
0.018326
-0.0155783
0.0104949
-0.0239375
0.0118416
-0.0287288
0.015538
-0.00374079
-0.0211194
0.0104039
0.0216664
0.0260399
0.0206614
0.00144958
-0.0209632
-0.00171577
-0.0140107
0.00122435
-0.00730275
0.00319604
0.0050972
-0.0031975
0.0267623
0.0413266
-0.0224766
0.0827593
-0.017309
0.0217038
0.0346692
0.00995139
-0.0214153
-0.00231638
-0.0267957
0.0101705
0.00339831
0.0133899
0.0294778
0.0287135
0.0217899
0.0284395
0.0115491
-0.0243238
-0.000522752
-0.0188046
-0.00236427
0.0147501
0.0223014
0.00146581
-0.0260414
-0.000818921
-0.0202501
0.0275373
0.0376007
-0.0186187
0.0384579
-0.0195679
0.0367868
-0.00278509
0.0269522
0.0407432
0.0565576
0.00864785
0.0322387
-0.0361627
0.0154164
-0.00408472
0.0156064
0.0123153
-0.0182278
0.0179724
0.0283647
-0.0113433
0.0112162
-0.021873
0.0331643
-0.011502
0.0225213
0.00626254
0.036153
-0.0239341
-0.00370422
-0.0156981
0.00488006
0.0136063
-0.000459017
0.00164952
0.0552162
0.00823242
-0.0188932
0.017016
0.0320179
0.0223389
-0.0204145
0.00851481
-0.0198843
0.0285539
0.026463
-0.00761834
-0.0290049
0.0252308
-0.010816
0.0199841
-0.0191982
0.00979153
0.0374614
-0.0205616
0.00954235
0.00868322
0.0294389
-0.0117252
8.54405e-005
-0.000565287
-0.0305072
0.0210809
0.0236475
0.0368975
-0.0197383
0.0145127
-0.0195369
-0.0215155
-0.0272663
0.0165628
0.0084844
0.0549156
0.0338248
0.0312832
0.0411217
-0.0116064
0.0218947
0.00918035
-0.0110102
0.0319445
0.00714276
0.0354183
0.00764215
-0.0148621
0.0207148
0.0201586
0.0200018
-0.00418064
0.00639549
-0.0202134
0.0250531
0.0345025
0.0227374
0.00986617
0.0189721
0.0294427
0.00976921
0.0117167
0.0191447
-0.0125125
0.000264237
0.0275955
-0.00122289
-0.0143288
0.022685
0.0201773
0.0339243
0.0237613
0.0118346
0.051122
0.0748537
-0.0117338
-0.025173
-0.00808441
-0.00566167
0.0112392
9.82911e-005
-0.01931
0.0136419
-0.00565547
0.0187093
-0.016115
0.00408261
-0.0049465
0.0414745
0.0193034
0.00112739
-0.019389
0.00520066
-0.015203
-0.0276342
-0.0147082
-0.0227836
-0.0191355
0.0358069
0.0101776
0.00819242
0.00995545
0.00772436
-0.00683416
-0.0214874
0.0154699
0.0104709
-0.0270995
0.0027119
0.00504104
-0.00146824
0.00691686
0.0231655
-0.00997414
-0.0207943
0.00112493
0.0138343
0.03135
0.0334381
0.0179261
-0.00234556
0.0195762
0.00808259
-0.00498055
0.00221661
-0.0222703
-0.00728014
0.0114915
0.010135
-0.00379963
0.0355631
-0.0151969
0.00573088
0.0189332
0.00372329
0.068043
0.0309782
0.0254556
0.0209811
-0.0166794
-0.0126874
-0.0229741
0.00924582
-0.0180478
0.0253753
-0.00213579
0.00422653
-0.0123156
-0.0280719
0.00976539
0.00853813
-0.0058848
0.0236129
0.0194292
-0.0308628
0.0274881
0.0144223
0.0350548
0.0250537
-0.027627
-0.0114377
-0.000790514
-0.0232218
0.0036288
-0.00788024
-0.00435356
0.00128358
-0.0102859
-0.00893741
-0.0112467
0.0374958
-0.00678249
0.0107845
0.0132115
0.0101649
0.0426456
0.0868455
0.00106112
0.00323143
-0.0297084
0.000219011
0.00033955
-0.000551768
0.0102361
0.0148962
-0.00776954
-0.0222336
0.0274014
0.0278975
0.00893363
0.00879436
-0.000172212
0.00327805
0.0369665
0.000897217
0.0133348
0.0163177
-0.0203842
-0.00029841
0.0148709
0.0338182
-0.00820069
0.0280249
0.00803595
-0.0168427
-0.013525
0.00430051
-0.0169435
0.00706371
0.0189288
0.0275324
0.0244162
0.0238112
0.0323666
0.0243723
0.00577353
0.00563635
0.0137965
0.0183042
-0.017575
0.0121388
0.0146345
0.0021714
-0.00249177
0.0320632
-0.0113656
0.0243598
0.0225864
0.009463
-0.00138097
-0.00243415
0.00903425
0.00379906
-0.0034751
0.0108563
0.0386498
0.00497802
-0.00592797
0.0178624
-0.0206632
0.0333107
-0.00805459
-0.00879067
0.0089815
0.0217465
-0.00505098
0.0275474
-0.0148172
0.00256681
0.00260771
0.0388084
0.0111915
-0.0219703
0.0363598
0.00711398
-0.0155256
0.0153037
0.0300453
-0.0104039
0.00656717
-0.00568728
0.00718911
-0.00590964
0.032537
-0.0150609
-0.0218807
0.0357502
0.0137574
-0.0267828
0.022104
-0.00761923
0.0339878
0.00190629
0.00210956
0.0253076
0.0298899
0.0536865
-0.000811976
-0.00344647
-0.0205197
3.14323e-005
0.00844336
0.0227545
0.0022494
-0.023417
0.00234212
0.0136944
0.0266486
-0.00863859
-0.0196629
0.00313936
0.00486654
-0.0127427
0.0286465
0.0197034
-0.00990844
0.0367868
-0.0187986
0.0191307
0.00849873
0.00447104
-0.00397819
0.0194715
-0.0212537
0.0288675
0.000721144
-0.0200404
-0.00959263
-0.0145676
-0.00531547
0.0133836
0.0200467
-0.00648146
0.0163131
-0.00957583
-0.0164854
-0.0267484
0.0180758
-0.0191465
-0.000839212
0.0129711
0.0217991
-0.00452216
-0.0268296
0.0225912
-0.0177617
-0.00103666
0.0211475
0.022986
0.0232641
0.0241601
-0.0139259
-0.0125044
0.00494862
-0.00779115
0.027168
-0.018288
0.0148635
0.00391637
0.0325938
-0.0142594
0.0174021
-0.00881122
-0.00846649
0.0239311
-0.0121432
0.015501
0.0209003
-0.0211027
0.0217545
-0.0143877
-0.00342975
0.013341
-0.0249293
-0.00600696
-0.0145963
0.0213869
0.017463
-0.0180059
-0.0142778
-0.0132051
-0.0115162
0.0265555
0.0286188
-0.0251296
-0.0207317
0.00716796
0.0309069
-0.0250638
0.0302749
0.0173981
0.0255732
0.00522121
0.0368731
0.0184706
0.0338742
-0.0148821
0.0107835
0.098464
0.0352864
-0.0247385
0.0146253
0.0144596
-0.00888925
0.0174954
0.0236499
-0.0159951
0.0346935
0.0225482
-0.0205539
0.0115125
-0.0210163
-0.0154123
0.0175381
0.00559935
0.0235076
0.0130862
0.0125137
0.0549564
0.0173418
-0.0126988
-0.0215114
-0.00992715
0.0215009
-0.030425
0.0239216
-0.00186282
-0.0148134
-0.0147752
-0.0143811
-0.0218873
0.00196682
-0.00401935
-0.0158354
-0.00434109
0.00490839
-0.00935356
-0.000824224
0.0363342
0.031427
-0.0275129
0.0304755
-0.021181
-0.0190745
0.0297923
0.0200481
-0.0113863
0.0319303
-0.0104471
0.00260006
-0.0260435
-0.026702
0.0280605
0.0128483
-0.000721982
0.0116998
-0.0083159
0.0178485
0.0296423
0.0329408
0.0101946
0.0279797
0.0331422
0.0110187
-0.0268491
-0.00863288
0.0135959
0.033207
0.0213518
0.0224904
0.00251781
0.0106061
-0.00154005
0.0135495
0.00112806
-0.0127406
0.0179782
0.00473473
0.030516
-0.0250907
0.0303205
-0.0197136
0.0299157
-0.00695078
-0.0205172
-0.0255635
0.0170135
0.0233992
-0.00323063
-0.00293326
0.010423
-0.0153101
-0.00956552
0.0131634
-0.0230677
0.00881714
0.0305034
0.00160658
0.0589518
-0.0153659
0.0515743
-0.0165035
0.0241794
-0.0153561
0.00954141
-0.0150089
0.0178013
0.0183741
0.0376449
0.0184857
0.013974
0.021578
-0.0262791
0.00122435
-0.0275252
0.0254129
-0.0106403
0.00104988
0.0242469
-0.00480433
-0.00340603
-0.0052803
0.0184255
-0.00491064
0.00331528
0.00343401
-0.0283103
-0.00864708
-0.00874751
0.00457772
0.00602748
-0.0126684
0.0357829
0.0211099
0.0208939
0.0157687
-0.00274242
-0.0204421
0.013861
-0.0264468
0.0104975
0.00522466
-0.017679
-0.00198431
0.0331142
0.0356273
-0.0236801
-0.0275235
0.0333847
0.0168786
0.0168471
0.0313674
0.023265
0.0136136
-0.00461856
-0.00241341
-0.00657068
0.0274708
0.00739234
0.0072092
-0.00565696
0.0169314
-0.00799328
-0.0285482
-0.00424061
0.0271843
0.0239948
0.0331937
-0.0263712
-0.0230124
-0.00937233
0.0378012
-0.00668738
0.0176903
-0.000354357
-0.0246666
0.00272834
-0.01426
0.0156304
0.0094815
-0.0176793
0.00416544
0.0255768
-0.0116623
-0.0036364
-0.00980568
0.0177739
0.0076251
-0.0255065
0.0252275
0.0322829
0.0216116
0.0224399
0.0183547
-0.0296676
0.0373357
0.0209162
0.0079974
0.0450374
0.0106785
0.0771595
0.0188184
-0.015139
0.00231492
0.00935159
0.00459569
0.0394053
0.00363033
0.00871953
0.0339588
0.0276287
0.0281339
0.0329634
0.0275133
0.0258078
0.0158745
0.0059366
0.00956348
0.0441781
0.00269513
0.0196044
0.0253873
0.0195031
-0.00594631
0.0286977
0.0112745
0.00745313
0.0249254
-0.00251646
-0.00946488
0.0250613
0.0225793
-0.0197788
0.0336316
0.00623131
0.00591557
-0.00823373
0.0183112
0.0110023
0.0292073
-0.00388507
0.0194028
-0.0125392
0.0252799
0.0203856
-0.0246603
-0.0251913
0.00587683
0.00454354
-0.0046701
0.0202483
-0.0251221
0.0226736
-0.00516012
-0.00389257
-0.00593906
0.0181654
0.0251674
-0.00836731
0.00654255
-0.000529043
-0.010432
0.00337262
0.0290989
0.00856537
0.00374243
-0.0258318
-0.0208831
-0.0262131
0.017706
0.0119624
-0.016106
0.0236675
-0.0156738
-0.0285425
-0.0149027
-0.0290131
0.0277545
-0.0221983
0.0248062
0.000999973
-0.0209725
-0.0170461
-0.00168672
0.0282266
0.0317988
0.00971516
0.000364984
0.0360952
-0.00926155
0.000816207
-0.0109001
0.0179809
0.0359308
-0.0126192
0.0192645
0.0181836
-0.0147363
0.00846934
0.00835971
0.0513578
-0.0176394
0.0379859
0.0237613
0.0355919
-0.0223371
0.0161928
0.0258938
-0.00209383
0.00785693
0.0150692
-0.0038847
-0.0163852
0.0333669
0.0116682
-0.0251698
-0.00522913
0.0182133
0.032319
-0.0101174
-0.00326503
-0.0120901
-0.00933425
0.00870351
0.0215266
0.0140643
-0.0218962
-0.023769
0.012581
0.0233089
0.0232561
0.00409954
-0.0128887
0.0264074
0.0211814
0.0221766
-0.0236883
-0.0171266
-0.030053
0.0341339
0.00857518
0.00579991
-0.0229341
0.0210606
-0.0180244
0.00635588
-0.0298701
-0.0208907
0.000256636
-0.0240775
0.00194359
0.0111348
0.0493233
-0.00754708
-0.00311006
-0.009449
0.00759217
0.0300473
-0.0104081
-0.00698527
-0.0229197
0.00780869
-0.019352
-0.023299
0.0326819
-0.00556215
0.00552248
0.0297038
0.036111
-0.0128444
-0.0142602
0.0312825
0.00962176
0.0168259
0.0031558
-0.00314018
0.00473209
0.028073
0.0216294
-0.00952567
-0.00263761
-0.0270183
0.0219726
0.00910324
-0.0219928
0.0282812
-0.0218455
-0.00807597
-0.0221199
0.0285982
-0.00121774
0.024456
0.0142963
-0.0289013
-0.00859543
0.024165
-0.0232115
-0.0129928
0.01939
0.022702
-0.000164792
0.0222567
0.0485388
0.000317359
0.00380934
-0.0169318
0.0255095
-0.00921493
0.0532579
0.0167651
0.00252919
0.0032063
0.0342951
-0.00125171
-0.0159928
0.0263767
-0.0225045
-0.0157083
0.0122415
-0.0204021
0.0170891
-0.00469356
0.0126325
0.00860815
-0.00745483
-0.014296
0.0115716
0.0194677
0.0184871
0.00147924
0.0114147
0.0214188
0.0137622
-0.0101997
-0.0128875
0.0055941
0.0148375
0.00382157
0.028623
0.0232865
-0.0294242
0.00295718
-0.02129
0.0323645
-0.0203508
0.010483
0.0229405
-0.00793893
0.0244367
-0.0130076
-0.00471534
0.000216082
0.0552878
0.0120228
-0.0117903
0.000404789
0.0294414
-0.0160836
-0.00565865
-0.0150995
-0.0277965
0.0106311
-0.0282754
-0.0232584
-0.00603063
-0.0244901
-0.00532366
0.00854734
-0.0147373
0.0144976
0.0257504
-0.0141319
0.0157541
0.0201779
-0.00729659
-0.0257927
-0.0022533
-0.0168993
0.0275379
0.00869743
0.0261239
-0.00131401
-0.00572236
-0.00868969
-0.0169762
0.00911339
-0.010406
0.0360206
0.0233678
0.0275362
0.0295247
0.0185546
0.00370211
0.0134639
-0.0287788
0.00912962
0.0173095
-0.016875
0.0255896
0.0357186
0.0337402
-0.00326016
0.0316118
-0.0210338
0.0362053
0.0147664
-0.0201535
0.0128469
0.00594873
0.00799851
0.00876097
0.0135127
0.023964
-0.013991
0.0199248
0.00251042
0.0475291
-0.00913812
-0.0299667
0.0106913
-0.0200497
-0.00866777
0.0459012
0.008447
0.00363983
-0.0128861
-0.0230403
0.036167
0.023366
0.00794657
-0.0289592
0.0141202
0.00694069
-0.0109821
-0.0240361
-0.0255835
0.0115431
-0.0125239
0.0204717
0.0163699
0.0166226
0.00685097
0.0142576
0.000361998
0.0132198
0.0275556
-0.0292659
0.0309361
0.00671734
0.0211681
-0.0254352
-0.00149566
0.0205941
0.0183369
0.021737
0.00621237
0.0286752
-0.00136915
-0.0189007
0.0210605
-0.00371047
-0.0182426
-0.0101142
0.0205878
0.0282304
-0.00223927
0.0247347
0.021681
-0.0141465
0.0215567
0.0212197
0.0104891
-0.0277821
0.00574757
-0.0124713
-0.0232954
0.0354526
-0.0273064
-0.00126272
-0.0266125
-0.00397344
-0.00740529
0.00977743
0.022487
-0.0143662
-0.00579826
0.0105563
-0.0161667
0.00880931
0.0288635
0.00684184
-0.0076928
0.0334309
0.0284296
0.0466485
0.00713481
0.030408
0.0247677
-0.0168057
-0.011431
-0.00198613
-0.0114442
0.0366681
0.0183197
0.00527281
0.000888629
0.0295537
-0.00109893
0.0136246
-0.0177921
0.00908485
-0.0230562
0.00419316
0.0147346
-0.00121635
0.0296561
0.00963479
0.0195529
0.0458701
-0.0097164
0.00302222
-0.000556037
-0.00682745
0.00747733
-0.000223345
-0.027696
-0.0165077
-0.0251386
0.0357852
-0.018554
0.000317261
-0.0178367
0.00768035
0.0110866
-0.00271511
0.00412187
0.0101206
0.0155861
-0.00662045
0.0324646
0.0110583
0.0159057
-0.0148983
-0.0166174
0.03775
0.0375427
-0.00129561
0.00975254
-0.0204165
0.0184321
0.00710913
0.010966
0.042493
0.0134746
0.00508454
-0.000547026
0.0176856
-0.00577594
-0.0231416
0.0260886
-0.0110616
0.0124395
-0.0186136
0.0224578
0.0068041
-0.00675502
-0.00249341
0.00839583
-0.0186618
-0.0115952
-0.0178022
0.0350936
0.00116233
0.00665618
0.00844776
-0.0168466
-0.00446256
0.00608345
0.035372
-0.0246866
-0.010184
-0.0205151
0.0338615
-0.0150589
0.0361078
-0.0161019
-0.0295167
0.00342387
-0.0233554
-0.0233109
0.0164607
-0.00493344
-0.00120084
-0.0272435
-0.00367339
0.00383374
-0.0161747
0.0018972
-0.0170495
0.000835287
0.0140909
0.0112281
-0.0114932
-0.0109963
0.0299325
0.0326587
-0.00250197
0.0255055
-0.0100153
-0.0221455
0.00409252
-0.00608842
0.0340095
-0.0112981
0.0401313
0.0141996
0.0161684
0.0185155
-0.0218694
-0.0116364
0.0311424
-0.0246906
0.047634
-0.0218562
0.0432652
0.00934673
0.00616657
-0.0211969
0.0231728
0.00550773
0.0212081
-0.0179499
-0.0050554
0.0265468
-0.0250369
-0.026509
-0.016668
0.0122057
0.0362989
-0.00530114
-0.00329525
0.00560918
0.0308631
-0.00302357
0.0287795
-0.0134386
0.0428152
0.0253676
0.0219899
0.0155011
-0.00994918
-0.00388821
-0.0085857
-0.0196278
-0.00182577
0.0335069
0.0228727
-0.0223677
-0.000436562
0.00105188
-0.00945858
0.00375664
-0.0269745
-0.00557507
-0.014319
0.00211498
0.0280513
0.00327199
0.00595763
-0.00909778
0.00922421
-0.0170718
0.0118572
0.0103511
0.0350822
0.0265147
-0.00773638
0.0163166
-0.00884615
-0.0197847
0.0230597
0.0342426
-0.0242956
0.0235263
0.020939
0.0140298
0.0337238
0.0304065
0.0275296
0.0323821
-0.00717096
-0.0256678
0.000300971
0.0234772
-0.017155
0.00498828
0.027768
0.0123274
-0.00569564
-0.0221485
0.00129797
0.00242224
0.0105382
-0.0222684
0.0220054
-0.00634206
0.00670296
-0.0239361
-0.00866736
0.0156693
-0.012307
-0.0100099
0.013645
0.0286429
0.0345454
0.00854614
0.0178601
-0.0141252
0.0160354
-0.00319622
-0.00589223
0.0302014
0.0300189
-0.0225753
0.037653
0.0178371
-0.00244869
-0.017995
0.0183001
0.0311329
0.0336149
-0.0276661
0.0334276
-0.00886418
-0.00640702
0.0301631
0.0174187
-0.00231232
-0.0308463
-0.00710093
0.000734862
0.0131086
-0.0298167
0.0273426
-0.0220134
-0.0108344
-0.00458587
-0.00812595
0.00395104
-0.0260322
0.0466984
0.00726662
0.00951356
-0.00276253
-0.023608
0.0356902
-0.0174078
0.0206487
0.0292457
-0.0179585
0.00424913
0.00287196
-0.0038378
-0.020783
-0.00478111
-0.0220157
0.0109585
-0.0115025
-0.0126265
0.0299641
-0.0212396
0.0074645
-0.0262931
0.033069
0.0106559
0.0347832
0.0225316
0.0125892
-0.00803849
-0.00180099
0.00658787
0.00788377
-0.0157391
0.0203281
0.00677694
0.0122561
0.00234941
-0.00814653
0.00194987
-0.0149543
0.0111614
0.0129121
-0.0227188
-0.0266673
0.0290114
-0.0191374
0.0357481
0.0270057
0.0354398
0.0005994
0.03276
0.013376
0.032483
-0.00200609
0.00733949
-0.0300139
-0.00460392
0.0227688
0.0295272
0.0293209
-0.017338
0.0325512
0.0256698
0.0217489
0.00837797
0.0238047
0.000576251
0.0162467
0.0284127
0.00961969
0.0198193
0.00393836
0.00711756
-0.0310485
0.0076481
0.000282634
0.00499653
0.00623307
0.0109477
-0.0073992
-0.0109547
-9.92029e-005
0.00782302
0.020029
-0.0247279
0.03367
0.0340906
-0.00365397
-0.00540827
-0.0217893
-0.0102188
0.00516075
0.0209368
0.0201434
0.0354439
-0.0177251
-0.0167194
0.017668
0.0170423
0.0157884
0.0136019
-0.0335516
-0.00231004
-0.0258291
0.00903421
0.0341745
0.0266544
0.00424767
0.0205319
0.0125892
0.00555209
-0.00276277
-0.0148492
-0.00496229
0.0330333
-0.0262035
0.00992938
0.0321861
-0.0201793
-0.000206622
-0.0168494
0.000329533
-0.00304247
0.00339185
-0.00631427
0.00224513
-0.010897
-0.0231099
-0.00979634
-0.0158361
-0.00718972
-0.0120904
-0.020657
-0.0267302
-0.0300756
0.0133744
-0.0103526
0.00388514
-0.00219146
0.00100358
0.00771159
-0.00397143
-0.0205373
0.0329408
-0.00252868
0.0131594
-0.026993
0.0213974
0.0219294
0.0164302
0.00250638
0.016278
-0.00924485
-0.0175478
0.0252625
-0.000506105
0.000955933
0.0102363
0.0239253
0.016804
0.0283239
-0.00586724
-0.00430379
-0.00763052
0.0238099
0.0322854
-0.00501745
0.00549244
0.0163818
0.0263742
0.0236873
-0.010461
0.0110267
0.0123617
0.0320928
0.00433374
0.020562
0.022028
-0.0220099
0.0164994
0.0158403
-0.0229662
0.00678927
0.0160915
-0.00818734
0.00088094
-0.0291231
0.00811102
0.0188858
-0.00360484
0.0246052
-0.022424
0.0344959
0.00558335
-0.0249697
0.00561121
-0.0308833
0.00127102
-0.0219312
-0.0145072
0.0390496
-0.0175519
0.0204738
0.00423614
0.0139442
-0.0251364
0.0103863
-0.0258742
0.00576011
-0.0106704
-0.0107797
-0.00417095
0.0244141
0.0261373
0.00744897
-0.0228368
0.0232291
-0.0180848
0.0218816
-0.0140872
-0.0180161
0.0182625
0.0317735
-0.024766
-0.0040166
-0.00667685
0.0211916
0.0312108
0.0156462
-0.0167905
0.0267471
0.00879466
0.019621
-0.00257813
0.00674817
0.00237687
-0.0159507
0.0335039
-0.0253374
0.0120114
-0.0233105
0.0340822
0.0341383
0.00424371
-0.000221896
-0.0054854
-0.00176715
-0.0020668
-0.0255585
-0.0192165
0.0290073
0.014533
-0.00342678
-0.00581335
0.0522098
-0.0147223
0.051107
0.0161482
-0.0305648
-0.00771777
0.0326634
-0.00254769
0.0233144
-0.0280571
0.00473541
0.00742723
0.0139699
0.0246249
-0.0106633
0.00410626
-0.0101542
0.00332535
0.00325199
-0.00707983
-0.00421689
0.00690314
-0.00578339
0.00453873
0.0258806
-0.00805459
0.00746747
0.0154514
0.0470239
0.00416777
0.0153644
-0.0246841
-0.00131575
-0.000745875
-0.00690406
0.0207278
0.000607443
0.0209327
0.0167793
0.00386823
-0.000520823
-0.0116117
0.00224776
-0.00469289
-0.0285459
0.0167428
0.0115735
-0.0189554
0.000690617
-0.0073956
0.0069729
0.0158195
-0.0263333
0.00290848
0.0326058
0.00273957
-0.00626464
-0.00326887
0.0057618
-0.00724464
0.0151637
-0.0215573
0.00328879
0.0317671
0.0104963
0.0296679
-0.0197493
-0.0283088
-0.030351
0.0358363
-0.0298064
-0.0236318
0.0229179
0.0351707
0.0263212
0.00371808
0.0272214
0.0203743
0.0206717
-0.0149467
0.00431007
-0.0159309
0.0295197
0.0136437
-0.0278973
0.020154
-0.0280251
0.0313213
0.00429588
0.0112886
-0.0307312
0.0314859
0.0147159
-0.0250299
0.0368619
-0.0153266
-0.00144394
-0.0101364
0.0291162
-0.0100427
0.0357836
-0.0241275
0.0205608
0.034424
0.0264302
0.0289537
0.0167053
0.0304227
0.0114524
0.0307169
-0.0242781
0.000748157
0.00946613
-0.0127177
0.0302853
0.0216973
-0.0254008
-0.0036038
0.0272879
0.022253
0.0132919
-0.0107591
0.00390618
-0.0040003
-0.0102838
-0.00510086
0.0234432
0.0202327
-0.00823578
-0.00734755
0.0412462
-0.00377437
0.0177129
-0.00814807
0.0196933
0.00994733
-0.00114353
0.0188489
-0.0262202
0.023465
0.0286517
0.0132628
-0.00460642
-0.0141763
0.00828746
0.0297635
0.0288622
-0.0212313
-0.00087085
0.0154954
-0.0385514
0.00115739
0.021465
0.0164891
0.0292847
-0.0114005
-0.0101697
0.0194008
-0.0118692
-0.0115817
0.0107316
-0.00620386
0.0155744
0.0253463
0.0359403
0.00449343
-0.00155776
-0.013738
-0.0267772
-0.00986047
0.0264548
0.0165621
-0.00679102
-0.0252713
0.0108564
-0.0280389
0.0301767
0.00300385
-0.0253036
0.00713504
-0.0200487
-0.00435773
0.0147697
-0.0274389
0.028084
-0.0148054
-0.020784
-0.0221373
-0.00841547
0.00996357
-0.0200425
-0.0140627
-0.0244631
0.00403056
-0.0190643
-0.0156717
-0.00862009
0.013138
-0.0183445
0.0142873
0.0311307
-0.0147414
0.0534175
-0.00436371
0.0320694
0.02116
-0.01391
0.0301204
-0.0235403
0.0356963
0.00800591
-0.00548579
-0.0148081
0.000954359
0.04006
-0.0108134
-0.00486163
0.0207567
0.00785856
0.0268617
0.013528
-0.0169357
0.0494258
0.0201678
0.000551716
-0.0289437
0.0374185
-0.0137743
-0.000209614
-0.0218624
-0.0221182
0.00140038
0.0114271
0.0233144
0.035828
0.0275789
0.0226132
0.0279736
-0.0202295
0.00312154
0.00485334
0.0159392
0.0250923
0.0181326
-0.0164316
-0.0162725
-0.0168153
-0.0380055
0.00154188
-0.01901
0.0179006
0.0169903
0.0338073
0.0137417
0.0182898
-0.015414
-0.00558261
-0.0187762
-0.0146149
-0.00922334
0.0321003
0.0223798
0.0241689
0.00323054
0.025374
0.00194558
0.00246322
0.0124935
0.024043
-0.0276047
0.0105913
-0.0148053
-0.0194403
0.0271843
-0.00875367
-0.0020526
0.0331011
-0.00237725
-0.0250981
0.0061692
-0.00433103
0.0119967
0.02359
-0.0157567
-0.0262288
-0.0198512
0.0408343
-0.0261361
-0.0143542
-0.0120858
0.0180511
0.0138614
0.0249279
-0.0198009
-0.0134969
-0.00702585
0.0098658
-0.000607898
-0.018643
-0.00893962
0.0200049
-0.0117966
0.0166814
-0.00980703
0.0164304
0.0219878
0.000132708
0.00559498
0.000303284
-0.0213125
0.0158133
0.0308508
-0.00798505
0.0161644
0.0153612
-0.0239658
0.0244738
-0.0254337
0.0216249
-0.030895
-0.0166739
-0.0114269
-0.0297201
-0.0228136
0.020761
-0.0180158
0.0218715
-0.0283778
0.0348908
-0.00590255
0.00262137
0.0105343
-0.00130972
0.0229696
-0.0095618
0.0134264
-0.000973
0.0169902
0.0225629
-0.00157171
0.0315844
-0.0205801
0.0339252
0.0135915
-0.0229567
-0.00469422
0.0430946
-0.044431
0.00253934
-0.0144421
0.00850282
0.000753609
0.00210974
-0.0248783
0.0267442
0.0058623
-0.0120595
-0.0181878
-0.0240274
0.0346026
0.00527875
-0.00547778
0.0202303
0.0318912
-0.0116042
-0.000658625
-0.0195924
-0.0213937
-0.0160638
-0.0190881
0.021479
0.0127493
0.0211242
0.017041
-0.00625669
0.00965921
0.001672
0.0271072
0.0324126
0.00228556
0.0289765
0.0165215
-0.00260061
0.00447791
0.0326392
-0.00457844
0.0281727
-0.00644615
0.00263927
-0.00612824
0.00353233
-0.00831142
-0.00785758
-0.00466576
-0.0174202
0.0134089
0.0239969
-0.026576
0.0184316
-0.0120619
0.0402349
-0.0145617
0.00659626
-0.00443473
-0.0181682
0.0106865
0.0216558
-0.00655227
0.027155
0.0335252
0.0251087
0.0345478
0.0259821
0.0316726
0.000664987
-0.0214931
0.0352857
-0.0116523
0.0177903
-0.0240615
-0.000257178
-0.0259669
0.00657694
0.0375102
0.00102669
-0.0065546
0.056259
0.00930994
-0.0227461
0.00257958
0.0043722
-0.0153846
0.00330481
0.0165848
0.0205382
0.00807057
-0.0228741
-0.0169663
0.00266463
-0.00578684
-0.00466367
0.0177266
0.0359282
0.019697
0.0210601
0.0168218
0.00157335
-0.0134129
0.0409024
-0.0314469
-0.00366603
0.00597238
0.0185138
0.0320784
-0.0300654
-0.0256751
0.0166272
0.0191073
-0.0153666
0.0152019
-0.0284483
-0.0239982
0.0169808
-0.00986069
-0.0189324
0.0292925
0.0200757
0.0222131
-0.0139655
-0.0105179
-0.017116
0.0134597
0.00370247
-0.00554977
0.0170235
0.0272805
0.00469213
-0.0221271
-0.00218917
0.0138147
0.0287977
-0.0169744
-0.00775077
0.0276688
-0.0072162
0.033626
0.00547599
0.011306
0.033731
-0.0153471
0.0277701
-0.00626495
-0.0209015
0.0165053
0.0291964
-0.0166208
0.00484387
-0.0228411
0.0145056
0.0140599
0.013595
-0.0192611
-0.00444119
-0.00776646
0.0309021
0.0315671
0.0158277
-0.018551
0.00602271
0.0265018
0.000966158
-0.00650687
0.0326074
-0.013878
0.0278194
0.00281312
-0.0104841
0.0107375
0.0317222
0.00562671
0.0350034
-0.0278157
0.023068
-0.022535
0.0315523
-0.00317751
0.00396682
0.0172423
0.0188693
0.0287701
-0.00641369
-0.0157392
-0.00498483
-0.0226346
-0.00467678
-0.0218367
0.00678307
0.00316212
0.00121782
-0.0285421
-0.0111602
-0.0240761
0.0045163
-0.0135784
0.0433899
0.010751
0.0157977
-0.0588474
0.045213
-0.0399155
-0.0283665
0.000398522
-0.0269888
-0.00701165
0.0236742
0.0364632
0.0109263
0.0189483
-0.000629745
0.00326972
-0.0120934
0.0283411
-0.0102032
0.0115799
-0.013264
-0.0168892
-0.0122474
-0.00062413
-0.0271265
-0.0110191
0.0245435
0.00766057
0.0229303
0.00187163
0.0124635
0.0282638
0.0108071
0.00534176
-0.0141278
0.00263262
-0.0180028
0.0152132
-0.013395
0.0201638
-0.0122625
-0.00745735
0.0091645
-0.0285717
-0.00716127
0.00671299
-0.0265408
-0.00190245
-0.00568742
0.0145107
-0.0113123
-0.00373673
-0.00730686
0.00488886
0.0355611
0.00410478
0.0452399
-0.00880361
0.0212194
-0.0223516
-0.00276015
-0.0111246
-0.00527845
-0.0187336
-0.00584772
0.0365586
-0.0170605
-0.0117516
0.0221164
-0.0190286
0.0239256
0.0117704
-0.0100636
-0.0121544
0.0208569
0.0136098
0.0303281
0.0181671
-0.0243357
0.0118202
0.0352384
0.0194495
0.0122826
-0.00641313
0.0557017
0.0101827
-0.0147773
0.0286136
0.0300002
-0.0276211
0.0368151
-0.0146787
0.00966676
-0.0121013
0.0147534
-0.00403168
-0.0156281
-0.0252794
-0.0151513
0.0150687
0.00294002
-0.0260991
-0.00144769
-0.0501736
0.0414571
-0.0653118
0.0057601
0.0150505
-0.00777543
-0.0110211
0.0162593
0.0309117
0.0347226
0.0220812
0.0188159
-0.0238133
0.0315605
0.00135106
-0.018769
0.0344507
0.0256114
-0.0224862
-0.0124768
0.022158
-0.0278749
0.0188245
0.0306041
0.0248285
0.0314981
0.0320378
-0.0205645
0.010203
-0.0271553
-0.014923
0.0341903
0.0281217
0.0194674
0.0180109
-0.0228403
-0.0264063
0.0344027
0.0182979
0.00305609
0.0270179
0.0284257
-0.000106717
0.0261897
0.0126724
-0.0289042
0.0173595
-0.011039
0.00394737
-0.0279095
-0.0244448
0.00451359
0.0192471
0.0162846
-0.00255332
0.0433202
-0.0118054
0.0305467
0.0163361
0.013736
-0.0198758
-0.0019142
0.0360716
0.0110475
0.00235252
0.0234399
0.0350733
-0.0240788
-0.025113
-0.0300181
-0.00534093
-0.0113135
0.020287
0.0289288
-0.0012082
-0.0204655
-0.0160491
-0.00630807
-0.00241377
0.00782095
0.0259297
0.00241517
-0.0118398
0.0360674
-0.0250894
-0.0318335
0.0317977
0.0120042
-0.0121014
0.0336087
0.0169809
-0.00365032
0.0153406
0.0172848
-0.0156708
-0.027659
-0.0132904
0.0315075
-0.0121188
0.0302979
-0.0430229
0.00533604
-0.060257
-0.0102228
0.025888
0.029876
-0.00332081
0.0253437
0.0239358
-0.0218798
-0.0154891
-0.00721644
0.00439599
0.0187524
0.0282775
0.000530258
-0.0202298
0.016296
0.0334136
0.0223877
-0.000656596
0.0193687
-0.0161778
0.0352443
0.0253496
-0.015897
-0.00779891
-0.0101639
-0.0102764
-0.0233081
0.0371227
0.0159182
0.0124634
-0.026993
0.0137722
-0.0253016
-0.0249
-0.0150057
-0.0113603
0.0028922
0.0103217
0.0166841
-0.0144193
0.00105424
-0.0175912
-0.0207001
0.00699706
0.0161093
0.0232621
0.019825
0.0256016
-0.00385099
0.017919
0.0357702
-0.0169253
0.0342093
0.0115848
-0.0033158
-0.0148195
0.0252464
-0.0028807
0.0404762
0.00748382
0.00276328
-0.0189253
0.00773421
-0.0136629
-0.027965
0.035122
-0.016894
0.0171005
-0.000701365
0.00872337
0.010235
-0.00823925
0.0256736
0.0168023
0.0123841
0.0295259
-0.02897
0.000870078
0.0147294
0.0099118
0.0430428
-0.0243156
-0.0239205
-0.0255028
-0.0215227
-0.0106336
0.0328705
-0.0266553
0.0132604
-0.00307215
0.0119864
0.00240324
-0.0128146
-0.0101585
0.0150555
0.0039625
-0.0321732
-0.0292518
0.0279653
-0.0761759
-0.022093
-0.0304678
-0.0146995
0.00512224
-0.0119076
0.0149025
0.0339957
-0.00909488
0.00422365
0.0155481
0.0334955
-0.014847
0.0224215
0.032727
-0.0191331
0.0257964
-0.0248947
-0.0263913
-0.0120152
0.0231911
0.00934586
0.0130376
-0.0125043
-0.0209604
0.0265884
0.0189778
0.00746944
-0.00403839
-0.0295726
0.0230937
0.0269337
0.00829695
0.0253157
0.0139849
-0.0242997
0.0168598
0.00908175
-0.00477764
0.0306288
0.00143062
0.00695322
-0.0124536
0.00383622
0.0300924
0.0168703
-0.0230799
-0.00763774
0.0255852
-0.0205778
0.0203643
0.0299343
0.0282384
0.0381198
-0.00904884
-0.0105108
0.0375285
-0.0301763
0.00345228
0.00909102
0.0349942
-0.00270954
0.0314848
-0.0145478
0.0150205
0.0118897
0.00440646
0.00945144
-0.0208235
-0.0106546
0.0316683
0.0273292
0.017204
-0.00911656
-0.00105835
-0.0277945
0.0186854
0.0170763
0.0350459
0.00760777
-0.0152162
-0.00471685
-0.0301965
0.0524613
0.0375062
-0.0224203
-0.0226561
-0.0289085
0.0156414
0.00300843
-0.0165702
-0.00370846
-0.0193294
-0.0274828
0.00813334
-0.0208235
-0.0287572
-0.0214626
-0.00907686
-0.0207432
-0.089994
-0.0164198
-0.0393674
-0.0398131
0.0133846
-0.0176853
0.000782016
0.0196914
0.0115284
-0.00843629
0.0218499
0.00381358
0.0204142
-0.00811258
0.0140202
0.00329734
0.000658243
-0.0217195
0.0248062
-0.0117295
0.0164038
0.0102645
-0.0189811
0.0360995
-0.0124394
-0.0227676
-0.022252
-0.00436186
-0.0134022
0.0268871
-0.010556
0.0167116
0.00182423
-0.0153676
-0.0274789
-0.0136055
0.02482
0.0201707
-0.0250582
0.0230454
-0.0191191
0.0179897
0.0109578
-0.0126831
0.00513438
-0.0213167
-0.0089756
0.00939781
-0.00763766
0.0255617
0.0185806
0.0355537
0.00878707
-0.0156763
-0.000569346
0.0239537
-0.0179037
-0.0138812
-0.0288445
0.0325236
-0.00158185
-0.0248638
-0.00198158
-0.0254311
0.0143829
-0.0137024
0.0127986
0.0271287
0.0216987
0.00240836
-0.012596
0.0100068
0.00352157
0.0224835
-0.0222906
0.0316091
0.0139324
0.015875
-0.0265734
0.0267348
0.00577048
-0.015658
-0.0123984
0.0251437
-0.0208438
-0.0134209
0.0181407
0.00893277
-0.0180965
0.0128926
-0.0115229
0.00465659
-0.0181308
-0.0324167
-0.0169234
0.0346796
0.00757535
-0.0181908
0.000343737
-0.0058395
-0.0805344
0.0137146
-0.0695539
-0.0197391
-0.00750336
0.0160341
0.0293473
-0.0303757
0.0213081
0.00805934
0.0306986
0.0248941
-0.0164131
-0.0179835
0.0296646
0.00165382
0.0224854
0.00401241
-0.00393761
-0.00197174
0.0101604
-0.0163268
-0.00719629
0.00927598
0.0181894
0.0326428
-0.0281485
0.00536096
-0.0218503
-0.00116819
-0.005029
-0.0161462
-0.0196619
-0.00241076
-0.00337824
0.000411829
0.0265149
-0.0208601
-0.0110454
0.0190584
-0.00252537
-0.00475645
0.00427811
0.00653238
0.0227183
0.0210026
0.0218966
-0.0293558
-0.00662089
0.0237229
-0.0296004
0.0343199
-0.00331199
-0.00354168
-0.00321828
-0.0132235
0.0326425
0.0198291
-0.00232652
-0.00992921
0.0243598
0.0250142
-0.013949
-0.0195184
0.0191532
-0.0242124
0.0218215
-0.0188937
0.0281115
-0.0190206
-0.0035951
-0.0206911
-0.0189336
0.0212379
0.00240056
0.0278152
0.0195753
0.0114935
0.00791826
0.00770175
0.0116384
-0.016798
0.0119774
0.0181667
-0.0269481
-0.0207036
-0.0125043
0.0347843
-0.00827373
-0.000331751
0.034116
-0.0183494
-0.0175051
0.00988715
0.00635297
0.0113578
-0.00856479
0.0216232
-0.00757573
0.0106611
-0.0442851
0.00606266
-0.125651
-0.031017
0.0129668
0.0156863
0.0255116
-0.0349349
0.0209301
0.00819503
0.0123296
0.0249291
-0.0165824
0.0313379
0.0200163
0.0156977
0.018747
-0.0296848
-0.0169954
0.00498938
0.0325797
0.0395675
-0.00920913
-0.0074836
-0.0175182
-0.00975863
0.03079
-0.026845
0.00274007
-0.0247919
6.41178e-005
0.0331536
0.0148905
-0.0278198
-0.0128085
-0.0283868
0.00393722
0.0300513
-0.0197331
-0.0123227
-0.0115044
-0.0258978
-0.00616341
-0.00527807
0.029749
0.0312165
-0.00657462
0.0285738
-4.73882e-005
0.00129357
0.0250127
0.0164292
-0.0200667
0.0278646
-0.0017173
-0.015749
-0.00510447
-0.0232911
-0.0185358
0.0415247
-0.0158909
-0.0147773
0.0226331
0.00384427
0.0175807
-0.0248741
-0.0207546
0.0260232
-0.00141388
0.00209008
0.0161117
-0.0203745
0.0322951
0.0141532
0.0142032
-0.00751947
0.000577309
0.0341055
0.00834199
-0.0234089
-0.00290106
-0.00142531
0.0128025
0.0385314
0.0257111
-0.0166479
0.00559275
-0.00526787
-0.0216805
-0.0104072
0.00326966
0.0343958
0.0300339
0.029511
-0.0395498
0.0239054
-0.00808433
0.0218488
-0.0477266
0.00602724
-0.028388
0.0154282
-0.145671
-0.0331924
-0.0116826
0.0126156
0.00417462
-0.00911949
0.0325375
0.00773617
-0.00884054
-0.018125
-0.0241348
-0.0225733
-0.0141154
0.0263521
0.0104729
0.0331874
-0.0138638
0.00414021
-0.0122893
0.0253635
0.000836637
-0.013211
-0.0037961
0.0309531
-0.0241147
-0.0127221
-0.0183055
0.00770997
0.0342846
0.0080919
-0.0140711
-0.0228466
0.01338
-0.0128346
-0.0232442
0.00303866
-0.00437994
-0.029827
-0.0271827
0.0108153
-0.026358
0.00511197
-0.00542367
0.0225643
-0.00261595
-0.00028175
-0.0139735
-0.00114251
-0.0230539
0.018003
0.00792232
0.0324209
0.00491118
-0.0092839
0.0194312
-0.0106732
0.0201475
0.0272666
0.0235612
0.00584516
0.0142646
0.0142684
0.0160305
-0.0185443
0.0134942
-0.0106156
0.0278674
-0.016615
0.0155361
0.000508314
0.0150122
0.00704776
-0.00919087
-0.00753909
-0.00100763
-0.0246398
-0.0164924
0.0104384
0.00429074
0.038414
0.0011099
0.00880957
-0.0182443
-0.000163286
-0.0277366
0.0307829
0.0146101
-0.0210536
-0.0258551
0.00173162
-0.0181187
0.0273465
-0.0146927
0.023023
-0.042694
0.00440553
-0.0217881
-0.0124948
-0.0118965
-0.0366999
-0.154546
0.010853
-0.0275757
-0.0321372
-0.0260362
-0.0184272
0.0374636
-0.0246892
0.0307033
-0.0227495
0.00560665
0.0123325
0.012313
-0.0268988
0.0328668
0.0267532
0.0374027
-0.0283308
-0.0168121
0.0127019
0.0354
-0.0211749
0.0270078
0.0135959
-0.0112595
-0.0233841
0.00518023
0.0443476
-0.015766
0.019748
0.00851184
-0.0321819
-0.0266734
-0.00881533
-0.00192477
0.0249114
0.00206845
0.0173136
-0.00647395
-0.0109609
0.0130701
-0.000138569
0.000597426
0.00151425
-0.0231871
0.000392925
-0.0341433
0.015089
-0.00937666
-0.000387219
-0.00931305
-0.0230167
0.0322671
-0.0198699
0.00280094
0.0153119
-0.0115284
0.00180147
0.0230166
-0.027815
-0.0204441
0.0212656
-0.0232229
-0.0256451
0.00789608
-0.00958309
0.000769434
0.0270406
-0.0241074
0.023239
-0.0143129
0.0105145
0.022834
0.0308528
-0.0235709
0.0196174
-0.0249831
-0.011337
-0.0106417
-0.00844951
-0.00429537
0.0309447
0.0187846
0.0350588
0.00212638
0.0291778
-0.0208398
-0.0276979
-0.0125084
0.000258071
0.0121713
-0.00261832
-0.00097925
-0.0207395
0.00683526
0.0289165
-0.0467375
0.030376
-0.0315124
0.0150423
-0.0537379
0.00255575
-0.157481
-0.0426207
0.0129168
0.0410476
0.00103565
-0.0194403
-0.00341975
0.0172195
0.0292002
-0.0179281
0.0358518
-0.00323205
-0.00660859
0.0138258
0.00623097
0.0293265
-0.00677246
-0.0138916
0.0279127
-0.0259325
-0.0243034
0.00640085
0.0302969
-0.00367545
-0.0223003
-0.00626577
0.013432
0.0182876
-0.017655
-0.0146809
0.029536
0.00998921
-0.00235493
-0.0179442
0.00801972
-0.0128763
-0.0197461
0.0216725
0.021931
0.00704617
0.00588095
0.00419539
0.00618075
0.0325373
-0.0105314
0.0466719
-0.00413645
-0.0299215
-0.00989861
-0.0153028
0.00845227
-0.025078
-0.0236238
0.0233172
0.0197701
0.00789699
-0.00739717
-0.0302894
-0.00463561
0.0349219
0.0268353
-0.000541374
0.0147414
0.00670377
0.0273807
-0.0131912
-0.021632
0.01741
0.00263244
0.00587265
0.0298424
0.00790521
0.0125344
-0.0162878
-0.00257001
0.0357913
-0.0100637
0.00127287
-0.00907463
0.0509352
0.00265051
0.000926363
0.0151392
0.0360188
-0.000858065
0.00577642
-0.00780819
0.0119679
-0.00369209
0.00739143
0.0353406
-0.0295954
-0.00438184
0.0330148
-0.0145494
-0.0300196
-0.0436013
-0.0199539
-0.019061
-0.0168371
-0.190517
-0.0120686
-0.020668
-0.0254389
-0.0199029
0.0281171
-0.0301449
-0.0265491
-0.0237595
0.0237547
-0.0181335
0.0205714
-0.00631568
-0.0185053
-0.0106782
0.0116188
0.0157858
0.0134204
-0.00635041
0.021298
0.0287835
-0.0180202
-0.0196007
-0.00709286
0.0176996
-0.0203778
0.00322929
-0.00640786
-0.00618868
0.0217558
-0.0142859
-0.0140867
0.0269228
0.00543129
0.0219558
0.0371857
-0.0160501
0.00746127
-0.0188404
0.0137467
-0.0403205
0.00680562
0.0153172
0.0404626
-0.00617364
-0.0289515
-0.0196751
0.0351028
-0.00328221
0.00696191
0.0247758
-0.00463519
-0.0124922
0.015614
-0.0067505
-0.0295704
-0.0104629
-0.0288759
0.0212953
0.00887053
0.015941
-7.63381e-005
-0.00605504
0.0273213
-0.026046
-0.00686745
0.0172228
0.0311949
0.0129564
0.00726606
0.0044584
-0.000442558
-0.0158076
-0.0124343
0.0292825
0.0424339
0.01641
-0.00129435
0.0188518
0.00684326
0.0179108
-0.00921833
0.0315529
0.0306432
-0.0279537
0.0288038
0.0160197
0.0165432
-0.0298694
0.0407901
-0.00749322
-0.00531882
0.0291618
0.0308841
0.00719463
0.00054467
-0.0248968
-0.00112384
-0.0527635
-0.00132719
0.00183004
0.0354613
-0.21836
-0.0451757
-0.0145902
-0.0290953
-0.00499837
-0.0347599
-0.0317879
-0.00140823
-0.0285168
0.0210228
0.0372708
-0.00959422
-0.0156433
-0.0287932
0.00611239
-0.0126112
-0.0138172
0.0126505
0.00141306
0.00609259
-0.0276381
0.0298335
-0.0274136
-0.0115561
0.0143538
0.0162693
0.0144275
-0.0127406
-0.000749933
0.00635564
-0.0260281
0.00158158
-0.00966568
-0.000903077
0.0161188
-0.0199427
-0.0352703
-0.0294587
-0.021604
0.0531993
0.00656615
0.042311
-0.0181594
0.0287463
0.0036491
0.0066002
0.0103126
0.0147591
0.0158418
0.0332655
0.016487
-0.017453
0.022909
-0.00373299
0.0158499
-0.0140148
-0.00146011
0.00832035
0.00952726
-0.019289
0.0283095
0.0181682
0.0152442
0.0304972
-0.0164123
0.0125498
0.016554
0.00917939
0.00428622
-0.0160843
-0.0150508
0.0329326
0.00921104
-0.0148078
-0.0122866
0.0224259
0.00711826
0.0258506
0.00435981
-0.00176884
0.00884352
-0.0155829
-0.0248837
-0.0156158
0.0321819
-0.0166495
0.0307149
0.0129382
0.0318145
0.0343565
-0.00499653
-0.00672008
0.00137015
-0.00502494
0.0109943
-0.0198658
-0.0471078
0.00995762
0.0176088
0.0439914
-0.262402
-0.0225408
-0.0763076
-0.0689775
0.0286305
0.0125558
-0.0280275
-0.0486581
-0.0122807
0.00611352
-0.0416076
0.0587177
-0.0138273
0.0211957
0.032955
0.0268782
-0.0284529
0.0293628
-0.00714031
0.0296636
-0.000432606
0.00151868
-0.0243007
0.00256388
-0.0293242
-0.00685067
-0.00494846
0.00231939
-0.0154004
-0.00370374
0.0330838
0.0067062
0.00935687
0.0161319
-0.0381234
-0.0475627
-0.0200409
0.0266327
-0.0234738
0.0430883
0.0127935
-0.0278763
-0.0223947
0.0115026
0.0142959
0.0153138
0.0152879
-0.0156938
0.0305485
-0.0207515
-0.0196284
0.0211916
0.033446
-0.0208666
-0.0163312
-0.017675
0.025897
-0.0123329
-0.0118109
0.0211586
0.00585339
0.0290055
-0.015515
0.0107196
-0.0211494
-0.000719991
-0.0148092
0.0105935
0.0311998
-0.00812891
-0.00248682
-0.0223073
0.0118732
0.00649646
-0.0263416
0.0211835
-0.032473
-0.00680073
0.00208292
-0.0104397
-0.000709408
0.0269708
-0.0313752
0.00604749
-0.0289216
0.0205607
0.0055686
0.0330353
0.00830784
0.00756406
0.0283199
-0.0252681
0.0181535
-0.0106528
-0.0365712
-0.0201442
0.021229
-0.0138812
-0.060784
0.0131926
-0.0171799
0.0282536
-0.319199
-0.0319779
-0.0262339
0.0193324
-0.0146196
-0.0425775
0.0141401
0.0281413
-0.00416486
-0.0150547
0.00389345
0.0128393
-0.0533297
0.0243089
-0.0245023
-0.00259651
0.0294723
0.0103644
-0.0311717
0.0202658
-0.00388168
0.0251057
0.0148151
0.0232879
0.0302989
0.0194468
-0.0129994
0.0270611
-0.00707472
-0.00169832
-0.0550925
-0.0501419
-0.0567548
-0.00567531
-0.0369853
0.0352079
0.0112459
-0.00654235
-0.0180457
0.0163456
-0.0125429
0.0145125
-0.0236034
0.014383
-0.00805673
-0.0298302
0.00408728
-0.0190593
-0.0195975
0.0490672
-0.00451183
-0.020622
0.0203533
-0.00125405
-0.00716296
-0.0254055
-0.00848181
0.00601601
-0.00643434
0.0338293
-0.0197218
0.0213601
-0.0274748
-0.0062197
0.03121
0.0114298
0.0223251
0.0304239
0.012758
-0.00325709
0.00273075
0.00437153
0.0109328
0.0179114
-0.00909348
-0.00944214
0.0249929
-0.0108273
0.00852698
-0.0147711
-0.00916466
0.00324056
-0.0414435
-0.0121397
-0.030502
0.0345112
0.035466
0.0289207
0.0229412
-0.0189432
-0.0144341
0.00476297
0.0348968
-0.00480577
0.0291628
0.0191062
-0.0365763
-0.0167884
-0.0375754
0.0338606
0.0317093
0.012321
-0.368565
-0.0420449
-0.0116944
-0.0631346
0.0152616
-0.017666
-0.0082986
-0.0304652
0.0165702
0.0152667
-0.0192672
0.0337772
0.00896741
-0.0108264
-0.0468804
-0.0288808
-0.0292715
0.0218536
0.0255076
-0.0139111
-0.0192896
-0.00333224
0.030165
-0.0114952
-0.0221181
0.00647895
-0.068614
-0.0330573
-0.0738126
-0.014804
0.00631652
0.0435616
0.0228031
-0.00170499
-0.0265828
0.00638703
-0.0225442
0.000924267
0.00420243
0.0284741
0.0128733
0.0221781
0.0114915
0.00456562
-0.00828794
0.0247696
0.016132
-0.0186595
-0.00121769
-0.0281316
-0.0227825
-0.0126808
0.0140322
-0.0194856
0.00422608
0.0334248
0.0100163
-0.00913387
0.0258167
-0.0106012
-0.0239869
-0.016372
0.0148983
0.00213852
0.00648401
0.0264536
0.0079504
0.0480345
-0.0320151
0.0173067
0.0341432
-0.0276435
0.0235748
0.0132623
0.017166
0.0120942
-0.0151787
-0.0283041
-0.0160329
0.0286394
0.00501263
0.00625905
-0.020578
-0.0010716
-0.0092632
0.00508785
-0.0368372
-0.010951
-0.0275288
0.0385528
-0.0246321
-0.0248844
-0.00375093
0.0154989
-0.0121379
-0.0354293
-0.0377401
0.0325365
-0.00907708
0.0148687
0.0235313
-0.0182955
-0.447903
-0.0203437
-0.0252211
-0.0182052
-0.00179288
0.000206693
0.0285832
0.0102928
-0.0210813
-0.0321647
0.00670336
-0.00658497
-0.00305327
-0.0245696
-0.0293658
0.0218807
-0.03502
0.0206357
-0.0430808
0.0322054
-0.0636194
-0.0202562
-0.0951676
-0.0240352
-0.0789981
-0.0153685
0.00456151
-0.00207268
-0.0240274
-0.0147341
0.00158756
0.0129711
-0.0283575
-0.0177654
-0.0177049
-0.0149232
0.0224643
-0.0169701
-0.0127997
-0.00481682
0.00949923
-0.0138037
-0.013363
0.0334291
-0.0237116
0.00082669
-0.0210469
-0.0088708
0.0249543
-0.0170396
0.00237484
-0.00840225
0.00366459
0.0163773
-0.00536639
0.0144279
-0.0268411
0.0431864
-0.0197589
0.00251585
0.0021403
0.0309
-0.0323675
0.0201516
-0.0332127
0.0192356
-0.02365
-0.000656461
0.0308245
0.0294656
-0.00979959
-0.0175743
0.0371673
-0.0176832
0.0246703
0.0335469
0.00120221
0.00962202
0.0110938
0.0289715
-0.0167144
0.0386059
0.0168795
-0.00486012
0.0262381
0.0195117
0.00325283
0.0234306
0.00465831
-0.00687579
-0.0536937
0.00130471
-0.0298976
-0.0278063
-0.0263804
0.0288336
-0.0114979
0.0185652
-0.0185766
0.00268744
0.0192769
0.00124328
-0.271524
-0.235098
-0.512834
-0.0488956
0.0342901
-0.0148273
-0.0331257
-0.0278731
-0.019666
-0.0450414
-0.0279466
-0.00540997
0.0222328
-0.0164997
-0.0864048
-0.0851841
-0.141414
-0.0784838
-0.145214
-0.0644612
-0.0578927
0.0152564
-0.0501412
0.0313806
-0.0321926
-0.0126454
-0.0396776
0.0255944
0.0103407
0.00299451
0.0206487
0.0251272
0.00107135
0.00535167
-0.0240019
0.0134298
-0.0217676
0.0334773
-0.0105736
-0.0225665
-0.0254237
-0.0113333
0.00974025
-0.0318373
0.0234171
0.0132952
0.0281867
-0.0243349
0.012804
0.0283535
-0.0154318
0.0304006
0.00355016
0.0132494
-0.0276333
0.0553787
-0.0256424
0.0163568
0.0077358
-0.00499994
-0.0254898
0.00347942
0.00524995
0.0234455
-0.0231838
0.024409
-0.0130138
0.0383586
-0.000833125
-0.0286617
0.00409752
0.00120549
-0.0172927
0.0142524
-0.0222017
0.00272318
0.0252244
-0.0247441
0.0286192
0.0312592
0.0157772
5.05841e-005
0.0217585
0.0126181
-0.0165429
0.0160893
-0.0104935
-0.0328694
-0.0412343
-0.00223361
-0.0113082
-0.0363286
-0.0504304
-0.0253596
-0.0598265
0.0201901
0.0286823
-0.013272
0.038806
-0.0126561
-0.0425873
0.0229117
-0.0479476
-0.158158
-0.202779
-0.275725
-0.42971
-0.139576
-0.377825
-0.174813
-0.29125
-0.133376
-0.248031
-0.0830911
-0.210255
-0.0767056
-0.129681
-0.0443229
-0.0204865
0.0239677
-0.0107819
-0.025925
-0.00815809
0.0202577
0.0111208
-0.0346969
0.0293696
0.00315705
-0.0213061
0.0135064
-0.00775953
-0.00997866
-0.00859646
0.0106304
-0.0231091
-0.00765402
-0.0159923
0.0432378
-0.0225223
0.00255615
-0.0350573
0.0419039
-0.0192766
0.0342002
0.00804763
0.0225347
-0.0181934
-0.00540529
-0.0182689
0.0365885
0.00580361
0.0212172
-0.0219179
0.0495838
-0.0236178
0.0388359
0.0331523
-0.0285221
0.0138826
0.0176189
0.0119848
-0.0199688
-0.0035027
0.0295709
-0.00799909
0.0323551
0.0260733
0.0119394
0.0127035
-0.0107343
-0.000294526
-0.00168676
-0.0220789
-0.00287571
-0.0109134
0.0142698
0.00713692
-0.0207648
0.00608316
-0.00448824
-0.0150328
-0.018487
-0.00897432
0.0267258
-0.0208077
-0.0201987
0.00769336
-0.0192528
-0.00826986
0.0324722
0.00232851
0.00393788
0.0072834
0.00205216
-0.00801096
-0.0134894
-0.00915479
-0.00397411
-0.0199912
-0.00497808
-0.0572264
-0.0364768
-0.0787343
0.00144052
