j
-0.00130162
0.0168677
0.0084267
0.00415366
-0.0147617
0.0121428
0.000696574
0.0236472
0.00639665
-0.00558525
0.0178435
-0.0101951
0.0116973
0.0117548
-0.000759991
0.0179296
0.0340228
-0.00984545
0.0133581
0.0288374
0.00491085
0.00346255
-0.019407
0.029766
-0.0214811
0.0310888
0.00323425
0.0188452
0.0262971
0.0352766
-0.021445
0.0203534
-0.0177278
-0.0204424
0.0428362
-0.0132165
0.0270956
0.00586192
0.0306649
0.0243913
0.0027067
0.0105925
0.0297689
0.0157905
-0.0199976
0.00993377
0.0203894
-0.00040792
0.0315308
-0.00511807
-0.00961556
0.0178006
-0.00829764
0.00542906
0.0306483
-0.00206332
-0.0257801
-0.00505764
0.0370334
0.00412778
-0.0164634
0.0325518
-0.0261455
0.0271872
0.0104808
0.0205471
0.0151392
0.0168951
0.0449273
0.00464082
0.0400293
0.0155474
0.033812
-0.0179933
0.0056904
0.00918645
-0.00926324
0.00246958
0.0314646
0.0120592
0.042911
-0.0117834
0.00685407
0.0141362
0.0376488
0.00901016
0.0388808
-0.012806
0.00856123
0.0331317
-0.00986336
0.0366467
0.0300258
-0.00315327
0.0241065
-0.00399509
-0.399647
0.696806
-1.56668
2.37416
-2.61685
4.45794
-0.0179833
-0.00197198
0.0126284
-0.0314539
-0.0197234
-0.00842481
-0.00100044
-0.00762877
-0.012319
0.00285516
-0.0247038
0.0360028
0.00335673
0.00113499
-0.00761851
-0.00587662
0.0400031
0.0114042
0.0269621
-0.0133326
0.0211666
0.0224602
-0.0112006
-0.00185063
0.0305893
0.0158689
0.0249262
-0.0136603
0.0156008
0.0151442
-0.0157374
0.0145339
0.0303772
0.00732152
0.00981819
0.0030287
0.0273814
0.02085
0.0208215
0.0230482
-0.00223329
0.00588754
0.0219199
0.0281082
-0.019664
0.0155692
9.54255e-006
0.0235931
0.0175627
0.0327222
0.00483054
0.0126145
0.00155314
0.00398128
0.0137923
-0.00915423
0.0439549
0.0237565
0.00294922
-0.00559247
0.0208173
-0.000828921
-0.00860033
0.0142816
0.0370745
-0.00651733
0.0285921
-0.0231773
0.00334088
-0.0141793
-0.0113874
0.00367871
0.0348488
0.0372495
-0.00384966
-0.00520682
0.0205123
0.0212032
0.0348749
0.0083521
-0.0224449
0.00347625
0.00110385
0.000501719
0.0348307
0.0171189
0.0235306
0.0222151
0.047041
-0.0188311
-0.00498218
-0.0339379
-0.136788
0.244456
-0.400306
0.684518
-0.283288
0.444052
0.0240936
0.0251306
-0.137191
0.0387671
0.00962829
0.0115962
-0.0135639
0.0160914
0.0369792
0.0314481
0.0260421
0.00363152
-0.0269467
-0.00667278
0.0164965
0.0122202
-0.0268884
0.00626506
0.0160086
0.0142296
0.028036
0.0361656
0.0195277
0.0299528
-0.0202652
-0.00262092
0.0233329
0.00116699
0.0292503
0.00287655
0.0409207
-0.008335
0.0123007
0.0320968
0.014328
0.0321651
0.0230423
0.0194434
-0.0276253
0.0314709
0.00583048
0.0167931
0.0327305
-0.00634853
-0.0276996
0.031238
0.00801709
0.0096704
0.000736406
0.0103341
0.0364069
-0.00215618
-0.0124897
0.0382983
0.0221528
0.00985307
0.0234559
0.00998551
0.0163725
-0.00308353
-0.000205449
0.0170721
0.000766187
0.0261883
0.0333228
-0.019633
-0.0109898
-0.0131493
0.0110449
0.0143632
0.0184876
-0.0109467
0.0129164
0.0119234
0.0126453
0.0173853
0.0114928
0.0329521
-0.00771087
0.0166881
0.0178779
0.025872
-0.00541985
0.0116204
0.0051016
0.0034321
-0.00313284
0.0154444
-0.0265973
0.0197692
-0.00378139
0.028125
-0.0549733
0.0858248
-0.185162
0.282924
-0.0683066
0.147397
0.00279013
-0.025808
0.019661
0.0280702
-0.095554
0.0313642
0.026208
0.0111772
0.0176633
-0.0224162
0.022217
0.0168951
-0.0213526
0.0245141
0.00983827
-0.000982502
-0.0114637
-0.00522509
0.00879616
0.00805983
-0.0185395
0.0197068
-0.0209899
-0.00483123
0.0151694
-0.00383956
0.0128248
-0.0109734
-0.0267419
0.00308807
0.0125188
0.0210449
0.0229218
0.00837646
-0.0233184
0.00406537
0.0204438
-0.010783
-0.010266
-0.01793
-0.0101032
-0.00517876
0.0203597
0.00928526
0.0113763
-0.00522205
0.013322
0.00840234
-0.0132627
0.0314983
0.0108864
0.0367045
-0.0121604
0.00803699
-0.0244789
-0.0089364
0.0172173
0.0179166
0.0395742
0.0201636
0.0247768
-0.00711018
0.0032269
-0.0181352
0.0346842
0.0193749
-0.00547205
-0.00697571
-0.00192006
0.00577946
0.0312587
0.0107543
0.00381253
0.0330115
-0.0202577
-0.0140154
-0.0198146
-0.00329775
-0.0125325
0.0116019
0.025508
0.00177282
-0.0236316
0.0317967
-0.00294008
0.0359814
0.0301664
0.0217725
0.0112619
0.00635031
0.0264698
0.00763207
0.0182996
0.016749
-0.0910103
0.199491
-0.0767156
0.142866
0.0145508
-0.0088405
0.0187132
0.00431046
0.0223686
0.0078067
0.016037
-0.0197014
-0.01307
0.0136814
-0.0165095
0.0200893
0.00662712
0.00206524
0.0116293
0.030317
0.0203356
-0.00655404
0.0251406
0.0297005
-0.0114617
0.000311434
0.0345356
0.0320601
-0.00386209
-0.019509
-0.017294
-0.00851164
-0.0159935
0.0213478
-0.00352639
0.0160624
-0.00339186
0.00247763
0.0135268
0.00165104
-0.0154474
0.0249997
-0.00725508
0.0315318
-0.0190335
0.0171996
-0.0267338
-0.000522774
-0.0154791
0.0291655
-0.00900793
0.029
0.0150282
0.0264378
-0.00854014
0.0353893
0.0132798
0.0181738
0.00461971
-0.00431629
7.53464e-006
0.0135613
-0.00337173
-0.0152078
-0.0139078
0.0151271
0.0309226
-0.0132143
-0.0151422
0.0387779
0.0180667
0.0291845
0.0187815
0.0026253
-0.00150643
-0.00446091
-0.0028176
0.0125247
0.0175165
-0.00931088
-0.0219309
0.0340877
-0.010291
-0.0105333
-0.0245091
0.00547652
-0.0128102
0.0114307
-0.00265675
-0.0124235
-0.0246281
-0.011457
0.0277428
0.00845105
-0.000667123
-0.00178018
-0.00166305
0.0148005
-0.0411359
0.0622114
-0.111386
0.153316
0.0370414
0.0387946
-0.000847835
0.0373728
0.0368848
-0.00470752
0.0288451
0.0148964
-0.0166795
0.00657466
0.0156777
-0.00604074
0.0181073
-0.0275925
0.0158078
-0.00453415
-0.00566386
0.00618145
-0.0148751
0.00318245
-0.00782533
0.0141931
-0.007743
0.0209642
-0.0219269
0.0329704
-0.0128394
-0.0115476
-0.0185053
-0.0114626
-0.01409
0.0230923
-0.0214811
0.00263138
-0.0134716
0.00328596
0.0306382
0.0195058
0.00548712
-0.00246216
-0.027041
0.0305286
-0.00816466
0.0259968
0.00591682
0.015044
-0.0171159
0.0300248
0.0274758
-0.0077201
-0.0118391
0.0177004
-0.00967546
-0.00916016
0.0333758
-0.00250606
0.00168061
-0.00880338
0.0272437
0.00531761
0.000109682
0.0173492
-0.0142898
0.02807
-0.0170898
0.0128702
0.0273814
0.00666694
0.0361238
0.00232997
0.00673604
-0.00865783
0.032349
0.0164384
0.0263152
0.00297542
-0.0183829
-0.0031487
0.0299535
-0.00086072
0.0343749
0.0151795
0.0378406
0.016644
0.0136352
0.0214452
0.0316221
0.0151293
-0.0236657
-0.00480342
0.0278863
-0.00584453
-0.00371854
-0.0229957
0.0173238
-0.0051368
-0.0131202
0.0949929
-0.0100888
0.0859837
-0.0198326
0.0228868
-0.00087193
0.0350011
-0.0257339
0.0381461
-0.0205896
0.0279834
-0.0269262
0.0385503
-0.0283308
-0.000620365
0.0349151
0.0362722
0.0465256
-0.0244197
0.00604533
0.0160312
-0.0228629
0.0189278
-0.00920392
0.0125043
-0.0022614
-0.0054032
-0.0161461
-0.0053286
0.0404229
-0.00813448
-0.00185508
-0.00974426
-0.0113331
0.0163715
-0.0109516
0.00597735
0.0335075
0.0253514
0.0259879
-0.0097493
0.0214701
0.0253331
-0.0098232
0.0326218
0.0255401
0.0355354
0.0266043
0.0238124
0.0332826
0.0235825
0.010019
0.0019494
-0.0179874
0.00628333
0.00963547
0.0246496
0.010017
0.00828665
0.00394562
0.00328647
-0.00574804
0.00725523
0.0063226
-0.00999508
-0.00412675
-7.67469e-005
-0.0062953
0.0213691
-0.0181681
0.0166744
-0.0108171
0.0370227
-0.0205254
0.00195245
-0.000964294
0.0164628
0.0212552
0.0204207
-0.0238866
0.0161979
-0.0143671
-0.00834271
-0.0270812
-0.00259916
0.00339689
-0.00561936
-0.00123938
0.0323676
-0.0220715
-0.00795301
-0.00476728
-0.00763638
-0.0267439
0.0289257
-0.0102951
0.0278494
0.0229493
0.0400303
-0.0329057
0.0729528
0.00305094
0.0127579
0.0294455
0.0138247
-0.00500622
-0.0024926
-0.00162289
0.0228305
-0.00984127
0.0242904
0.00996949
0.0221886
-0.0127607
0.0139451
0.0210324
0.0150395
0.00342098
0.0296001
0.0107002
0.0328604
0.021064
0.00274068
-0.00671696
0.000547387
0.0119248
0.0183337
0.0194421
0.0175619
0.0152043
0.00170417
-0.00997241
0.00184296
-0.00978103
0.00890621
0.0183518
0.0256954
-0.00218711
0.0345155
-0.018658
0.0299106
0.0350114
0.0254305
-0.0125841
0.0210038
0.0370836
0.0276729
0.0246426
0.0131792
0.0318972
0.011115
-0.0180094
0.00949229
-0.02525
0.0268767
0.0216428
0.0341989
0.0233676
0.0121411
-0.0150836
0.023545
0.0201981
0.00598819
-0.019417
-0.00897903
0.0201544
0.00478852
-0.000461311
-0.0103288
0.0367595
0.0156669
0.00892065
0.0112186
0.0138902
0.00992462
0.0257249
0.0120162
-0.00937945
0.0026938
-0.012309
-0.00466032
0.0255522
-0.00445634
-0.0134635
0.0299745
0.0318389
0.0388053
-0.0221538
-0.0103339
-0.00621097
0.0182606
-0.0130198
0.0138627
-0.00579734
0.023176
-0.0231316
-0.00844927
0.0063873
0.0356987
0.0120159
0.0540288
0.0073083
0.037697
0.0178875
0.0269402
0.00609323
0.0131019
-0.0251154
0.0149375
-0.00568288
-0.00844927
-0.0229638
0.0102228
-0.000482198
-0.00260828
-0.0228084
0.00654212
0.0351118
-0.00759528
0.0246627
0.00803699
0.0361034
-0.00454088
0.0215289
-0.0143767
0.0139324
0.000553476
-0.0114981
-0.00417488
-0.00800074
-0.0240053
0.0403424
0.022151
-0.00101851
0.0130544
-0.00839356
0.0165922
0.0223315
0.0120238
-0.0236677
0.0198407
-0.0276936
0.0296198
0.0154986
0.00218536
0.0110109
-0.0108332
0.0136653
0.0153957
0.0284737
-0.000177217
-0.00206061
0.0261902
0.0111956
-0.00149703
0.0298591
-0.00180453
-0.00720383
-0.0045434
0.0199694
0.00293372
0.000266555
0.0160761
0.0233274
-0.00847515
0.0137437
-0.00165383
0.0131834
0.0141824
-0.00783336
-0.00912212
0.0109151
0.0341466
0.0372545
0.0265999
0.032616
0.0105274
0.0345878
0.000918823
-0.00676716
0.00335142
-0.0243645
0.00641881
-0.00123536
0.026213
0.0169643
-0.0084508
0.0216669
0.0239966
0.0202292
0.00920762
0.000184231
0.0260288
0.0130891
-0.00611714
-0.0264286
0.0193323
-0.0400585
0.0528403
0.00883692
0.041921
-0.026029
0.0252281
0.0212673
-0.00254893
0.00209375
0.00988352
-0.0176581
0.0158682
0.0291002
0.00802685
-0.0260791
0.0372108
0.0180267
-0.00974469
-0.00131166
0.0353954
0.0241386
-0.00447461
-0.0198788
0.003391
-0.00368794
-0.00717202
0.0382315
0.00589127
-0.00810056
-0.0352827
0.0333148
-0.0092987
-0.00999588
0.0280138
0.0169938
-0.000614007
-0.015857
-0.00952096
-0.00396411
0.00174999
0.0275822
0.0368628
0.0024873
0.0109978
-0.000217351
-0.00555086
0.00607946
0.00469103
-0.0251877
0.0121213
0.0371157
0.0264703
0.0254739
-0.0105028
0.00450927
0.022319
-0.015614
0.00186263
-0.00358663
0.0360119
0.0017156
0.0154219
-0.00318098
-0.0081859
0.0187454
-0.00572287
-0.0171059
0.0288009
-0.00820683
0.0192379
0.0172454
0.0213295
-0.025262
0.0332155
-0.0142727
0.00860632
0.018408
0.0255493
0.0086797
0.0130346
0.0194351
0.00694374
0.0257675
0.0144417
0.0322305
0.0102047
0.0316843
0.0373408
-0.0202884
0.0196474
0.0344673
-0.00954684
-0.00671093
0.0385876
-0.00566883
0.0237088
0.00766972
0.0137836
0.0257472
0.00131912
-0.0233721
0.0141587
0.00632844
-0.00205875
0.0247089
-0.00153509
0.0135248
0.0335793
0.0116414
0.0256467
0.0246024
-0.00960164
-0.0191419
0.0275343
-0.000170725
0.0170954
0.0142703
-0.0103061
0.0334553
0.0252814
0.023211
0.0121334
0.0365415
0.0369557
-0.01816
0.0158691
0.0390764
-0.00830838
0.0202131
0.0046073
0.045257
-0.0260645
0.0342886
0.0385784
-0.00730914
-0.018063
0.0210193
0.00565976
-0.0220024
-0.00312989
-0.00154458
0.013945
-0.00569895
0.0348017
0.0306703
0.00690746
0.0187434
-0.00282598
0.00218813
0.0184768
0.0165889
0.0331135
0.0112639
0.0279484
0.0240483
-0.0103597
-0.0113813
0.00634726
0.00570799
0.0142662
-0.0157375
0.000809329
-0.00664502
0.0233873
0.0340838
0.0340542
0.011808
-0.0101146
0.0329935
-0.00256567
0.0231929
0.0253696
0.0163218
0.0174447
0.0247691
0.0151247
-0.0251195
-0.00414123
-0.0116163
-0.00143919
0.0146392
0.018731
0.0227953
0.0283076
0.0250923
-0.00412932
0.0260344
-0.00169257
-0.00543993
0.0159787
0.0291985
0.0210327
0.0347504
0.0354867
-0.00617081
0.0103509
0.0270541
0.00306676
-0.0256548
-0.00192912
0.0158738
-0.00192777
-0.0137928
0.0101393
-0.0103653
0.021057
-0.00521705
0.0200356
0.00542889
0.019241
0.0269999
0.0247683
-0.000578775
0.0212199
-0.00579611
-0.00143579
-0.00904013
0.0387917
-0.0118187
-0.0102802
0.00715301
-0.00412008
0.00229655
0.0107938
0.0258534
0.0254899
-0.0049687
0.0145418
0.0113877
0.0175459
0.0172254
0.0166485
0.0449454
0.0116505
0.0218536
0.00829121
0.00247698
0.00228852
0.0154484
0.00882401
0.0433265
0.0243645
-0.0110561
0.020471
-0.00547406
0.00189156
-0.0144916
0.00187786
0.0354813
-0.00450353
0.012551
-0.000361413
0.020179
0.00584644
-0.0122086
0.00284907
0.0187935
0.0363514
0.0127628
0.00309455
0.00478332
-0.00937008
0.0221688
0.0130133
-0.0222743
0.0367928
0.0271525
0.0171098
-0.0125519
0.00723475
0.0354431
0.0109217
0.0344091
0.0333449
-0.00619089
0.0254305
-0.00935134
-0.00563154
0.00282664
0.0165191
-0.00906621
-0.0014468
-0.000347866
0.0191055
0.0284516
0.0369618
0.017635
0.0367685
0.00503936
0.000180518
0.00239811
-0.00372695
0.0159202
0.00962168
-0.00555839
-0.00740651
0.0239197
-0.00748415
0.0298072
0.0330312
0.0190506
-0.00140874
-0.0273924
0.0261491
0.0157817
0.0379254
0.0316502
0.0248521
-0.00300232
-0.00981171
0.0332626
-0.00870806
0.0122638
0.010873
-0.0246429
-0.00730905
0.0115333
-0.0105545
0.0271404
0.0227376
0.0274677
0.0314618
-0.0171073
0.00764982
0.00151556
0.00761387
0.0343569
-0.010888
-0.00913769
0.0325126
0.00562567
0.0325046
0.0202955
0.00764729
-0.00732691
7.24433e-005
-0.0164192
0.00489197
0.0359687
-0.0121073
-0.0245171
0.0385632
0.0301202
-0.0050074
-0.0180898
0.0175983
-0.0171521
0.00593168
-0.0182845
0.00804308
-0.0134274
-0.00903231
-0.0170336
0.0280093
-0.0144856
0.0320738
-0.00321717
-0.00719948
0.0174613
0.00119979
0.000375019
0.00748263
-0.0194973
0.0102656
0.00810142
0.00839929
0.0367041
-0.00294472
-0.00801608
0.0230101
-0.0206137
0.0242721
-0.0276775
-0.00302844
-0.0183448
0.0169149
0.00460565
0.0286654
-0.0173027
-0.0103171
0.0263292
-0.00422952
0.0327425
-0.00805957
0.0172133
0.0201345
-0.0249588
0.0141931
-0.0172685
0.0375966
0.0378125
0.0197585
0.0344071
-0.00428128
-0.00016913
-0.0179152
0.0200274
0.0289073
-0.0239016
0.00400117
0.0149865
0.0142555
0.0112659
0.0211788
-0.0135639
0.0299761
-0.0231236
0.0167368
0.0130429
0.0238352
0.0159162
0.0200082
-0.00579533
0.013161
0.00516998
-0.0034204
-0.00282209
0.0209813
-0.0210635
0.001922
-0.0076406
0.02396
-0.0180215
0.0231243
0.0137216
-0.00829248
0.0226034
-0.0059329
0.0452572
0.0113537
-0.0122578
0.0261348
0.0121915
0.0331013
-0.00888349
0.00635944
0.0469592
-0.0078788
0.0177015
0.00916721
0.0306242
0.00766251
-0.00917464
0.0185909
0.0143139
0.0287567
-0.00955182
-0.00632372
-0.0193359
0.0214019
0.0294054
0.0342445
0.0194481
0.0283838
0.0208376
0.031786
0.0200164
0.0168388
0.0361243
-0.00379624
0.0189715
0.000882765
0.0266043
0.0153546
-0.00540178
0.0171098
-0.0149313
-0.00848276
0.0231246
0.0193673
0.0370113
-0.0101192
0.00717979
0.00695161
0.0151974
0.00219754
0.0367483
0.0188984
0.0180908
0.00242283
-0.00893369
0.0158859
0.0291222
-0.00418081
0.0104908
0.0353908
0.0347042
0.0311406
-0.00406852
0.0145219
0.00975193
0.0153409
0.0213376
0.0303353
0.0277127
-0.00671844
0.0255071
0.0347351
-0.00143063
0.0283068
0.00822551
-0.0112528
-0.00585958
0.033762
0.0097459
0.0313583
0.0014713
0.0328075
0.0301041
0.0175969
-0.0218164
-0.0030802
-0.00405848
0.000379936
0.0114329
0.0159907
-0.00372116
0.0372936
0.00463978
0.0268523
0.00129862
0.0107817
-0.00381553
-0.00074046
-0.0120078
0.0220039
0.0205705
0.00176673
0.0196517
-0.00587753
0.0366132
0.0223455
-0.0108239
0.0282636
-0.023228
-0.00286251
0.0408105
-0.00125266
-0.00426731
0.0180688
-0.0113743
0.00547217
-0.0167344
0.0318165
-9.28609e-005
0.0244517
0.0236306
0.0200965
0.0261144
0.0342019
0.0173958
-0.0128612
0.0157676
0.014496
-0.0267037
0.00837342
0.0365254
0.0130422
0.00869629
-0.00223092
0.0172545
0.0149155
0.0199601
-0.00625719
-0.00525721
0.0372373
-0.0144996
-0.00911146
0.0258875
0.00866113
-0.019676
0.0106066
0.0280801
0.016166
-0.0148992
0.0297721
-0.00350832
0.0155296
0.0314313
0.0282635
0.0362082
0.0340223
-0.0224771
0.0315531
0.0045936
0.017396
-0.00974288
-0.0067976
-0.0155879
0.0320083
0.0168077
0.0301709
0.0189522
0.000558043
-0.0167706
0.00231627
0.0119378
0.0132635
-0.00884593
-0.00537607
0.0357664
-0.00510026
0.00732432
0.00551444
0.0022569
0.0143494
0.0362001
0.0334697
0.0306201
0.0335458
0.0145026
0.00626354
-0.0187223
0.00256745
-0.0159614
0.0035007
-0.0155638
-0.00593599
0.0324955
-0.000644556
-0.00339788
0.0154885
-0.00638164
0.0356968
-0.0165437
0.0195393
-0.00687157
-0.000763294
0.0221146
0.002024
-0.00107013
0.0159517
-0.00152852
0.0230634
-9.05475e-005
-0.00780369
-0.00447814
0.00351735
0.0384065
-0.0125306
0.00124039
0.0215152
0.0245147
0.00361673
0.0319313
0.0132127
0.0264879
-0.00233733
0.0233515
0.0017028
0.021705
0.01788
-0.00662459
0.00763207
-0.0185924
-0.0172971
0.0259136
0.0172011
-3.40061e-005
0.012601
-0.00547492
-0.00176031
-0.0252399
0.02085
-0.0251355
0.0170732
-0.00640975
-0.0108743
0.0201007
0.0298923
0.0130449
0.030862
-0.00970674
0.00507464
0.0208898
0.0105351
-0.0174874
-0.00252
-0.00768477
0.0211271
-0.0223746
0.0304845
0.0132216
0.0351503
-0.020688
0.0104939
0.0345577
-0.00425083
-0.00921681
0.0106036
0.00818375
0.0376666
0.00396513
0.0270929
0.00334468
0.00411713
0.0170713
0.0239616
0.00148736
-0.00548083
0.018398
0.0335275
0.021199
0.0117209
-0.000474364
-0.00728778
0.00787051
-0.00525554
-0.0195119
-0.0144909
0.00824599
0.00166017
0.0174195
0.00354084
-0.00308241
0.0328209
-0.0225092
0.0339279
0.018661
0.00758488
0.0371077
-0.000335534
-0.020937
0.0324376
-0.00816667
-0.000819618
-0.00685149
0.0281493
0.00861545
0.0114134
0.0122513
0.000834381
0.0227451
0.00323116
-0.0197583
0.0225321
0.0217384
0.017042
0.0356996
0.00376078
0.0494472
-0.017556
0.0368366
0.0368963
-0.0181908
0.0114296
0.037429
0.0379117
0.0295037
-0.00418385
0.0053546
0.0128443
-0.0194391
0.0170306
-0.00619089
0.0218395
0.0221488
0.0260273
0.0312299
0.0129273
-0.00557838
0.00699867
0.0080713
0.0320037
0.0181912
0.0353695
-0.0141322
0.00777668
0.013579
0.0282026
0.00557748
0.0115474
0.0208115
0.0222535
0.00980012
-0.00468011
-0.0176581
0.0378493
-0.00631136
0.0226509
-0.00194616
0.021363
-0.0237862
0.0160229
0.0171973
0.0283244
0.00752716
0.0206932
-0.01308
0.0165511
0.00887447
0.00136333
0.00710148
0.0240011
0.000586676
0.00485087
0.0127277
0.0272769
0.0371238
0.0319611
0.0157295
0.00729869
-0.0076928
0.0239006
-0.00994367
0.0205745
0.0253976
0.0150973
-0.0215474
0.00927765
-0.00321516
0.00462252
0.032448
-0.0148156
0.0123766
-0.00802622
-0.000303692
0.0319002
-0.0226256
-0.0107373
-0.00595998
0.0371125
0.0339312
0.027341
0.000579789
0.00146228
-0.0227923
-0.00395094
0.0150769
0.0130362
0.0377637
0.0303136
0.0334624
0.00265271
-0.0196881
0.0342278
0.0296423
0.0164461
0.0194542
0.00524057
0.0309023
-0.0412011
-0.0192564
-0.00329789
0.0176711
0.00510509
0.0443888
0.0244473
0.0295319
0.00897015
-0.00584151
0.0327786
-0.0274707
0.0122187
0.0184703
-0.00173451
0.00488676
0.0260958
0.011802
0.00434242
0.0252174
-0.028065
-0.00978097
0.002628
-0.00563269
0.0366284
0.0285279
0.0207191
-0.0208527
0.0380365
0.028548
-0.00520226
-0.0270149
0.0313431
0.0132417
0.00708405
0.0182655
0.00327074
0.00226443
0.0127972
-0.00360068
0.0233572
0.0191489
0.0023863
0.0014954
0.0238169
-0.0163549
0.0281356
-0.0198607
0.00156275
-0.0267198
-0.0103643
-0.00366493
-0.00453702
-0.00183933
-0.0187447
0.0185713
0.00660801
0.000565734
0.00676741
0.0256265
0.0215472
-0.00738359
0.0330769
0.023227
-0.0109397
0.0324172
-0.0105926
0.031841
-0.00461313
0.0298491
0.00893818
-0.0271009
0.0219691
0.0146068
-0.0060526
-0.0131528
0.00301951
-0.0125391
-0.00119214
0.00364587
0.0138993
-0.00180561
0.00299216
-0.0241577
0.0128976
-0.00515079
0.0234211
-0.00910838
0.025665
0.026787
0.0111872
-0.0187704
0.0107832
0.018145
-0.00987413
0.0316181
0.0202396
-0.0215313
-0.00760441
0.0136332
-0.00401792
0.0305427
0.00271864
0.02031
0.0300319
0.0149163
-0.00104339
0.0347546
0.0132327
-0.0162947
0.0239265
0.00674006
0.0322351
0.0277689
-0.00896533
-0.0178609
0.0365264
0.0359391
0.0236723
0.0209953
-0.0263187
0.0361399
-0.00215009
0.00178067
0.00467634
-0.0133485
0.000501138
-0.0119134
0.0106096
-0.00896783
0.0102154
0.003172
0.0273775
0.0120731
0.00296324
-0.0233083
0.0230208
-0.0156903
0.00411865
0.0124666
0.0167764
-0.0275109
0.0198788
-0.0278502
0.00855
0.00528834
-0.00452484
-0.00178553
0.0177491
-0.00433357
0.0274734
0.0110852
0.0111394
0.0406728
0.0164294
0.00298631
0.015866
-0.00105465
-0.00973408
-0.000241446
0.0282863
0.0144183
0.0323569
-0.00730126
0.019929
-0.0105079
0.0238641
0.0114346
0.0330663
0.0249418
-0.00845993
0.0223529
0.00240152
-0.018965
0.0350591
-0.000191249
0.0273273
0.00767374
0.00346407
0.029355
0.00951364
-0.0119324
-0.0112309
-0.0187664
0.0262937
0.0239378
0.00133745
-0.0225011
0.0181084
0.0138258
0.0244615
0.0291675
0.0245598
-0.00500823
-0.00624654
-0.00703822
0.0115443
0.00929011
0.0100464
0.00532448
-0.00729082
-0.0113395
0.0195802
0.033128
0.00247916
0.01689
0.0224132
-0.0221337
0.00625136
-0.0106205
-0.0136903
0.0183859
-0.00318219
0.0229479
-0.00644596
0.0278332
0.00483869
0.00975996
0.0227681
0.0214558
0.0140982
0.0120006
0.0039607
0.0188919
0.0329749
0.0127618
0.0241868
0.0364647
-0.00710687
-0.0238921
-0.00641087
0.0248835
0.0125429
0.0108061
0.0176456
0.0360094
-0.0039479
0.0222953
0.00712363
-0.0225353
-0.00448983
0.010274
0.00519794
0.0151893
0.036193
0.0248635
0.0302927
-0.0200756
-0.00109211
-0.000444245
0.0360332
0.0148621
0.023791
0.0104783
0.00558838
0.0402356
0.0154789
0.0182072
-0.000644556
0.0296061
0.0329384
0.0139163
-0.00245302
-0.00935535
0.036362
0.0369009
-0.00288078
-0.0230252
0.0198681
0.0248333
0.00647514
-0.0106139
0.0281343
-0.0228049
-0.000267332
0.00718582
0.0164521
0.011535
0.0199686
-0.0188749
-0.00638963
0.00291901
0.0317967
0.0353132
-0.000337207
-0.0120304
0.0335354
0.000222381
0.0367441
0.0302244
-0.0101586
-0.0138451
0.0279818
-0.0278241
0.0343541
0.00613568
-0.00918301
0.0327766
-0.00992284
0.01738
0.0187005
-0.0119114
0.0103128
0.00263893
0.00142311
0.0341521
-0.000551698
0.012339
0.0146758
0.0375253
0.000590011
0.0361155
-0.00435885
0.0314896
-0.00396312
0.00493495
0.0189517
-0.0226758
0.0324756
0.00935838
0.0139099
0.0118664
-0.00457454
-0.022979
0.00202552
-0.0145277
0.00765338
0.0289014
0.0348245
-0.0217843
0.00510356
0.00973326
-0.00757324
-0.0121332
0.0105881
0.00891864
0.0205455
0.00505542
0.0179607
0.034138
0.0182911
-0.00502831
0.0304312
-0.0245653
-0.010757
0.0331782
0.00982719
0.0255522
0.0200691
0.0347946
0.0361215
0.0194381
0.0170885
0.0329619
0.00928521
-0.0155176
0.0323082
0.0292146
0.0357303
0.00209375
0.0108578
-0.0133631
-0.00377284
0.0159383
0.00888186
-0.00964851
-0.0098178
-0.00808234
0.0105396
-0.0207944
0.0143742
0.0119832
-0.00589433
0.0081092
0.0383791
-0.0135639
0.024298
0.023743
-8.58806e-005
0.00490282
0.0231715
-0.0126082
0.00014855
0.0368346
-0.0056361
-0.014839
-0.0101588
-0.000995053
-0.00217329
-0.0148032
0.00474151
-0.0117462
-0.00627614
-0.0238645
0.0125597
-0.00544194
0.0285086
0.0161552
0.0211864
0.00470002
0.00459817
-0.0178709
-0.00701224
0.0162139
-9.55951e-005
-0.0261013
0.0234805
0.0165447
0.0284675
0.0292606
0.0249362
0.00462171
0.000308389
0.0302925
-0.00645849
-0.0075785
0.0189139
-0.018156
0.00491176
0.0178438
0.00914521
0.031398
0.0165112
0.026765
-0.0090795
-0.0015506
-0.00121998
-0.0180456
0.0298254
-0.023732
0.0169758
0.0320538
-9.50142e-005
-0.0243906
0.00330728
0.0291641
0.0115936
0.0234495
-9.25216e-005
0.00582646
0.000885333
-0.0209832
-0.00835489
-0.0267398
0.0310919
-0.0105059
0.0206171
-0.018662
0.0267534
-0.0245793
0.0185696
0.013834
-0.00121541
0.0402722
-0.0274278
0.0241747
-0.00677781
-0.0242159
-0.00535448
0.0346239
-0.00342728
0.0172675
0.00581447
-0.0214209
0.0263835
-0.0107147
-0.00960468
-0.0128833
0.00951056
-0.018144
0.0225976
0.0110351
0.0233093
-0.0144795
0.022931
0.00945877
0.00339405
0.00318204
0.0338244
-0.0191781
-0.00793779
-0.00344406
0.0234196
0.0288612
0.0309549
-0.00995371
0.0296686
-0.00453637
0.023855
0.0303237
0.0352766
0.0349745
0.0140731
-0.00637735
0.0332063
-0.00233369
-0.0029569
-0.0109476
-0.00559653
0.00374426
-0.00789212
-0.00847589
0.0362494
0.0147741
0.00436948
0.00667339
-0.022591
0.0329855
0.0124135
0.0377362
0.020713
0.000798652
0.00127504
0.020459
-0.00571312
-0.00445605
0.0219765
-0.00288366
0.00702588
0.00920778
-0.0107966
0.0243607
-0.00399954
0.00308788
-0.010859
-0.0155076
0.0273806
0.0309213
0.0072789
0.00866163
0.000924912
0.0192915
0.00687702
0.0194863
0.0263195
0.0320156
0.0104909
-0.021206
-0.00415341
-0.0146636
0.00638048
0.0326556
0.0327129
-0.0243203
0.0165054
-0.0087329
0.00363457
-0.00340993
-0.00426758
0.010266
0.00683896
-0.0120058
0.0279195
0.0207446
0.000218195
-0.0207
-0.00708684
-0.0161321
0.0184341
0.00556342
0.0355689
0.0181229
-0.00912212
-0.00586962
0.0067735
0.00516787
-0.00659666
0.0235382
0.00314135
0.0196951
0.0388235
0.0106345
0.011669
0.0217311
0.0020925
0.0228716
0.032602
0.0364511
-0.009285
0.0016239
0.0337802
0.0144163
-0.00451419
0.0374089
0.0120923
-0.00892566
0.00779647
-0.0220012
0.0142174
0.0137434
0.0189814
0.0327763
-0.00657239
-0.0104999
-0.00961534
-0.0213229
-0.00666394
-0.0112589
0.00824402
-0.0149554
0.00180783
0.0199642
0.0129768
0.0330966
0.0253863
0.0295876
-0.00328401
-0.0177926
0.0272649
-0.0107649
-0.00758005
-0.00122532
0.0259435
-0.00791769
0.0187447
-0.00623509
-0.0169428
0.0302647
0.035712
0.0168437
0.0255191
-0.00138596
0.00888186
0.0181753
0.00839689
0.0285058
0.0208881
0.0188759
0.0122689
-0.0204611
0.0122035
0.0334272
0.00250504
0.011806
0.00717234
0.0302266
-0.00146659
-0.00442392
-0.00864717
0.00810343
0.0109324
0.0221548
0.027857
-0.00209954
0.0143812
0.0374809
0.025558
-0.025248
0.0175588
-0.00433959
0.0141154
-0.0168002
-0.0156031
0.0415053
0.0258263
0.0157977
0.00579011
-0.0202683
-0.000603455
0.0162555
0.0126297
0.0218516
0.0167916
0.00800504
0.0339888
0.0294857
0.00583273
0.0266706
-0.0036267
0.033381
0.0142022
-0.0218071
0.0267893
-0.019176
0.011695
0.0144685
0.0195819
0.0101595
-0.00466641
0.00188092
-0.00340749
0.0212452
-8.89251e-005
0.00633245
0.0147441
-0.0168669
0.0279377
-0.00958225
-0.00288687
0.0187915
0.0377656
0.00190698
0.0376005
-0.00247224
0.00389792
-0.00311477
0.00809788
-0.0222702
0.0385876
-0.0108203
0.00844343
-0.0195214
-0.00984825
0.0157355
0.00105887
-0.0118729
-0.0154782
0.0359993
-0.0106794
0.0116635
0.0122111
-0.0167224
0.0360971
-0.0201238
-0.00454768
0.0325317
0.00506703
0.0183268
0.00534031
-0.0154293
-0.0091343
-0.00328371
-0.00991453
0.0327567
0.0110196
0.0241295
0.0202394
0.00798697
0.0190552
0.0265059
0.0306276
0.0155749
0.0123131
-0.0155277
-0.00499066
0.0369571
-0.00746436
-0.0107087
0.00855609
-0.0101726
-0.000652168
-0.0253323
-0.00873546
0.0183558
0.0221911
0.00965153
-0.00158837
0.0208977
0.0104959
-0.0150899
0.0185994
0.0405888
0.00579728
0.0285235
0.00694775
0.0218636
0.0366619
-0.022467
0.00443528
0.0348388
-0.00570613
0.0188598
0.00222646
-0.00645392
0.0384293
0.0305378
0.025085
0.0063184
-0.00705791
0.00385035
0.0270679
0.0221171
0.0283479
5.52672e-006
0.0149268
-0.00524918
0.0233785
-0.0124596
0.00178804
0.0059389
0.00822271
0.0043647
0.0173351
-0.0273061
0.019617
0.015617
0.01412
0.0249779
0.0181343
-0.0138691
0.0330891
-0.00661112
-0.00619978
-0.00272322
0.018871
0.00364386
0.0118366
0.00721192
-0.00281076
0.00627422
0.0267412
0.00499719
0.0049285
0.0412682
0.00374743
0.0381279
0.0171611
-0.0169031
-0.00874916
-0.0100421
-0.00609888
-0.00582745
0.00256897
0.0121012
0.00885598
-2.2584e-005
0.00378375
0.032106
0.0200432
0.0159004
0.0254085
0.00243711
0.0248262
-0.0278703
0.0102961
0.0233109
-0.0352071
0.0190907
0.00591037
0.0353668
-0.00195524
-0.0267037
0.0014912
-0.0195716
0.0329673
0.0151833
-0.00287622
0.0262128
0.0285558
-0.0261656
0.00989874
0.029578
0.00827751
-0.00224534
0.0260151
-0.0196178
0.0177324
-0.0181641
0.0383638
-0.00734945
0.0262617
0.0381126
0.00970969
0.0271399
-0.0027017
-0.00495201
0.0197129
0.0267389
0.0267778
0.0316141
0.00205444
0.00765767
0.0348717
0.0268433
0.00712515
-0.014588
-0.0022125
0.0318349
0.0330054
0.00879784
0.0353082
0.0115007
-0.0075958
-0.0104617
0.0238854
-0.0152325
0.01398
-0.0161843
0.0363818
0.0305358
0.0301313
0.01941
0.0168129
-0.0232722
-0.00251848
-0.00935736
0.00125372
-0.0045183
0.0304799
-0.0243464
0.0258598
-0.011617
-0.0104826
-0.0167264
0.0353923
0.00880821
0.0166698
0.011545
0.0307326
-0.0230533
0.0306124
0.0169081
0.0204603
-0.01612
0.00120806
0.0282033
-0.000792419
0.0154771
-0.00303897
0.000385022
0.0275952
-0.0192303
0.0183626
-0.0265772
0.0209368
0.00948086
0.00546434
-0.0167364
0.0136405
0.0265883
0.0339385
0.0437052
0.0225084
-0.0242661
0.0150212
-0.00609017
-0.00781245
0.0211816
0.0179694
-0.0110023
0.00539936
0.0236949
0.00759097
-0.00265897
0.0181358
-0.0220955
0.00643556
0.00286479
0.00117152
0.0055313
0.0132858
-0.0227782
0.0243178
-0.0181861
0.0251854
-0.0190395
0.0133117
-0.0175577
-0.0079043
0.0250341
-0.00538797
-0.000213306
-0.00247486
0.00383397
-0.0146441
-0.0134866
0.0285523
0.0286491
-0.0133917
-0.0252901
0.00350213
-0.0276534
0.00486761
0.0347846
-0.0106155
-0.0025907
0.0328258
-0.0104497
0.0278038
0.0300423
-0.00282841
0.00245202
0.0342086
0.0280058
0.0298725
0.0409732
-0.000652104
-0.027031
0.0138277
0.0307507
0.0116524
-0.0165818
0.00867939
-0.0075141
-0.00167818
-0.0235473
0.00220819
0.00833233
0.00796545
-0.00558086
-0.00108714
0.031751
-0.00921558
0.0320859
0.035715
0.0230222
0.00922589
0.03364
-0.0104769
0.00308767
0.0137866
-0.00848593
0.0131488
-0.0261676
0.0387718
-0.0235616
0.0115691
0.0115953
-0.015162
0.0179004
0.0315797
-0.0189869
0.0233829
0.0240101
-0.00903078
0.0274175
0.00584339
0.0353648
0.0289668
0.00346114
0.00830948
0.0234117
0.0355263
0.0401121
-0.0158537
0.034136
0.0147046
0.0330534
-0.0127389
0.0259256
0.0330145
-0.00467907
-0.0154806
-0.0223164
0.0047032
-0.0188909
0.00139834
-0.00601821
0.0324558
-0.0124054
0.0215122
-0.0265732
-0.00431781
-0.000424166
0.00657561
0.0183859
-0.00336639
0.0301162
-0.000521252
0.0336943
0.00733827
0.00997254
0.00608159
0.0300601
0.0146964
0.00153756
0.0238078
-0.0196218
-8.13137e-005
0.0104702
0.0331356
-0.00189673
0.0240087
0.0325678
0.0366939
0.0157556
0.0225032
0.0373246
0.00402427
-0.0169429
0.0376999
0.0151143
0.0309275
-0.0143631
-0.00658753
0.0197152
0.0297036
0.00466388
0.00133136
-0.0155485
0.0302384
0.0337728
0.00847397
0.0045916
0.00793652
-0.00643786
0.0265677
0.0333429
0.0265768
0.00700825
-0.00510863
-0.00532275
-0.00190729
-0.00381151
0.0133315
0.0108884
0.0344774
0.00325834
0.0127835
-0.0230895
0.0366254
-0.00646597
0.0182956
0.0317245
0.0121228
-0.00611559
0.0256537
-0.00643316
0.0188267
-0.00988143
0.000981236
-0.0192283
-0.000688702
0.0346421
-0.0016182
0.00844277
0.0370577
-0.019682
9.52705e-005
-0.00291799
0.0127835
-0.013586
-0.00158837
-0.00680129
0.00984546
-0.00288136
-0.0214245
-0.0183408
0.018358
0.0471442
0.00106811
-0.0182122
-0.00278792
-0.00831218
0.0217424
0.0369279
0.0303648
-0.00696393
0.00838559
-0.00706834
0.00586318
0.0169824
0.0117696
-0.0204792
0.0146909
0.022201
0.0123298
-0.0219068
0.00220515
-0.00839557
0.0387383
0.0186462
0.0108664
0.00314297
-0.00910084
-0.016873
-0.0064079
0.0322004
-0.00898055
-0.0112227
0.000720927
0.0191249
0.0215046
-0.009211
-0.0114125
0.0263773
-0.00975595
0.00653324
-0.00132958
0.0046489
0.0139642
0.025017
0.00354263
0.030847
0.0202609
-0.0181741
0.0345505
0.0139083
0.0342095
0.0245281
0.0126069
0.00642482
0.00318854
-0.00265549
0.0057458
-0.0238954
0.0011058
0.0208476
0.0292926
0.0243934
0.00747595
-0.0024364
0.0267275
-0.0155739
0.00879509
0.020673
0.0316825
-0.000347866
0.0123481
-0.0184291
-0.00940374
0.0348247
0.0359464
0.0176029
0.0337437
0.0122618
0.0332916
-0.0107271
-0.0235925
0.00737456
0.028026
0.0140509
0.0356374
-0.0270551
0.0238139
0.0309715
-0.00956358
0.0111188
0.0194836
-0.0144836
0.00521317
0.0276906
0.00826381
0.0183177
0.0244624
0.0362102
0.00602454
-0.00690184
-0.0228983
-0.0158883
-0.00899426
-0.013874
0.0167277
0.0319353
0.00693334
-0.00948788
0.0135735
-0.016385
0.0171664
0.00616379
0.0172224
0.00807532
-0.00620848
0.0288572
-0.00341662
0.00587063
0.00183828
0.00416391
-0.00705639
0.0344733
0.0113647
-0.0233988
0.00992734
0.0194892
0.0167209
-0.00921681
0.00487674
0.0164965
0.0358079
0.00555138
-0.0039205
0.000115962
0.0329445
0.00562768
0.00913151
0.0108964
0.00448704
-0.0161018
0.0150566
-0.0212447
-0.00294831
0.0295547
0.00168725
0.0235443
0.0266073
-0.0277378
0.0280519
-0.00831526
0.00839321
-0.0218144
0.0341897
0.0127758
0.0264429
0.0285962
0.0182104
-0.0249267
0.0324284
0.033967
0.00722931
0.0342454
0.0142095
0.029605
0.0355201
-0.0055343
0.0290962
-0.014845
0.0192014
-0.0109918
0.00172867
-0.0157967
0.0283168
0.0257831
0.0229507
-0.00622502
0.033937
-0.00242204
0.017367
0.0414666
0.00172717
-0.0165899
0.0351137
0.00259372
0.0139389
0.0243233
-0.00515811
0.0236366
0.0204329
0.0237089
-0.00849494
-0.0179163
0.0177598
0.00210318
0.00145731
0.0182855
0.00351126
0.00144921
0.011418
0.0290392
0.0189995
-0.00874494
0.0080805
0.0158511
0.0204495
-0.012829
0.0289181
0.027787
0.0320509
0.00761752
0.00193723
0.0108983
0.0203442
0.00781269
-0.0131196
-0.0190435
0.0143301
0.0237069
0.0323143
-0.023726
-0.00707009
0.0312587
0.00593168
-0.00322292
-0.0147877
0.0323701
0.00638771
0.0223857
0.00240152
0.0278332
0.0268797
0.0252068
0.0206445
0.0221709
0.0140317
0.00987842
-0.010585
0.0141754
0.0283777
-0.0166621
-0.00327962
0.00201228
0.0114993
0.00248854
-0.00919279
-0.0201345
0.0123571
-0.000159122
0.0005961
0.033365
0.000527597
-0.0102188
0.012584
-0.0268684
-0.00553107
0.0109306
0.0177689
0.016888
0.0208804
-0.0237541
-0.00749481
-0.0152997
-0.00690463
-5.43901e-005
-0.011861
-0.00813908
-0.000299982
-0.022983
-0.00623284
0.033883
0.00010136
0.0266626
0.0112581
-0.00481145
0.0226996
-0.0171199
-0.00689807
-0.00410467
0.00762598
0.0120588
0.00122887
0.0120008
0.00588449
-0.0114556
0.0144245
-0.00872085
-0.00409708
0.0305639
0.0223312
-0.026284
-0.010072
0.0309434
-0.00814177
0.0116333
-0.0025063
0.00652227
-0.00334961
-0.0160781
0.0314948
-0.0274306
0.0130955
0.0168004
-0.0203859
-0.0193648
-0.00781905
0.0162016
-0.00821067
0.0167876
-0.00463445
-0.00951599
0.0375737
-0.0270912
0.00523296
-0.013833
0.000462139
-0.0118849
-0.0196986
-0.000576767
0.0194054
0.0313691
0.0136953
0.00705329
0.0290155
0.0315825
0.019154
0.0347265
-0.0159621
0.0308129
-0.000656735
0.0241246
0.012138
0.0144745
0.0190613
0.000330808
0.0264048
-0.0172926
0.0383912
-0.011044
0.0328745
-0.0148289
0.0298421
-0.00806408
0.000641229
0.0282548
0.017979
-0.0155297
0.0314268
-0.00330269
-0.0093446
0.0151994
-0.0103605
-0.0208848
0.0323067
-0.0266896
0.0282589
0.0211589
0.0296609
-0.0247058
0.0236556
-0.0151401
0.011832
0.0161823
0.0292497
0.00826464
-0.00885732
-0.023983
-0.00979192
0.0256993
0.0299704
0.034963
0.00518472
-0.013323
0.0342856
-0.00336977
0.0100723
-0.00251842
0.00534561
0.0375755
-0.0083762
0.0222732
0.00932981
0.0127558
0.0212047
0.0225644
0.00169823
-0.00586761
0.0227407
0.0223737
-0.00649315
-0.0240111
0.0224256
0.018149
0.00318702
-0.0136342
0.0261597
0.0068766
0.0162832
0.00230057
-0.00586749
0.0227113
0.0286541
0.0245181
0.00138312
0.0153482
-0.00929516
-0.0235232
-0.000198529
0.0366655
-0.0191729
-0.0191781
0.018629
0.0243796
0.0141916
0.0201589
0.0194008
0.0329072
0.0277825
-0.00416089
-0.0070092
-0.000513844
0.00609257
-0.0188568
0.0134913
0.0064971
0.0189167
0.0512399
0.0170077
0.0199862
-0.0101679
-0.0163489
0.0185103
-0.0113311
0.00359042
-0.00415486
0.00531212
-0.0159955
-0.00751307
-0.000110932
0.0238215
-0.0147225
0.00336961
-0.0179103
-0.00406976
-0.0106806
0.0233039
0.0219942
0.0295818
-0.0014743
-0.000200051
-0.0274004
0.0146239
-0.0218185
0.00726824
-0.0162526
0.0285341
0.0102836
0.0350094
0.00741271
-0.00276204
0.00729224
0.0143681
-0.00633509
0.0141386
0.0202351
0.00926546
-0.0270189
0.0218532
0.00645895
0.0103752
-0.0260913
0.00673697
-0.0111524
0.0208683
0.0119377
-0.00456511
0.00605135
0.037863
-0.0248363
0.0125932
0.0372926
-0.0300735
-0.013568
0.00892905
-0.0220875
0.0293428
-0.00718882
-0.000165039
0.00340291
0.0202837
-0.000805669
0.0282757
0.0134706
0.000758983
-0.00101851
0.00163429
-0.0219269
0.0181754
-0.0139294
-0.00509874
-0.0162887
0.0267275
-0.0239598
-0.0130234
0.0124112
0.0235707
0.0442998
-0.0030864
-0.00309067
-0.00242714
0.0129774
-0.0161851
0.00615576
0.0010878
0.0356178
-0.00771097
0.009264
0.00609761
0.0149062
0.0344957
0.0206067
0.0112033
-0.0105661
-0.000196683
0.0427215
0.00651406
0.0302921
0.000782358
-0.0193527
0.0264139
0.00153154
0.0133223
-0.0246617
0.0182728
0.0372663
-0.00182889
0.00659951
0.031235
-0.026278
-0.00936873
0.034407
-0.000410831
0.00183351
-0.00852621
0.0187715
0.0223905
-0.0110942
0.0262891
-0.0234228
0.0179181
0.00682841
-0.00942505
0.0101515
0.0370714
0.0132718
-0.0107129
0.0246747
-0.00951791
0.0258026
0.0328998
-8.49042e-005
0.010339
-0.00942716
0.0117457
-0.00636758
0.019416
-0.0161321
0.00710536
-0.0142667
0.0278281
-0.00376935
0.00697597
0.0118402
-0.000818096
0.0307707
0.0103432
-0.00633345
0.023581
-0.0115289
0.0052227
0.0124029
-0.0161486
0.0308531
0.0381887
-0.0267278
0.00777973
-0.01002
-0.00199482
0.0141834
0.00416584
0.0303671
0.0300704
-0.012323
-0.0109778
-0.0187223
0.0195348
0.00358965
0.0224697
-0.00962843
0.0256437
0.00768579
-0.0073989
0.0167917
0.019276
-0.0268945
0.00934311
0.00599187
-0.0246192
-0.0211418
0.00768839
0.0141874
0.0202243
0.0342689
-0.0122974
-0.0131724
0.0185468
0.0284074
0.0156012
0.0291604
0.0369801
-0.00846986
0.000407337
0.0224138
0.00108627
0.0223636
-0.000661302
0.0361983
-0.0132301
-0.00675215
0.0203651
0.00699506
0.0298345
-0.0136904
0.0341958
0.0167214
0.0326096
-0.0197322
0.000947746
0.0151432
0.0172163
0.00838531
0.010495
0.031642
0.0300862
-0.000375976
0.0372921
0.00693683
-0.00735171
0.0164162
0.0359008
-0.0184291
0.00918631
0.0281123
0.0288085
0.0163539
0.0232339
0.0301362
0.021089
0.0136131
0.00941161
0.0174389
-0.00730329
0.0216091
0.0135647
0.0215884
-0.0102718
-0.0206057
-0.00250326
-0.0176099
0.00255375
0.00491888
0.00016834
0.0344191
0.000701137
-0.0254949
-0.00916474
-0.0203386
0.00185959
-0.000743498
-0.0146455
0.0351785
0.013866
0.0330878
0.00597725
0.0164523
-0.0028823
-0.00109682
-0.0104495
-0.0098754
0.0144366
0.00382457
0.0272877
-0.0232099
0.033284
-0.0195415
0.000673736
-0.0108231
-0.001666
0.0218355
0.00942835
0.0128361
0.00062959
0.0308912
-0.000119371
-0.0027413
0.029699
-0.0141101
-0.00939004
0.0412299
-0.00586105
0.0219279
0.0179988
0.00366595
0.0294174
0.0361218
-0.0252485
-0.00083378
0.0204101
-0.00827108
0.0128672
-0.00133777
0.0221668
0.0354371
0.0266986
-0.026521
0.0232567
0.0262279
-0.00100428
0.0369068
-0.00469096
0.00220004
0.00598488
-0.00359011
-0.0177195
0.000613924
-0.0103339
0.0185205
0.03192
0.0123722
0.0130407
0.0165935
0.023936
-0.00346557
-0.00669246
0.00743881
0.0172727
0.0278211
0.0311513
0.0373768
0.0220206
-0.014341
0.0267534
0.00609954
0.0200295
0.0234639
0.0138902
-0.00140001
-0.00613389
0.00770787
0.0335154
0.00503302
-0.0024615
0.0356816
0.0342474
-0.0100923
0.0209292
-0.0102437
0.0105111
0.0115878
0.0194727
0.00289089
0.0370912
-0.00962843
-0.00566046
-0.00988343
0.00989722
0.0189401
-0.00300104
0.0282261
0.0127937
0.0215698
0.019788
0.00647702
0.0349219
0.0141834
0.0165146
0.0206542
-0.0160559
-0.00340792
0.034074
0.025253
0.016612
0.00990453
0.00611131
-0.0134676
0.0150623
0.0299897
0.00517968
0.0368748
0.0338213
-0.00548009
0.00713733
-0.025774
0.0370562
-0.00118918
0.0256437
-0.0158951
0.0306459
0.01302
-0.00568697
0.0077661
0.0339416
0.0330322
-0.0206923
-0.0166722
0.0114697
0.0200639
-0.0125321
-0.000367945
0.00310481
-0.00381151
-0.00877352
0.0277006
0.0177796
0.00846084
0.0341334
-0.0105514
0.0144848
0.026705
0.00246506
0.0274958
0.0363848
-0.0102288
0.0126967
0.0155363
0.0252807
-0.0146736
0.011818
-0.0097228
0.0385876
-0.0166628
0.0221866
-0.0247657
-0.000178126
-0.0079458
-0.00470752
0.0119004
0.000641768
0.0331361
0.00345037
0.0254598
-0.00575789
-0.0211619
0.019754
0.012559
0.00526797
0.0103844
0.020302
0.0117879
-0.00151682
0.0274888
0.0101906
0.00895062
0.0252482
-0.00712657
0.00672783
0.00257766
0.038038
0.0257811
0.0328456
-0.00771338
0.0345703
0.0243447
-0.0125145
-0.0161321
0.0365097
-0.0165597
-0.00220794
0.0337294
0.00395313
-0.016192
0.0118176
0.0172716
0.00126742
0.01029
0.0324756
0.0122939
0.0174751
0.0117699
0.0358444
0.0171378
-0.015593
-0.00877871
-0.0124627
-0.00681334
0.0249495
-0.0118974
0.0374687
0.0376498
0.0141398
-0.0215755
0.0339035
0.0024873
-0.000271598
-0.024248
0.0137471
0.0376298
0.00968105
0.0213416
0.0115032
0.000773506
-0.0177337
-0.020945
0.00723323
0.0378916
-0.00236028
-0.0225935
-0.000119371
0.0415414
-0.00730182
-0.00567485
0.0350818
-0.0161762
0.0191664
0.00954511
-0.0104663
0.0408634
0.0235744
0.0249046
0.0144324
0.00965755
0.0160853
0.0309394
-0.00347904
0.0117719
0.020369
0.0218315
-0.000509074
0.00631211
0.0260328
0.0203493
-0.000530528
-0.0180277
-0.00778585
-0.026531
0.022829
-0.00316095
-0.0102319
-0.0170517
1.91566e-005
0.0320377
0.0217877
-0.00884534
0.00506855
-0.00815061
-0.00831988
0.00372217
0.00853021
0.0257228
0.00840082
0.0193663
0.0171158
0.0114607
-0.00521596
-0.000739408
0.00264509
-0.0260652
0.0134426
-0.013574
0.00543238
0.0176551
0.00235281
0.0226608
0.0106507
0.0302246
0.0315836
0.00888274
0.0222494
-0.0172119
0.00710516
0.0207284
0.0124123
0.028562
-0.0075146
0.0209721
0.0154764
-0.024756
0.0117376
-0.0250994
0.00355084
0.017141
-0.0067291
0.0139705
0.02642
0.0091354
-0.00811315
-0.0176224
-0.00980676
0.0108824
0.0134502
0.0126393
0.0178481
0.0175828
0.0288937
-0.00887546
0.00955623
0.0153299
0.0102047
-0.0230513
0.00851803
0.0347552
0.00664943
0.020695
0.000737672
-0.0070061
-0.00503633
0.0282594
0.00963787
0.00778473
0.0251495
0.0131501
-0.0160166
0.0417642
-0.0187571
-0.00683743
-0.00573505
0.0256204
0.0118747
0.0402752
-0.00848374
0.0162897
0.0252722
0.0318048
0.00586622
0.0108643
0.00595756
0.0161913
-0.00326896
-0.0213807
-0.00588271
0.0383242
0.0377983
0.0206935
0.00307374
0.0264502
-0.010244
0.000975348
0.0193003
-0.0149233
0.00133136
0.025759
0.0355293
0.0166692
0.0374535
0.008248
0.0294448
-0.00106469
0.0326872
0.0369664
0.0285002
0.00937626
0.0213785
-0.0154152
0.0241777
0.0266505
0.0212321
0.0065734
0.0251398
0.0150548
0.0233344
-0.00272523
0.0197722
-0.00823896
0.0187005
0.0170346
0.0379391
0.00394343
0.010205
0.0439848
0.00620357
0.0195275
0.0254652
-0.017457
0.018006
-0.012558
0.0290125
0.0307165
0.00400143
-0.00499417
0.0371597
0.0088062
0.028096
0.0103824
0.0294874
0.0109406
0.00569725
0.0313149
-0.0012215
0.018597
0.0193509
-0.00803369
-0.00568819
-0.0139495
-0.00576398
0.0286122
0.0380259
0.0310318
0.0131138
0.0178338
0.0279332
0.0385203
-0.0134746
0.014551
0.00300111
0.0105852
0.0251687
-0.00123737
0.00170888
0.034909
0.0319109
0.00246002
0.0262016
-0.0203969
0.0380533
0.0233179
-0.0112175
0.0281022
0.035505
0.0135337
-0.0160001
-0.00933685
0.0267436
0.0244498
-0.0104937
0.0262409
-0.00551128
-0.00920878
0.0152861
-0.00273527
0.0354502
0.0288876
0.00558042
-0.0110721
0.029159
-0.0166059
0.0165298
0.0040672
0.0188637
0.0185628
-0.00583586
-0.0119897
0.000755939
0.00410166
-0.0108743
-0.0116102
0.0310751
-0.0001029
-0.0104206
0.00521145
8.12928e-005
0.004582
-0.00709159
-0.00171726
0.0338807
0.0276866
0.0204847
0.0367121
0.0180064
0.0363146
0.00261616
-0.0109376
0.000521508
-0.00441389
0.0320205
-0.0193608
-0.0020207
-0.000301711
0.0174983
0.0435695
-0.0230945
0.0153781
0.0312502
0.0237451
0.0179135
0.00573246
-0.0114486
0.0139255
0.0201927
-0.00978304
0.00714189
0.00637663
0.00543999
0.0322747
-0.00718122
0.00399525
-0.00359473
-0.00986536
0.0243025
0.0370776
0.0326537
-0.020176
0.0350026
0.0187742
-0.00562185
-0.0194301
-0.00568491
-0.00164096
-0.00636375
0.0318209
0.0298101
0.00330723
-0.0103363
0.00886427
-0.00577067
-0.0181801
0.0114956
0.0344593
0.0178313
0.0246406
0.0333799
0.0110972
0.00673545
0.0157293
0.0159549
-0.00189396
0.0216659
0.0354681
-0.0306213
-0.00809683
-0.0159522
0.029897
0.00471848
0.0163479
0.0305241
0.0239679
0.0161188
-0.0204932
0.00376244
-0.00260074
0.0279788
-0.000799354
0.0161805
-0.0250873
0.0146163
-0.00378139
0.0365432
7.17878e-005
0.0296396
-0.013317
0.0289881
0.0118367
0.0110916
-0.0140867
-0.0197911
0.0146291
0.0166988
-0.00566883
0.0282452
0.0108638
0.0277978
-0.0173878
0.0195128
-0.00247224
0.00810397
-0.0024622
-0.0101238
0.0266284
0.033934
0.0253193
0.00369241
0.034895
0.0334088
-0.0257941
-0.00215922
-0.0101886
-0.00102969
0.0405898
-0.00509419
-0.00352684
-0.0221233
0.00139099
0.0165952
0.0133401
0.0226372
0.0271485
0.019483
0.00295314
0.036977
0.0360704
-0.00829027
-0.00678794
0.0120722
0.0198417
0.0149588
-0.0257781
0.00595299
0.0238414
-0.00363431
-0.0260411
0.0288252
0.026783
0.0126221
0.00555338
0.0124714
-0.0267639
0.0231304
0.00231569
0.00619246
0.0382555
-0.00151182
0.0278959
0.0252796
0.0131268
-0.00364633
0.0197453
0.00675371
-0.0230112
0.0110328
-0.0164051
0.0272877
-0.0137266
0.0335001
-0.0149795
0.0189989
0.0435856
-0.0211744
-0.0259728
0.019142
-0.0160798
0.0163973
0.0466021
-0.0268339
-0.0202663
0.00260094
0.036419
0.0378554
-0.0150679
0.0228229
0.0348247
-0.00506068
0.0178049
0.0135924
0.0167295
0.0192489
-0.0153008
0.00344276
0.0147597
0.0114164
-0.00167911
-0.00871263
0.00237888
-0.00436653
0.0317546
-0.00618717
0.0265059
0.0261323
-0.0114594
0.0100086
-0.00150634
0.0136591
0.0152315
-0.000776995
-0.0266756
0.032503
0.0301081
0.00335903
0.0263072
0.00299216
-0.0131101
0.0104711
-0.0114918
0.00580229
-0.00291799
-0.00963817
-0.0122351
0.0179994
0.0434021
-0.0189631
-0.0136141
0.0265068
0.0160447
-0.00613084
0.00849698
0.0201604
0.00977401
0.00478236
0.0110832
0.0357561
0.0240864
0.0316704
0.000121986
-0.0105196
-0.0223485
0.0265936
0.00444396
0.016169
0.0164505
-0.00234043
-0.0252138
0.0211027
0.00810142
0.032366
0.024239
0.0335778
0.028311
-0.00807784
-0.0250632
0.000755939
0.0312908
0.0213356
-0.000938385
0.0236313
-0.0178456
-0.00327058
-0.0139033
-0.00024572
0.00792071
0.0293017
0.0362403
0.03814
0.022474
0.012106
-0.00632943
-0.003852
-0.0201479
0.01347
-9.58533e-005
-0.0166483
-0.0191238
-0.00444416
-0.00865619
0.0116145
0.0129695
-0.00680985
-0.0162415
0.00617422
-0.0247882
0.0341715
0.00846486
0.0174797
-0.00682504
0.0210741
0.0201912
0.0241674
0.0302025
-0.00992436
0.0200726
0.00320681
0.0336019
0.0131153
0.00413178
0.0188741
-0.0162023
0.0067872
0.0106535
0.0174249
-0.0136509
0.00737009
0.037282
0.0106471
0.00692478
0.0285078
-0.00922365
0.0151956
0.0207071
0.0289089
0.0142115
0.0370409
-0.0137105
-0.00865326
0.00609552
0.0153987
0.0235784
0.0384186
0.00917548
-0.000464519
0.0431745
-0.0231579
0.0328851
0.0198164
0.0140368
0.0344713
0.016364
0.00876007
2.35979e-005
0.0185514
-0.00950394
0.00402427
0.00573209
0.0384277
0.0322827
0.013164
0.0349633
0.0337376
0.0259357
0.0336919
-0.00187187
0.0104011
-0.0241945
0.0220105
0.0357714
-0.0124021
-0.00947181
0.00524514
-0.02222
-0.00402401
-0.00266299
0.0245796
-0.0138209
0.0254701
-0.0122185
3.37718e-005
-0.000543466
-0.00439403
-0.0180114
0.0295101
-0.011583
0.00152245
-0.0266294
0.0266895
-0.0226015
0.0202213
0.00885037
-0.00242258
-0.0121965
0.0089671
-0.0228505
0.00544151
0.0407096
-0.0228147
0.0280018
0.00231018
0.0505094
0.00536043
0.019412
0.0180125
0.0212578
-0.0223501
0.00717377
0.025735
0.0380693
0.0192973
-0.00727116
0.0014368
0.00242707
0.0179927
-0.00163494
0.0160335
-0.000402079
-0.00599688
0.0344051
0.0267838
0.0164082
-0.00141026
-0.000633148
0.00284324
-0.0109339
0.0378111
0.0148879
0.00238982
0.0155026
0.0278616
0.0189702
-0.0102532
-0.00182163
0.00393896
-0.00760748
-0.00181178
-0.000514315
0.0246151
0.0305981
0.0280367
0.0236368
-0.0122176
0.034916
-0.0237092
-0.00976095
0.00103299
-0.0157706
0.0217542
-0.00378541
0.00233454
0.0205043
0.0158128
0.0278753
0.00228735
0.0357363
0.0132919
-0.0228264
0.00475496
0.0177555
0.00984698
0.0209199
0.0176745
-0.0098232
0.00118522
0.0134505
0.0190202
0.0237551
0.038309
-2.65998e-005
0.0175421
0.00421009
0.038513
-0.00965417
0.0030811
0.00876708
0.00979533
0.0241085
0.0134776
-0.013325
0.00403629
0.0143109
0.00803434
0.0109025
0.0255523
0.0341119
-0.00696201
0.0264456
0.00655116
-0.00481344
-0.00449729
0.0343187
0.0335641
-0.0228525
0.0352919
-0.013321
-0.00350035
-0.00330351
0.0321925
0.0341887
-0.00317709
0.00997796
0.00137229
0.0165507
-0.01934
0.0181269
-0.00713555
-0.0269708
-0.00275291
0.0459528
-0.0268893
0.0354945
-0.00185016
0.023474
0.0307524
-0.0117909
0.00827599
-0.0227562
0.0151826
0.00488877
0.0141794
0.0113261
0.0300111
0.016202
-0.000220206
-0.00289968
-0.0101088
-0.0102067
0.0306489
0.00784642
0.017845
-0.00490984
0.0311832
-0.0208025
-0.00931241
0.0192313
0.0388281
0.0063686
0.00258724
-0.00718926
0.00167815
0.0507311
-0.000993435
-0.000530663
0.0219913
-0.0189692
-0.00739738
0.0357724
0.0362844
-0.0176159
-0.00384895
0.0156893
-6.30464e-005
-0.0256014
-0.00351557
0.00844678
0.00425718
-0.0248022
0.0226585
-0.0171039
0.0042724
-0.00403439
0.00453423
0.0315518
0.0357805
0.00636257
0.0322899
0.00991657
0.0193399
-0.00536563
0.00143944
0.0281866
0.0199047
0.00114
0.0167353
-0.0202021
0.00347473
0.042829
0.00062504
0.0205598
-0.016129
0.0315954
-0.0087622
0.034144
0.0315166
0.0323088
0.0170276
0.0371077
0.0139982
-0.00106469
0.00860328
0.0200158
0.00841724
-0.00136773
0.0219434
0.00808335
0.0263485
0.0259417
0.0351183
-0.0150158
-0.0170635
-0.014127
-0.000608792
0.0474974
-0.0427789
0.0095411
0.000200308
-0.0256154
0.0155647
0.0417659
-0.000786395
-0.00367003
0.0202002
0.0309119
-0.0178731
-0.0267941
0.0200797
0.0266887
0.0153698
0.0237009
0.0158585
0.00401748
0.00490753
0.0166209
-0.00230919
-0.00972085
0.0345038
0.0296323
0.0260882
0.0283813
0.033386
0.0107177
0.0323204
-0.0227843
0.00282776
0.0197694
-0.00262808
-0.0141181
0.00368328
0.0418208
-0.00968605
-0.0130093
0.0114991
-0.0160176
0.0223129
0.0300412
-0.00441389
0.0154502
0.0148097
0.0150629
0.022797
-0.00753418
0.017058
-0.0244287
0.0016145
0.0298953
-0.0053286
-0.0148811
0.0241503
-0.0270912
0.0285801
-0.010271
-0.00572896
-0.0175557
0.0274019
0.0207794
0.0180536
0.0222472
0.0244289
-0.0233666
0.0337224
0.0155468
0.00206966
-0.00341796
-0.0100187
0.00290897
0.01296
-0.00132754
-0.0132888
0.00486618
0.0288055
0.00918176
0.0260977
0.00715294
-0.0120159
0.0244455
0.0169582
-0.0105942
0.0357318
0.00502932
0.00751485
0.0127618
-0.00221098
0.00323224
0.0174508
-0.0185012
-0.00566878
0.0355078
-0.00878974
0.0101033
0.0373013
0.0240563
0.013709
-0.0204732
-0.010241
0.0266464
-0.0238427
-0.0195616
0.0160229
0.0392825
0.032948
-0.0103143
0.0162727
0.0332184
0.029492
0.0166431
-0.0019598
0.0465629
0.00115631
0.0245196
-0.0119776
0.0262167
0.00230309
0.031874
0.0178445
0.0161572
0.0358125
0.0182755
0.0158554
0.0137999
-0.0068387
-0.00373521
0.0190507
-0.0163007
0.0141261
-0.0142767
-0.00858019
-0.00593928
-0.0252207
0.0250535
0.00560944
-0.00521103
0.0257091
0.0299375
-0.00198873
0.00739263
0.0305363
0.0321221
-0.00617499
0.0235684
0.0383684
-0.0130076
-0.00689771
-0.0205183
0.0232963
0.00625816
-0.00693156
0.0271665
0.0149771
-0.0094698
-0.00633787
-0.00805222
0.0124957
0.0286162
0.0228822
0.0209922
-0.00839904
0.0308772
0.0269422
-0.00205861
-0.0070092
0.0316261
0.00722714
0.0306864
0.0371703
-0.00795288
0.00702821
0.00478088
-0.0196766
0.0156994
0.0209535
-0.0135278
-0.00508808
0.00540881
0.019859
-0.00618687
0.035371
0.0268282
-0.00628563
0.0250711
-0.00399575
-0.0158048
-0.00776425
0.00781831
0.0225078
-0.0073876
0.0225047
-0.0169352
-3.41231e-005
-0.0149805
0.00729753
0.0206637
0.0016453
0.0128803
-0.0146988
0.0192333
0.0067735
0.0675902
-0.0318866
0.0244076
-0.0083421
0.039507
0.038688
0.035919
-0.00522661
0.0271926
0.0100845
-0.012829
-0.0015427
0.00435835
0.0292671
0.0404026
0.0217416
0.0343309
0.00216046
-0.00642879
-0.00738296
0.00604532
0.0118868
-0.023989
0.00991092
-0.0278884
0.00632443
-0.00700409
-0.00939461
0.0194817
-0.0259339
0.0346661
-0.0134302
-0.0162425
0.0178907
-0.0231838
-0.00072067
-0.00560458
0.0251032
0.00762956
0.0250089
-0.01814
0.0322519
0.00281259
0.021634
0.0289074
0.00069657
0.016878
0.0141672
0.0062682
0.0189928
0.0232561
0.0127775
0.0308008
-0.00506497
0.0279155
0.0214161
0.00353945
0.0164582
0.0051759
0.0380715
0.00348524
0.0311452
0.0196088
-0.00690721
0.0194481
-0.00678086
0.00472401
-0.00933589
0.0407173
0.016513
-0.0138892
0.00564245
0.00493495
-0.00988174
-0.0225353
0.0118716
0.0269135
-0.00136307
-0.0177725
-0.00219424
0.0250703
-0.00579747
-0.00655432
0.02888
0.0376117
0.037149
0.0182195
0.02153
0.0201575
-0.0136678
-0.0072089
-0.00346534
0.00468998
0.00120806
-0.0164621
-0.00311287
0.0224837
-0.009055
0.0208973
-0.00522282
-0.00962241
0.0246131
0.0136862
-0.067796
0.0461904
0.0329504
-0.00205057
0.0335793
0.0213135
0.0290459
-0.0127372
0.0120037
-0.0144947
0.0340717
0.0313061
0.0230523
0.0055313
0.0126464
-0.00173332
-0.00230079
0.0248581
0.01875
-0.00449718
-0.00572278
0.00153705
-0.00296691
-0.00180909
-0.0115646
0.0292156
-0.0291319
0.00016616
-0.00878265
0.0115028
-0.00276813
0.0320839
0.0110618
0.019155
0.00293127
-0.027792
0.00931875
0.0060152
0.0184737
0.00716574
0.0191557
0.0367142
0.0250028
0.000603884
0.0074905
-0.0117448
0.00679329
0.0325056
0.0263546
0.0120349
0.0290109
0.0339493
0.0272466
0.0308841
0.0191359
-0.0184071
0.0031847
-0.0175373
0.0306357
-0.000248643
0.0202769
0.0173629
-0.0055088
0.00817816
-0.0244574
0.0284496
-0.00834576
0.0240723
0.0190857
0.00988445
0.013505
0.00857328
0.0146071
0.0322847
-0.000440571
-0.00800403
-0.00417624
0.0151612
0.0151202
0.0174482
0.00199355
0.0165226
0.0166348
0.00617985
0.0100829
-0.0266656
0.0242569
0.00717705
-0.00104599
0.0351066
-0.00299649
-0.00138086
-0.0204691
0.00329188
-0.023285
0.0356881
0.0259359
0.0208668
0.0171993
0.0341317
-0.00124047
0.0527837
0.0255338
0.0504266
-0.0446223
0.00517973
0.0347508
-0.0151492
0.00930608
0.02134
0.00367255
-0.0271655
-0.00805196
-0.0236918
0.0288648
-0.0113934
0.0243832
-0.0128181
-0.0281255
-0.00523991
-0.0216178
-0.00965495
-0.0225023
0.0231819
-0.0220544
0.0296632
-0.0233668
0.0316917
-0.0107663
-0.0100923
-0.00725999
0.0273372
0.000851842
0.0363869
0.00873267
-0.000956263
0.0151704
-0.00772091
0.00344733
0.0190425
0.0264337
0.0332465
0.00810702
0.0356078
-0.00347599
-0.0275671
-0.00638354
0.0197353
-0.00495412
0.0135308
0.0281828
-6.47502e-005
0.00169366
0.0337353
-0.00189458
0.0280731
0.0213955
0.0455592
0.0205502
0.0292667
-0.0191442
0.0270841
-0.0214587
-0.00359245
0.0119507
0.0347799
-0.00631127
-0.0184105
0.0146116
0.0375655
0.023447
-0.0070824
0.0346342
-0.0052291
0.0352705
-0.000663108
-0.00112103
0.022197
0.0336584
0.0249799
0.00440636
-0.0203808
-0.000801351
0.00506747
-0.00319437
-0.00757434
0.0258248
0.0108047
0.0351014
0.0413335
-0.00461386
0.0304199
0.0213274
0.023113
-0.0110242
-0.00428691
0.0124107
-0.0189427
-0.0101285
0.0375053
0.0316795
0.0021654
-0.0168554
0.0158379
0.0297664
0.0173241
0.0126009
0.00870047
-0.034201
0.0355308
-0.0174165
0.0361455
-0.0420067
0.0147411
-0.0413236
0.0122972
-0.0255623
0.032233
0.0108964
-0.0121997
0.0012917
0.0256204
0.0342567
-0.0117247
0.01897
-0.0130981
0.00831861
0.0368527
0.0330982
0.0234981
0.0288937
0.0120289
-0.00476688
0.0249885
0.00155749
0.0194434
-0.00453735
0.0200305
0.0204618
-0.0117713
-0.0162485
0.042331
-0.00535016
0.0243711
-0.00578698
0.0199667
0.00501663
0.0241205
0.00895715
-0.0141186
0.01281
0.0427123
-0.0130887
0.0210762
0.0199871
0.00832631
0.00882249
0.0234921
0.0212808
-0.0197965
0.0190248
0.00836446
0.0256452
-0.026525
0.00733522
-0.0240031
0.00150033
0.0370575
-0.00994872
-0.0177966
0.0221348
-0.0188627
0.00915515
-0.0201861
0.00706369
0.0157247
-0.0023145
0.0352398
-0.007389
-0.0156773
0.0194475
0.0321867
0.00825614
0.011342
0.0218382
0.0247803
0.00137323
0.0312279
-0.011271
0.021932
-0.00927775
0.00441891
0.0190933
0.00885037
0.0236023
-0.0178067
-0.00692547
-0.0173689
0.0131549
0.0374672
0.02446
0.0125204
-0.0124417
0.0432771
-0.0376841
