j
0.0292913
-0.379757
0.0561885
-0.360906
0.0501661
-0.333009
0.0493381
-0.30917
0.040385
-0.338463
0.0436569
-0.325258
0.0176405
-0.283495
0.00355898
-0.232832
0.020691
-0.189446
0.0503807
-0.227323
0.0985281
-0.23792
0.0904182
-0.228396
0.0912243
-0.273365
0.0971624
-0.267835
0.103152
-0.261731
0.10896
-0.255082
0.11458
-0.247898
0.120007
-0.240143
0.12519
-0.232099
0.122108
-0.194556
0.122465
-0.214729
0.13066
-0.209042
0.132018
-0.162025
0.112094
-0.122013
0.10335
-0.126656
0.134709
-0.111985
0.182966
-0.0831965
0.208459
-0.0909511
0.243365
-0.0772087
0.273689
-0.0730241
0.262493
-0.070159
0.270222
-0.0818137
0.281653
-0.0741614
0.293073
-0.0672309
0.302911
-0.0603081
0.313092
-0.0536554
0.321667
-0.0471615
0.329795
-0.0408053
0.334769
-0.0336864
0.332802
-0.027412
0.341088
-0.0223812
0.345392
0.00435155
0.354513
-0.00758593
0.437693
0.0191472
0.411562
0.0166724
0.409644
0.0250458
0.408008
0.0382906
0.383608
0.022467
0.403146
0.0281848
0.424594
0.0373586
0.429874
0.0446969
0.0480962
-0.433138
0.0188046
-0.363286
-0.0234931
-0.162659
0.000951181
-0.249055
0.0361348
-0.310427
0.046101
-0.287401
0.047679
-0.283884
0.04674
-0.327047
0.0641983
-0.276801
0.0711116
-0.284846
0.0665944
-0.300727
0.0733273
-0.247576
0.061127
-0.226682
0.0445692
-0.177585
0.0327189
-0.131484
0.0245351
-0.12016
0.025173
-0.126376
0.0489324
-0.138033
0.0668151
-0.132098
0.0874998
-0.157338
0.116824
-0.158594
0.135404
-0.149754
0.143915
-0.167223
0.140695
-0.163518
0.163637
-0.196395
0.187161
-0.195263
0.198752
-0.113432
0.224018
-0.103948
0.204189
-0.0845561
0.213769
-0.0778926
0.227825
-0.051145
0.207929
-0.0365678
0.203631
-0.0486867
0.197967
-0.059926
0.196454
-0.0727529
0.204293
-0.071968
0.253041
-0.0485191
0.298403
-0.0244521
0.327485
-0.0253031
0.346324
-0.0142748
0.360251
-0.00105031
0.350698
-0.0135779
0.351819
-0.0136044
0.369339
-0.00265954
0.347593
0.0179191
0.341586
0.0233119
0.364866
0.0353033
0.420126
0.11746
0.561667
0.254932
0.443413
0.0551242
0.46544
0.0753818
0.0252904
-0.383998
-0.010314
-0.265655
-0.0280466
-0.115808
-0.0106182
-0.176882
0.0118109
-0.242612
0.0551743
-0.262205
0.060516
-0.275813
0.0455924
-0.281796
0.0488125
-0.238442
0.0467972
-0.280948
0.0506976
-0.260802
0.0372593
-0.217212
0.0195023
-0.191383
0.0136491
-0.142767
0.0081761
-0.118092
0.0115135
-0.117448
0.0498021
-0.0941809
0.0748378
-0.102136
0.0941353
-0.0891197
0.111531
-0.0945153
0.132064
-0.104427
0.163173
-0.0992101
0.19646
-0.100865
0.174343
-0.0804854
0.152978
-0.0972417
0.16175
-0.0925483
0.16348
-0.12073
0.161918
-0.130421
0.163296
-0.143616
0.16188
-0.108376
0.146711
-0.0859627
0.129554
-0.0884153
0.126218
-0.0938462
0.131277
-0.0936454
0.171899
-0.0956417
0.272952
-0.0493692
0.296183
-0.0488111
0.305723
-0.0181881
0.31595
0.00275784
0.309616
-0.00327523
0.339347
0.00797045
0.335252
0.0040711
0.297017
0.0062179
0.330965
0.0208575
0.356072
0.0033346
0.368202
0.0077019
0.37981
0.0267558
0.414516
0.0208427
0.49472
0.0943151
0.43929
0.0846471
0.409007
0.0613807
0.0167315
-0.331445
0.014207
-0.324005
-0.0134126
-0.200576
0.0106781
-0.241313
0.0615191
-0.251223
0.029376
-0.298848
0.037241
-0.263147
0.0206578
-0.210177
0.0257294
-0.218573
0.0456438
-0.220059
0.0474473
-0.205907
0.0468438
-0.24226
0.0498567
-0.214579
0.0403115
-0.190412
0.029918
-0.164596
0.030078
-0.138166
0.0766669
-0.107243
0.110729
-0.0831008
0.120605
-0.106157
0.138066
-0.0996848
0.169609
-0.0916997
0.0995835
-0.0727074
0.114097
-0.0915077
0.129467
-0.0633599
0.115587
-0.0585219
0.100199
-0.0725703
0.111529
-0.10048
0.137849
-0.100232
0.149419
-0.0912187
0.145616
-0.0986133
0.165837
-0.127991
0.169378
-0.0929687
0.160452
-0.0859966
0.153133
-0.0826406
0.164236
-0.0843681
0.257097
-0.0328568
0.267619
-0.00354362
0.264347
-0.0103594
0.29047
-0.00117844
0.281457
-0.00165371
0.230873
-0.00342271
0.266719
0.013877
0.286857
0.0422184
0.338728
0.0238419
0.353214
0.0276645
0.356769
0.0399054
0.381159
0.0138015
0.37505
0.0258393
0.38938
0.0378314
0.379085
0.0409233
0.358148
0.0415752
0.017573
-0.313534
0.0178982
-0.347173
-0.000927781
-0.251442
0.0509563
-0.254792
0.0198237
-0.315191
0.0266068
-0.251624
0.00286308
-0.16974
-0.00105919
-0.119831
0.000230329
-0.121309
0.0135781
-0.161213
0.0289426
-0.187413
0.0450819
-0.196167
0.0489653
-0.172512
0.0528649
-0.217395
0.0529668
-0.189626
0.045873
-0.168003
0.111524
-0.109836
0.140176
-0.101158
0.146816
-0.094267
0.064107
-0.07079
0.0895087
-0.0939682
0.101645
-0.067821
0.0883289
-0.0582384
0.0822598
-0.0616343
0.0711801
-0.0684073
0.0647988
-0.0795491
0.0675847
-0.0791235
0.0806521
-0.084308
0.113524
-0.0896116
0.142403
-0.0864085
0.145758
-0.0792926
0.161249
-0.0690415
0.181208
-0.120048
0.178207
-0.0882232
0.17403
-0.0726752
0.232299
-0.0171461
0.249964
-0.00650489
0.244669
-0.0027169
0.166134
0.00172388
0.218746
0.00421291
0.235288
0.0267018
0.259694
0.0573857
0.3205
0.118387
0.272058
0.0169364
0.309639
0.0190373
0.340615
0.0304342
0.33658
0.0392744
0.371311
0.0359055
0.353032
0.0433435
0.365329
0.0506083
0.36145
0.0496563
-0.0177321
-0.254294
0.0101996
-0.259312
0.0163384
-0.304445
0.0136623
-0.311599
0.00992392
-0.248501
-0.00310941
-0.153943
-0.00726623
-0.0964416
-0.00837659
-0.0460819
-0.00969053
-0.0365299
-0.000442926
-0.0851406
0.00888363
-0.119979
0.0174682
-0.140363
0.0372353
-0.159816
0.0501717
-0.166374
0.0522296
-0.169789
0.066261
-0.19634
0.101372
-0.151517
0.0559373
-0.0895421
0.0766747
-0.10156
0.0731935
-0.0844515
0.0700719
-0.0619668
0.0622475
-0.0609195
0.0572439
-0.0573684
0.0529949
-0.0667178
0.0556459
-0.0747601
0.0405193
-0.0870728
0.0427822
-0.0691449
0.0588981
-0.0784062
0.0763451
-0.0724214
0.0901462
-0.0678572
0.111424
-0.0708457
0.140172
-0.0641334
0.154296
-0.0587535
0.168683
-0.0438419
0.186387
-0.0942343
0.212805
-0.0473444
0.163866
-0.014495
0.185203
-0.00248424
0.206541
0.017593
0.208932
0.0365783
0.241992
0.0646545
0.289854
0.0758129
0.338104
0.0700738
0.200533
-0.0199396
0.236318
-0.00261538
0.302235
0.0136748
0.328601
0.0366687
0.32167
0.0377532
0.362088
0.0578917
0.30617
0.0312283
0.391568
0.0748168
-0.0272344
-0.198312
0.0185992
-0.284083
0.0116922
-0.262352
0.00629798
-0.248771
-0.00763742
-0.17329
-0.016611
-0.0983979
-0.0200964
-0.0278335
-0.0139415
-0.00475735
0.00409058
-0.0512132
0.0149518
-0.0644023
0.0237548
-0.088212
0.0317336
-0.100054
0.0543483
-0.0987089
0.0569329
-0.121014
0.0738126
-0.159363
0.0490972
-0.129815
0.0501216
-0.146973
0.0615344
-0.159419
0.0522559
-0.120269
0.0478164
-0.100175
0.0396814
-0.0920228
0.036056
-0.084537
0.0334547
-0.0730402
0.0390477
-0.0841258
0.0349216
-0.086616
0.0710156
-0.0936055
0.103564
-0.0452413
0.116702
-0.0772195
0.12506
-0.0424123
0.145514
-0.031805
0.159279
-0.0316834
0.147554
-0.023276
0.158061
-0.0288985
0.189664
-0.0222608
0.149103
-0.0172006
0.140171
-0.0272948
0.176982
-0.0611811
0.172169
-0.0465235
0.159808
-0.0338399
0.178357
-0.0276299
0.188794
-0.0382658
0.21072
-0.0058327
0.225895
0.000743319
0.214436
0.0283609
0.23867
0.0695264
0.255466
0.0618488
0.289802
0.0438125
0.306373
0.0290614
0.317055
0.046874
0.340676
0.0454102
0.357409
-0.00209173
-0.0201911
-0.224304
0.0137853
-0.273194
0.0119956
-0.249566
0.0151089
-0.282251
0.000482915
-0.215183
-0.00976524
-0.147703
-0.0152305
-0.0756501
-0.015723
-0.0393344
0.0159047
-0.0705394
0.0268352
-0.0733493
0.0258372
-0.0905827
0.0391608
-0.107694
0.0626882
-0.102365
0.057411
-0.100499
0.035174
-0.0877296
0.0525696
-0.103588
0.0475409
-0.134073
0.0467002
-0.113369
0.0559749
-0.14223
0.0539189
-0.121736
0.0447766
-0.110181
0.0410075
-0.0958093
0.0386882
-0.0805399
0.0384466
-0.0802774
0.0500762
-0.0821851
0.0930178
-0.107784
0.124413
-0.0286899
0.130537
-0.045952
0.140327
-0.0271704
0.136594
-0.0247973
0.142733
-0.026363
0.156059
-0.0196639
0.166097
-0.0196797
0.114889
-0.0189133
0.151045
-0.0122663
0.154038
-0.024215
0.148719
0.00381218
0.173168
-0.0490633
0.178505
-0.0366293
0.173665
-0.0407462
0.173005
-0.0357902
0.173585
-0.0292341
0.162236
-0.022319
0.241701
0.0737378
0.236761
0.0688464
0.26455
0.0673901
0.259527
0.0243058
0.294582
0.0416626
0.278569
0.0313086
0.338778
0.0552219
0.333775
0.0217646
-0.0117754
-0.247383
-0.00229137
-0.278136
0.000816727
-0.25118
0.00650391
-0.201788
0.0101681
-0.239032
-0.00174854
-0.182171
-0.00795429
-0.134648
-0.00866056
-0.0872308
0.0217339
-0.0635448
0.026409
-0.0859675
0.0360251
-0.101976
0.0732827
-0.0912892
0.0136036
-0.041898
0.0319266
-0.0980884
0.0434545
-0.0843474
0.0362982
-0.0707685
0.0300722
-0.10338
0.0442294
-0.116997
0.0498819
-0.104124
0.0490719
-0.108759
0.0556066
-0.112321
0.0499543
-0.10598
0.0468173
-0.0945866
0.0496561
-0.0843477
0.0486336
-0.0797807
0.0892421
-0.0920294
0.119964
-0.0231262
0.119973
-0.0317531
0.116693
-0.0195167
0.124119
-0.0241037
0.125063
-0.0226295
0.0709206
-0.0336851
0.104392
-0.0140168
0.133588
-0.00437165
0.128835
0.00256221
0.124903
-0.0286466
0.148592
-0.0261282
0.160974
0.0102999
0.204455
-0.0307804
0.182651
-0.0328037
0.167008
-0.0253425
0.162449
-0.022307
0.149185
-0.017729
0.196663
0.041846
0.219395
0.0536542
0.22924
0.0279762
0.259071
0.0439336
0.248075
0.0275821
0.305551
0.0530577
0.311432
0.0540886
0.317657
0.0406406
0.00250873
-0.252898
-0.00618698
-0.270131
-0.0156339
-0.194751
0.00548309
-0.231353
0.00526904
-0.19406
0.00618846
-0.206169
-0.00188348
-0.155443
-0.00446371
-0.112403
0.0248963
-0.0891761
0.0401053
-0.0988167
0.0892138
-0.0883938
0.000679267
-0.02392
0.0270099
-0.102701
0.0311246
-0.0889715
0.0266532
-0.0670208
0.0231266
-0.0554209
0.0167372
-0.0731643
0.023333
-0.0871324
0.0369712
-0.0968469
0.048861
-0.104755
0.0494699
-0.0852835
0.0589869
-0.113011
0.0574354
-0.0949651
0.051795
-0.0869427
0.0522448
-0.079296
0.0822375
-0.0416212
0.0996128
-0.0251935
0.110694
-0.0227302
0.11687
-0.022261
0.0782968
-0.0247629
0.040317
-0.0207781
0.0964169
-0.0143147
0.103597
-0.00515168
0.112453
0.00478645
0.125112
0.0193605
0.0900686
-0.0279654
0.111367
-0.0341603
0.142699
-0.0220096
0.147812
-0.010383
0.167122
0.016637
0.173474
-0.0219671
0.162169
-0.00561614
0.152216
-0.0229954
0.182447
0.0442454
0.199648
0.0198005
0.233912
0.0429636
0.223352
0.0199692
0.263353
0.0365792
0.286558
0.032797
0.28514
0.0391303
0.312545
0.0507657
-0.00733441
-0.262475
-0.0141533
-0.251522
-0.0245124
-0.163824
-0.0103525
-0.188234
0.00594315
-0.201181
0.00460003
-0.167504
0.00500106
-0.190434
-0.00284961
-0.13452
0.00663973
-0.107832
0.0455129
-0.0932805
0.00238721
-0.0756909
0.0205196
-0.0958145
0.020844
-0.0866362
0.0174895
-0.0569432
0.0159841
-0.0441531
0.017469
-0.0457572
0.0139207
-0.0518372
0.0163617
-0.0702574
0.0218491
-0.0691025
0.0325666
-0.079624
0.0460984
-0.092993
0.0516334
-0.0894587
0.0644707
-0.0754095
0.0598195
-0.0867113
0.0564685
-0.0741152
0.0720282
-0.0485033
0.0998283
-0.0238406
0.10721
-0.0234576
0.0485648
-0.0306047
0.0720765
-0.0126892
0.0865307
-0.0087667
0.0831341
-0.00438816
0.0897033
0.00445271
0.106083
0.0113729
0.114139
-0.00323525
0.0700074
-0.0229489
0.0845147
-0.0404205
0.10019
-0.0256621
0.127735
-0.0128688
0.144069
-0.00245226
0.150673
0.0162209
0.165663
-0.00958276
0.160008
0.000616867
0.177375
0.0129581
0.214547
0.0403187
0.13902
-0.0139193
0.222247
0.0268
0.251209
0.0239066
0.263889
-0.0119574
0.297669
0.0401131
0.300023
0.0686206
-0.0132363
-0.249368
-0.0206628
-0.201542
-0.0231639
-0.118933
-0.0196992
-0.161671
-0.00650884
-0.187054
0.00488141
-0.183778
0.00340151
-0.158279
-0.00132711
-0.151122
0.0323281
-0.110547
0.00304294
-0.0869444
0.015295
-0.104393
0.0114886
-0.0809954
0.00935854
-0.0571127
0.0107295
-0.0350428
0.0111977
-0.0276708
0.0136005
-0.036731
0.00901365
-0.036868
0.0139865
-0.0501408
0.0177125
-0.0574533
0.0218252
-0.0632953
0.0279061
-0.0691918
0.0399736
-0.0727664
0.052292
-0.076713
0.0607842
-0.0700779
0.0608793
-0.069162
0.0656525
-0.0496907
0.0754726
-0.0342032
0.037187
-0.0299243
0.069023
-0.0187254
0.0850319
-0.00858232
0.077383
-0.00254706
0.0790306
0.00211156
0.0920119
-0.000823926
0.0975626
-0.0139481
0.11863
-0.024386
0.0575427
-0.0370676
0.0610688
-0.0240729
0.0788654
-0.0239446
0.0954643
-0.0178831
0.122847
-0.0134568
0.140956
-0.00806476
0.143527
0.0403512
0.166693
-0.00824686
0.189146
0.0255258
0.154346
0.0183146
0.196279
0.0237979
0.230361
0.0280927
0.240686
-0.00355426
0.225681
-0.0549328
0.283506
0.0151456
0.279401
0.0716902
-0.0180144
-0.239836
-0.0229441
-0.153899
-0.0178644
-0.0947417
-0.0241423
-0.125897
-0.0139546
-0.155671
-0.00520533
-0.156924
0.00403621
-0.158066
0.00856416
-0.135981
0.00341662
-0.137156
0.00979375
-0.108695
0.0112043
-0.0900667
0.00740409
-0.06261
0.00530889
-0.0441753
0.00752434
-0.0349076
0.00877975
-0.024345
0.00956517
-0.0209551
0.00646568
-0.0203251
0.0126139
-0.025876
0.0191017
-0.0483887
0.0192621
-0.0438113
0.0219173
-0.0498437
0.0267988
-0.0616211
0.038893
-0.0657974
0.0497325
-0.0743376
0.0551032
-0.0671569
0.0555921
-0.0696218
0.056279
-0.0427988
0.0690602
-0.0204791
0.0725363
-0.0126685
0.0730478
-0.00296554
0.0672004
0.00723255
0.0801397
-0.00432536
0.105738
-0.0151027
0.0906859
-0.0365158
0.082926
-0.0264491
0.0408022
-0.0560005
0.0478282
-0.0105343
0.0540264
-0.028443
0.0770074
-0.0227065
0.0938059
-0.0192503
0.110331
-0.0113866
0.139017
-0.0066122
0.162527
0.0259434
0.141852
0.0153779
0.178503
0.0216673
0.205228
0.0287106
0.21861
0.00685736
0.220839
-0.0319011
0.21217
-0.0901974
0.232062
-0.0301694
0.271421
0.0679674
-0.0223892
-0.223718
-0.0286783
-0.141361
-0.013159
-0.0941837
-0.0162657
-0.111568
-0.0179922
-0.116657
-0.00892666
-0.119688
0.0346525
-0.113425
0.00417212
-0.14383
0.00262745
-0.141018
0.000125517
-0.126926
-0.001534
-0.100794
-0.000860956
-0.072977
-0.00247005
-0.049115
-0.00307016
-0.0327695
-0.00176639
-0.0232268
0.00333061
-0.015807
0.0248262
-0.0226462
0.0384513
-0.0342789
0.0404745
-0.0241282
0.0387316
-0.0253511
0.0483138
-0.0328443
0.0539352
-0.0231713
0.0550496
-0.0273561
0.0543181
-0.0312011
0.0420457
-0.0384401
0.0504104
-0.0559045
0.058592
-0.0432328
0.0543051
-0.0492991
0.0511919
-0.0387847
0.0479303
-0.0344405
0.0499727
-0.0345825
0.0605257
-0.0402372
0.0487521
-0.0354726
0.058461
-0.0473484
0.060739
-0.0471936
0.0827419
0.0162091
0.0893102
0.0280613
0.0861809
0.018394
0.0948187
0.0207047
0.114174
0.0274004
0.130307
0.0139786
0.142652
0.0157613
0.137664
0.0049657
0.137448
0.0220733
0.161871
0.00820358
0.148082
0.00212079
0.140824
-0.0264792
0.133632
-0.0614227
0.13446
-0.0941618
0.199997
-0.0439017
0.240576
0.0582481
-0.0265181
-0.217884
-0.0336861
-0.169966
-0.0200336
-0.109597
-0.0213093
-0.1003
-0.018004
-0.121203
-0.000489552
-0.110294
-0.00518337
-0.122531
-0.00404785
-0.125117
0.00191336
-0.13698
0.000280227
-0.106367
0.000635736
-0.116822
-0.000271596
-0.0805261
-7.1846e-005
-0.0717254
-0.000589457
-0.0492005
0.00141963
-0.0302695
0.00247119
-0.0253065
0.0238012
-0.0166785
0.0291647
-0.0241479
0.0383603
-0.0104772
0.0378569
-0.0308228
0.0377359
-0.0246711
0.0450711
-0.0264443
0.0551799
-0.0288358
0.0195514
-0.0362285
0.0456787
-0.0215795
0.0493076
-0.0245476
0.0499763
-0.0573295
0.0415861
0.00413001
0.0560233
-0.050342
0.0532181
-0.0378062
0.0507324
-0.028857
0.0558788
-0.0318887
0.0516814
-0.0296918
0.0467161
-0.0169724
0.0517638
-0.0263216
0.0799752
0.0142577
0.0601712
0.0118737
0.0814437
0.0202722
0.0963816
0.0236836
0.10512
0.0135259
0.118711
0.0156589
0.106944
0.00644805
0.145972
0.0148875
0.126546
-0.000243571
0.163671
0.0127844
0.15295
0.0169002
0.14076
-0.00924361
0.123223
-0.0477447
0.128554
-0.0824901
0.201928
-0.00894612
0.23743
0.0546106
-0.0298102
-0.207645
-0.0431669
-0.178132
-0.0229728
-0.119146
-0.0250961
-0.108281
-0.032565
-0.109645
-0.0276906
-0.089337
-0.0145461
-0.119479
-0.00614477
-0.107812
-0.00235234
-0.134858
0.000280026
-0.103779
0.00339932
-0.0869514
-0.000924611
-0.10094
-0.000864853
-0.0800768
0.0019331
-0.0604428
0.000867438
-0.0443263
0.00391822
-0.0320571
0.0238709
-0.0302834
0.0239107
-0.0129804
0.0215372
-0.0243883
0.0277837
-0.0191299
0.0327188
-0.0236951
0.0272131
-0.0236024
0.0248498
-0.0248743
0.0391375
-0.0177017
0.0412569
-0.0141701
0.0334061
-0.0254287
0.0372099
-0.037717
0.0495444
-0.0542057
0.0540039
-0.0215681
0.0590607
-0.0436915
0.0520574
-0.0288631
0.0483933
-0.0259504
0.0491641
-0.0208665
0.0510498
-0.0121496
0.040752
-0.0140421
0.0598732
0.0167835
0.0746079
0.0119897
0.079081
0.0216051
0.0874839
0.00914796
0.106276
0.0150903
0.0602513
-0.00797679
0.117175
0.0098303
0.149819
0.0177268
0.119869
-0.00786332
0.1275
-0.00815349
0.148585
0.0196951
0.145801
0.0136398
0.12819
-0.0112684
0.1202
-0.056002
0.197246
0.0279351
0.23153
0.0678297
-0.0357523
-0.180942
-0.0360449
-0.19337
-0.042503
-0.122034
-0.0411095
-0.123124
0.00707101
-0.106043
-0.0170658
-0.120565
-0.0170196
-0.111393
-0.0118341
-0.0892543
-0.00866206
-0.115122
-0.00327281
-0.122717
0.0013077
-0.107032
0.00205153
-0.0792914
-0.00105965
-0.0879896
-0.000991501
-0.0706056
0.00176574
-0.0543662
0.00260156
-0.0377307
0.0162426
-0.0256633
0.018626
-0.0211951
0.0167132
-0.0208453
0.0223931
-0.021075
0.018973
-0.0178283
0.010031
-0.0107278
0.0316072
-0.0161925
0.0363619
-0.0151817
0.0364869
-0.00962791
0.0253972
-0.0175993
0.0274082
-0.0359375
0.0344632
-0.0288347
0.0444095
-0.0406032
0.0532482
-0.046573
0.0583343
-0.0319372
0.0512533
-0.0151619
0.0434744
-0.0132947
0.0427889
-0.0109888
0.0416827
-0.0108769
0.0573056
0.00720988
0.0694889
0.0158944
0.0814817
0.010223
0.0886307
0.0143174
0.0394503
-0.00584236
0.097125
0.00553849
0.13406
0.0159216
0.133095
0.00575078
0.0910825
-0.030203
0.128751
-0.00616433
0.131315
-0.024566
0.148504
0.0222984
0.131915
0.0166646
0.116839
-0.042427
0.205933
0.0534976
0.181637
0.0341508
-0.0348395
-0.1963
-0.0363655
-0.19482
-0.0562752
-0.125494
-0.0251603
-0.108019
-0.0199191
-0.110114
-0.0198682
-0.113634
-0.0131266
-0.0827736
-0.0148981
-0.0738085
-0.0131823
-0.0920874
-0.00706106
-0.101078
-0.00291182
-0.110408
-0.00031916
-0.0935693
0.0004349
-0.0744727
-0.00157377
-0.0704125
-0.00139252
-0.0615542
0.00126737
-0.0530596
0.00826785
-0.0228802
0.00873342
-0.0203886
0.0151829
-0.0244885
0.00691735
-0.0147415
0.00566673
-0.00586299
0.0227966
-0.0163376
0.0296865
-0.0138517
0.0293323
-0.00823409
0.0324141
-0.00475941
0.0263068
-0.0179387
0.0222833
-0.0275984
0.0250018
-0.0313617
0.0330365
-0.0270202
0.0425498
-0.0366931
0.0513495
-0.0354436
0.0494167
-0.00198722
0.0486836
-0.011628
0.0431321
-0.00594066
0.0411128
-0.00628055
0.0596381
0.00727689
0.0653937
0.00753561
0.0797033
0.0132111
0.0387829
-0.0107457
0.0621819
0.00266078
0.113685
0.0142557
0.123013
0.00998746
0.117948
-0.00967371
0.0746588
-0.0347417
0.0886301
-0.0274616
0.125628
-0.00549084
0.126222
0.00639123
0.13597
0.0307451
0.130782
-0.00996052
0.187344
0.0551796
0.190969
0.034252
-0.0388537
-0.192055
-0.0395761
-0.174109
-0.0670052
-0.123398
-0.0535033
-0.109524
-0.0328082
-0.120125
-0.0207177
-0.0921816
-0.0150515
-0.0690612
-0.00792009
-0.0617116
-0.0179187
-0.0831507
-0.0112169
-0.086226
-0.00672504
-0.105273
-0.00435249
-0.0973607
-0.00140271
-0.082068
-0.00155775
-0.0646619
-0.00210587
-0.0694282
-0.00238717
-0.0517042
0.00164705
-0.030541
0.0145314
-0.0258762
-0.00392196
-0.0106866
0.00707884
-0.0117245
0.0196137
-0.0184991
0.0232579
-0.0109071
0.0239001
-0.00204299
0.0208839
0.000275725
0.0303323
-0.00854017
0.029547
-0.0181404
0.0232056
-0.0238738
0.0173429
-0.0220618
0.0223052
-0.022974
0.0310857
-0.0171442
0.0408129
-0.0305531
0.0448357
-0.0338472
0.0308981
0.0108648
0.0457802
-0.00485204
0.0430746
-0.000617656
0.0511374
0.0122419
0.0798812
0.0163174
0.041417
0.000940282
0.0573384
0.00810651
0.101317
0.0130931
0.108633
0.0066782
0.09749
-0.00962282
0.102548
-0.0221569
0.0561762
-0.0309401
0.0748573
-0.030328
0.0988984
-0.0176715
0.115409
-0.000116096
0.121884
0.0352986
0.134556
0.0286644
0.181971
0.0534398
0.194456
0.0311376
-0.0374343
-0.162671
-0.0421077
-0.162732
-0.0435627
-0.124578
-0.0418681
-0.117924
-0.030837
-0.109916
-0.0205938
-0.077033
-0.0105581
-0.0548874
-0.00893984
-0.0561597
-0.0120032
-0.0620178
-0.0168886
-0.0761735
-0.0118081
-0.0727781
-0.00950913
-0.0785514
-0.0052316
-0.0855878
-0.00307476
-0.0718986
-0.00463945
-0.0424906
-0.00318027
-0.063672
0.00412997
-0.0297294
0.00145239
-0.0267973
0.00874488
-0.0237145
0.0181241
-0.018288
0.0143895
-0.0101161
0.0115524
-0.00288508
0.0167058
0.000857409
0.0221806
-0.00639496
0.0292818
-0.017242
0.0240831
-0.011205
0.0165814
-0.0229067
0.020709
-0.012886
0.0183216
-0.0210198
0.0199009
-0.0174584
0.023148
-0.0142275
0.0320361
-0.0151219
0.0324763
-0.00371351
0.0455499
0.00601336
0.0430667
0.00255134
0.0685369
0.0168201
0.0312519
0.00612814
0.0697463
0.00989402
0.0909503
0.0131692
0.0887701
0.00556908
0.0961093
-0.00259469
0.0926838
-0.0212087
0.0928317
-0.0384673
0.0493372
-0.053093
0.0513917
-0.0347136
0.0829486
-0.0209329
0.106685
0.000753113
0.111619
0.00798661
0.138214
0.0379107
0.163085
0.0323075
0.198282
0.00178833
-0.0380563
-0.126453
-0.0484778
-0.147653
-0.050185
-0.112968
-0.0450586
-0.110646
-0.0321429
-0.0847257
-0.0192093
-0.0677454
-0.0107984
-0.0569975
-0.0062456
-0.0513367
-0.0106493
-0.0556908
-0.0147906
-0.0493043
-0.0186491
-0.0622237
-0.0126708
-0.063387
-0.00946153
-0.0713775
-0.00410739
-0.0860917
-0.00394206
-0.0710902
-0.0037372
-0.0337369
-0.00300718
-0.0549866
0.00306324
-0.0252974
0.009288
-0.0223591
0.0120906
-0.0131445
0.0126109
-0.00602373
0.0111734
-0.00828885
0.0137712
-0.00943165
0.0246216
-0.00615793
0.0209574
-0.00413982
0.0122853
-0.0106248
0.0150727
-0.00633678
0.0138622
-0.0136718
0.0177267
-0.00367576
0.0128105
-0.00719197
0.0189506
-0.0130563
0.0241128
-0.013358
0.0308511
-0.0119369
0.0318913
-0.00403365
0.0507325
0.0136642
0.0415047
0.00428204
0.0624965
0.0139184
0.0778833
0.014634
0.0825569
0.00738747
0.0850586
-0.000720666
0.0806638
-0.0172613
0.0751829
-0.0343621
0.0880606
-0.0453273
0.0323729
-0.0596024
0.0388155
-0.0478511
0.0545337
-0.0330314
0.0919206
-0.00609105
0.106904
0.0170665
0.137874
0.0478936
0.150365
0.0388529
0.150435
-0.0330263
-0.0587295
-0.108005
-0.0565282
-0.124408
-0.0419212
-0.140093
-0.0504636
-0.129103
-0.0386923
-0.0959199
-0.0224286
-0.0679427
-0.0128227
-0.0648653
-0.00970464
-0.0485398
-0.0201877
-0.0366029
-0.0227287
-0.0409354
-0.0215732
-0.0368465
-0.0261291
-0.0426226
-0.0208042
-0.0325991
-0.0197704
-0.0340998
-0.00726015
-0.0564859
-0.000611163
-0.0526269
0.00513411
-0.03721
-0.00340446
-0.0452375
-0.00263888
-0.0343745
-0.000244169
-0.0164118
0.00303425
-0.0232915
0.00456662
-0.0143608
0.00756869
-0.00991259
0.00574232
-0.011749
0.00910496
0.00214012
0.015722
0.00514246
0.0139677
0.0118522
0.015375
0.00363883
0.0171112
0.00109204
0.0229015
0.00769057
0.0215269
0.0111754
0.0280626
0.00177636
0.0387215
0.0091614
0.0469777
0.0138913
0.0173801
6.8041e-005
0.0421387
0.0128503
0.0426963
0.0109088
0.0436013
0.0112727
0.0413273
0.0103964
0.0412903
-0.00625203
0.0457794
-0.0200131
0.0434386
-0.0274148
0.0457441
-0.0345174
0.0406796
-0.0482964
0.0487237
-0.0490562
0.0585223
-0.0337057
0.0823476
-0.0131923
0.128764
0.0409888
0.136232
0.043485
0.142542
0.0439517
0.111416
-0.048538
-0.0747168
-0.11061
-0.0635155
-0.109751
-0.0521979
-0.122242
-0.0520182
-0.116237
-0.048449
-0.0989171
-0.0343901
-0.0775945
-0.0172221
-0.063626
-0.0144101
-0.0524281
-0.0283936
-0.0387812
-0.0317235
-0.0397765
-0.0334494
-0.0342466
-0.0252183
-0.0275174
-0.028937
-0.0310766
-0.0199278
-0.0318617
-0.00279275
-0.0604694
-0.00790862
-0.026676
-0.00256344
-0.0556888
0.000589489
-0.0412022
-0.00297239
-0.0360936
-0.00343403
-0.0314143
-0.00178861
-0.024505
0.00277671
-0.0163429
0.00337745
-0.0178548
0.00325001
-0.00643822
0.005237
-0.00865367
0.00856561
0.0109237
0.00941389
0.0136329
0.0115521
0.00748874
0.0159698
0.00325862
0.0188052
0.00660297
0.0244034
0.00654309
0.0279143
0.00942761
0.0356238
0.0145483
0.0190522
-0.0111423
0.0460986
0.0121265
0.030889
0.0019575
0.0533992
0.010744
0.0426532
0.0154441
0.0373646
0.0190751
0.0344172
0.012875
0.0393615
-0.0082291
0.0382235
-0.0206598
0.0314621
-0.0312444
0.046855
-0.0451874
0.0466457
-0.0404838
0.0609642
-0.0239146
0.0915757
0.0164049
0.115322
0.053236
0.12571
0.0332932
0.122608
0.0528192
0.084468
-0.0175732
-0.0808069
-0.115325
-0.0747633
-0.100678
-0.0505347
-0.148148
-0.0423655
-0.137493
-0.0533869
-0.113729
-0.0389103
-0.0806356
-0.0284612
-0.0655606
-0.0186266
-0.0572283
-0.0417028
-0.0411896
-0.0466857
-0.031362
-0.038566
-0.0290657
-0.0398003
-0.031394
-0.0272787
-0.0285371
-0.0192634
-0.040217
-0.0114713
-0.0236077
-0.00767547
-0.0221646
-0.00814266
-0.0512774
-0.00458321
-0.0440665
-0.00420719
-0.0346268
-0.00428139
-0.0289393
-0.00301275
-0.0287396
-0.00179027
-0.0198097
0.00332221
-0.00762917
0.00449594
-0.0107566
-0.0014123
0.00353289
0.00356366
-0.00184039
0.0057442
0.0106193
0.00873333
0.0175087
0.0145035
0.00828134
0.0194667
0.00869079
0.0218225
0.00873677
0.0287482
0.0121193
0.0128601
-0.00659445
0.0363447
0.0134995
0.0454637
0.00807346
0.0266757
-0.00506667
0.0311639
-0.000330168
0.0411273
0.00188187
0.0380665
0.0209807
0.0362828
0.022891
0.032457
0.0175471
0.035252
-0.0105608
0.028291
-0.0164491
0.0346627
-0.0347507
0.0465342
-0.0313334
0.0630299
-0.00666344
0.0959731
0.0406532
0.104063
0.0167938
0.138445
0.0337827
0.105381
0.0617719
0.0888655
0.0101514
-0.0794058
-0.101493
-0.0906655
-0.0919398
-0.0491993
-0.122191
-0.0498602
-0.111032
-0.0491512
-0.0681673
-0.0562034
-0.091134
-0.040056
-0.0667568
-0.0282722
-0.0454589
-0.0449482
-0.0349453
-0.0515116
-0.030451
-0.0492742
-0.0288017
-0.0341374
-0.0264773
-0.00614597
-0.031255
-0.0198236
-0.019847
-0.015233
-0.0184404
-0.0109589
-0.0129467
-0.0099886
-0.0436111
-0.0082971
-0.0475285
-0.00394948
-0.0372796
-0.000728068
-0.0270615
-0.00556136
-0.0225232
-0.00385309
-0.020004
-0.00296331
-0.0128569
-0.00192046
-0.00430106
-0.000776213
-0.0017516
-0.00107211
0.00895814
0.00481039
0.00860034
0.0130901
0.0141366
0.014623
0.00866934
0.0099595
0.0118371
0.0186302
0.0136408
0.00830441
-0.00792551
0.0290766
0.0102272
0.0403794
0.00770754
0.0487943
0.0048877
0.0227902
-0.00856635
0.0234719
-0.00187228
0.0283614
-0.00771595
0.0477762
-0.00310707
0.0369863
0.0241381
0.0328413
0.0219424
0.0301927
0.0205705
0.0243469
-0.00424262
0.0374663
-0.0249543
0.0467718
-0.0099373
0.0785293
0.0296241
0.0704298
0.0544488
0.0803861
0.0329067
0.120338
0.0152928
0.0815765
0.0565873
0.0937753
0.0637366
-0.0871406
-0.0970338
-0.0852244
-0.0921206
-0.0475028
-0.0992214
-0.0503198
-0.131885
-0.0422803
-0.119537
-0.0546119
-0.0812502
-0.0520101
-0.0685915
-0.0476756
-0.0379142
-0.0648861
-0.0324212
-0.0599582
-0.0280685
-0.0489517
-0.0274313
-0.02455
-0.0311608
-0.0175663
-0.0183017
-0.020966
-0.015007
-0.0113723
-0.00884489
-0.0153301
-0.00874151
-0.014686
-0.0259557
-0.00945726
-0.0387967
-0.00893878
-0.0402319
-0.00637265
-0.0297584
0.000182501
-0.0203504
-0.0044649
-0.0220734
-0.00687021
-0.012321
-0.0070751
-0.0077008
-0.0026597
-0.00171133
0.00139089
0.000997439
0.00416084
0.0145351
0.00643802
0.0104052
0.00544368
0.0102423
0.00727124
0.012266
-0.00561253
0.0145791
0.0181248
0.0159642
0.0307275
0.0109052
0.0415581
0.00403185
0.037388
0.00315077
0.0130002
-9.84278e-005
0.0181041
-0.00833214
0.0214434
0.00172528
0.0279535
-0.0119123
0.0303884
-0.00221545
0.030404
0.0320408
0.0286676
0.0294002
0.0241429
0.0237784
0.0360561
-0.012271
0.0560771
0.0114116
0.0725427
0.0508462
0.084245
0.00656237
0.119548
0.03035
0.101981
0.000480901
0.0734522
0.0429882
0.0905451
0.0681443
-0.0951648
-0.0869465
-0.0850363
-0.0908672
-0.0438574
-0.0773844
-0.0492128
-0.0939355
-0.0557155
-0.0909934
-0.0576115
-0.0874061
-0.0590242
-0.0692462
-0.0488482
-0.0609522
-0.0659279
-0.0292678
-0.0591285
-0.0242007
-0.0310476
-0.0370207
-0.0259691
-0.0183946
-0.0219173
-0.0144005
-0.0117336
-0.0113065
-0.0122646
-0.00397517
-0.0153972
-0.00775551
-0.0157115
-0.0277203
-0.0107977
-0.0248822
-0.0103859
-0.0349754
-0.00894374
-0.0350977
-0.00775052
-0.0289992
-0.00704812
-0.0190748
-0.00781631
-0.0118945
-0.00671112
-0.0060255
-0.00685721
-0.00627842
-0.00470354
0.00806355
0.000487776
0.00836845
0.00467601
0.00980893
-0.000881511
0.0100798
0.00820271
0.0145073
0.0147207
0.0174611
0.0237602
0.0115662
0.0294536
0.00635034
0.0346507
0.00245503
0.0319103
-0.00927622
0.0127764
-0.00759307
0.0108891
0.000774082
0.0166184
-0.00866291
0.0189307
0.00798967
0.0209513
-0.0155301
0.0252233
0.0239191
0.0260816
0.0398234
0.0237489
0.0343619
0.0396804
0.0147034
0.0603795
0.0392329
0.0215843
0.0180833
0.0829972
0.0349064
0.104964
0.0139367
0.0984457
-0.0197345
0.0831959
0.0450243
0.0888806
0.0702088
-0.105633
-0.0750494
-0.0759271
-0.0805613
-0.0368119
-0.0684238
-0.0488308
-0.0867079
-0.0553168
-0.103574
-0.0600768
-0.0786885
-0.064916
-0.0485802
-0.0614103
-0.0539179
-0.0701938
-0.0207607
-0.0485117
-0.0342317
-0.0289161
-0.0208655
-0.0296044
-0.0152391
-0.0224578
-0.00923859
-0.0193323
-9.81234e-005
-0.0145548
0.00163425
-0.0134687
-0.00741614
-0.00604965
-0.0160796
-0.0135841
-0.0225078
-0.0127276
-0.0193271
-0.0108736
-0.0295333
-0.0138028
-0.0249556
-0.0120358
-0.0207544
-0.0107746
-0.0148882
-0.008535
-0.0100036
-0.00885212
-0.0024507
-0.00873158
0.00563927
-0.00357539
0.0123975
-0.00428561
0.00747809
0.00474677
0.0109173
0.0122455
0.0160826
0.0178567
0.010213
0.0243255
0.00642766
0.019825
0.00369595
0.0233097
0.000852147
0.0262028
-0.00704476
0.0137419
-0.0147476
0.009322
-0.00567791
0.00864032
0.00040793
0.014164
-0.0047093
0.0170967
0.0132365
0.018365
-0.00652147
0.0170697
0.0433523
0.0229705
0.0538357
0.0432828
0.0316984
0.0464998
0.0502371
0.0680828
0.0345373
0.093509
0.0309917
0.0816863
0.00383659
0.0594417
-0.042652
0.0607584
0.0260226
0.0715025
0.0801544
-0.112819
-0.0683713
-0.0711238
-0.0679615
-0.0338054
-0.0599671
-0.0471556
-0.0609296
-0.0543773
-0.0789761
-0.0609251
-0.0805958
-0.066422
-0.0626695
-0.0786232
-0.0274154
-0.071776
-0.0306194
-0.0467098
-0.0218136
-0.0457117
-0.0122217
-0.0315876
-0.00831282
-0.0187975
-0.00215144
-0.0253526
-0.00036724
-0.01889
-0.00199309
-0.00231982
-0.00469753
-0.00895733
-0.00814142
-0.00786074
-0.010069
-0.0134661
-0.0199412
-0.0173021
-0.01252
-0.0132368
-0.0226092
-0.0133118
-0.0205481
-0.0120716
-0.0158549
-0.00877022
-0.00816882
-0.0144312
0.00409918
-0.0144677
0.0104277
-0.0124478
0.00833847
0.00238847
0.00837632
0.00766903
0.0168435
0.0145735
0.0103752
0.0173272
0.00839476
0.0125939
0.00184931
0.0168238
0.00276353
0.0203338
-0.00420636
0.0205739
-0.00759656
0.0112723
-0.00317062
0.0113277
-0.0169669
0.00742144
-0.00259607
0.00541969
0.00718543
0.00845783
0.00831241
0.0139727
0.0226303
0.0223801
0.00825675
0.024422
0.0552551
0.0330611
0.0618552
0.0591604
0.0441264
0.0855702
0.0345023
0.0809626
0.00413152
0.0706506
-0.0236756
0.0507113
-0.0346971
0.0396834
0.017473
0.0544872
0.0891125
-0.124851
-0.0495124
-0.0691807
-0.0634339
-0.039742
-0.0587751
-0.0567207
-0.0575764
-0.0703647
-0.0508019
-0.0662971
-0.0629377
-0.0745706
-0.0648656
-0.0714716
-0.05718
-0.0623776
-0.0192224
-0.057589
-0.0110465
-0.0441626
-0.00474789
-0.0334684
-0.00603358
-0.0299061
-0.00795073
-0.0228846
-0.00768262
-0.010906
-0.00980797
-0.0161004
0.00571745
-0.00552674
0.00123156
-0.0171655
0.00254514
-0.0171899
-0.0066271
-0.0153359
-0.0135569
-0.0155164
-0.00757441
-0.015856
-0.0114732
-0.0155468
-0.0133883
-0.0145319
-0.00725784
-0.0140615
0.000435188
-0.0180063
0.00490322
-0.0114368
0.00341345
0.000556605
0.0157358
0.0066136
0.0132768
0.0100326
0.00622848
0.0110663
-0.000228743
0.0108857
0.00707326
0.0119585
-0.00427066
0.0159487
-0.00838167
0.0178682
-0.00791622
0.000204089
0.000624652
0.00605862
0.00414376
0.00597939
-0.00357372
0.00330813
0.00324661
0.00257571
0.00883894
0.0083126
0.015588
0.0118552
0.0333037
0.0368615
0.0493933
0.027715
0.0513297
0.0621367
0.053185
0.0704861
0.0307663
0.077011
0.0171488
0.0495781
-0.0354358
0.023017
-0.0431011
0.0330278
-0.00892032
0.0543435
0.0902703
-0.127984
-0.049958
-0.0884584
-0.0773626
-0.0710086
-0.0351386
-0.0978489
-0.0354794
-0.106333
-0.0300205
-0.107311
-0.0179059
-0.0886865
-0.0174619
-0.0543019
-0.0539871
-0.0640143
-0.00516223
-0.0634653
-0.0353451
-0.0561614
-0.0306581
-0.0430477
-0.0217442
-0.0288634
-0.0141474
-0.0185086
-0.0154766
-0.0144667
-0.0124194
-0.00845128
-0.00149454
-0.027406
0.0105285
-0.0263713
0.00744551
-0.0190859
0.00514344
-0.0212896
0.00701362
-0.0217772
0.0121439
-0.016791
0.00993903
-0.0221435
0.0124742
-0.0218776
0.0134096
-0.016049
-0.00186535
-0.00857931
0.000923934
-0.0141581
0.0112675
-0.0166128
0.0114628
-0.0108955
0.00734024
-0.0106373
0.0111605
-0.00631677
0.0140459
-0.00599211
0.010896
-0.00513675
0.000997226
-0.00408461
0.00363197
-0.001496
0.0065381
0.00126102
0.00599147
0.00674436
-7.51876e-005
0.00464924
-0.00270223
0.00626455
-0.00742921
0.0124375
0.00551916
0.0178069
0.0200872
0.0245843
0.0434232
0.0106565
0.0425221
0.0452083
0.0327005
0.0232857
0.0661477
0.0184178
0.0764095
0.0155316
0.0341665
0.00991983
0.00591759
0.00707683
-0.0318177
0.020937
-0.0311616
0.0466843
0.0951202
-0.134586
-0.04116
-0.115876
-0.0724421
-0.0881547
-0.0484854
-0.112222
-0.0204462
-0.120229
-0.0124221
-0.100015
-0.00778363
-0.0546669
-0.0368928
-0.0762122
-0.00412324
-0.0592284
-0.0445785
-0.0548
0.00617058
-0.0649168
-0.0232777
-0.0569377
-0.0207739
-0.0436435
-0.0192937
-0.0282125
-0.0109675
-0.0172762
-0.00877547
-0.0175
-0.00520748
-0.0303552
0.000416636
-0.0284141
0.0131018
-0.0210591
0.00607298
-0.0258478
0.0155511
-0.0231425
0.0142193
-0.0304512
0.0167057
-0.025686
0.014845
-0.0161107
-5.11167e-005
-0.0160679
0.010417
-0.0123908
0.0107858
-0.0163866
0.00728936
0.00230836
0.0024897
-0.0162522
0.0147182
-0.0156499
0.0158251
-0.0130475
0.0122438
-0.0072974
0.00895415
-0.00774831
0.0118693
-0.00932539
0.00725999
-0.00718962
0.00632107
-0.000642146
0.00559171
-0.00325141
0.000662266
-0.00244941
0.00290765
0.00615617
0.00633085
0.0104105
0.0155119
0.0158614
0.0379824
0.00827146
0.0429624
0.0327387
0.04579
-0.00282146
0.0548483
0.0398586
0.0438059
0.0114529
0.0848273
0.0072655
0.0771239
0.0058109
0.0313922
0.00445945
-0.0233729
0.0249044
0.0205966
0.0390391
0.0999589
-0.141023
-0.0319968
-0.139906
-0.0632185
-0.106952
-0.0415884
-0.133167
-0.0142924
-0.125698
0.000169896
-0.0844817
-0.0198221
-0.0822533
0.00783356
-0.0672381
-0.0084806
-0.0593047
-0.0470889
-0.0605567
-0.0346602
-0.0636454
0.00514754
-0.065786
-0.0167051
-0.0529251
-0.00614013
-0.0443109
-0.0130238
-0.0320008
-0.00518295
-0.0189185
-0.0149376
-0.0374511
0.00886786
-0.0300345
0.00977884
-0.0298821
0.0153044
-0.0278596
0.0140828
-0.0357692
0.0205645
-0.0245713
0.0126482
-0.0128941
-0.00940315
-0.0184685
0.0175387
-0.016316
0.020009
-0.0104016
0.00700921
-0.0185911
0.00320817
-0.0215738
0.013268
0.00418457
0.011753
-0.0172556
0.0156975
-0.0159028
0.0168102
-0.0169577
0.0197536
-0.011222
0.0143357
-0.00852069
0.0136167
-0.00779286
0.0159827
-0.00864894
0.00479288
-0.00631088
0.00560606
-0.00229607
0.0126134
0.00314836
0.0204892
0.0101628
0.0435938
0.00871042
0.0387749
0.0284036
0.0291869
0.0459009
0.0393135
0.0106434
0.0381287
-0.000693676
0.0388144
0.0140438
0.0761657
0.0057934
0.0937644
0.000820196
0.0818921
0.00203847
0.0144895
0.0274054
0.0497389
0.0314018
0.104728
-0.143917
-0.024895
-0.142775
-0.0444082
-0.143946
-0.0254349
-0.139106
-0.00172124
-0.111591
-0.00605189
-0.0749375
0.0101607
-0.0820437
0.00763865
-0.0683804
0.0115794
-0.0611022
-0.0468874
-0.0638857
-0.0547088
-0.0599467
-0.0413192
-0.0586281
0.0195729
-0.0655475
-0.0124077
-0.0588979
-0.00649433
-0.0455774
-0.00633563
-0.0338222
-0.00119016
-0.0353082
0.00346396
-0.037081
0.0182604
-0.0371984
0.0172052
-0.0408451
0.0228002
-0.0148687
0.00452774
-0.0144459
0.012359
-0.0207184
0.0197828
-0.0192326
0.0191441
-0.0151341
0.0127976
-0.0157244
0.0119999
-0.0167199
0.00403004
-0.0177728
0.00385138
-0.0211758
0.0148499
-0.0123327
-0.00197319
-0.0195817
0.0241644
-0.0184574
0.0214747
-0.0184267
0.0250414
-0.0117869
0.0231155
-0.0140812
0.0137303
-0.0092548
0.00656369
-0.00816587
0.0133238
0.000671639
0.0222442
0.00297829
0.0449796
-0.00107033
0.0390045
0.032644
0.0430094
0.0312317
0.0426699
0.0434535
0.0245216
-0.00722457
0.0291169
-0.000385027
0.0568032
0.00424387
0.0206981
0.005388
0.0921957
5.13818e-005
0.0924095
0.00146533
0.0349452
0.0269184
0.106393
0.0166415
0.104539
-0.152876
-0.013353
-0.138509
-0.041709
-0.144582
-0.0104841
-0.129829
0.00868287
-0.0892684
-0.00974169
-0.102247
0.0136047
-0.078433
0.0172698
-0.0731891
0.00969053
-0.0613739
-0.0183072
-0.0583235
-0.0236946
-0.0630781
-0.0458734
-0.063495
-0.0166799
-0.0627959
0.0157929
-0.0677204
-0.00172823
-0.0595866
-0.00420531
-0.0470142
0.0043361
-0.0492525
0.0250726
-0.0446555
0.0191077
-0.0454146
0.0195885
-0.0314354
0.0158659
-0.0112798
0.000617741
-0.0284624
0.0263154
-0.0231714
0.0232929
-0.0167306
0.017445
-0.0122653
0.0139221
-0.0168455
0.00611179
-0.0204144
0.0122904
-0.0203392
0.010427
-0.0198534
0.00678318
-0.0230858
0.0195834
-0.0211786
0.0138121
-0.0231188
0.0243874
-0.0256425
0.0337911
-0.0209658
0.0304386
-0.0177606
0.0384424
-0.0145094
0.0227189
-0.00628535
0.0267566
-0.00449905
0.0466053
-0.00293895
0.0392174
0.0116986
0.0447375
0.0205292
0.0465894
0.0270359
0.0338903
0.0290553
0.0203224
0.00219449
0.0322635
-0.00857137
0.0479357
-0.0124546
0.0725259
-0.00142926
0.070793
-0.00569482
0.115312
-0.00312779
0.0989856
0.0211624
0.109363
0.0088775
0.0986438
-0.143761
-0.0347629
-0.163385
0.0156069
-0.169858
0.017433
-0.14885
0.0039484
-0.134903
0.040082
-0.0926606
0.0274126
-0.0892476
0.0360369
-0.0786278
0.0162597
-0.0593462
-0.00704007
-0.058159
-0.0231995
-0.0608063
-0.029812
-0.0643024
-0.0203024
-0.0649185
-0.00879082
-0.062263
0.014573
-0.0683673
0.00918594
-0.0608245
0.00451345
-0.0577321
0.0224475
-0.0546298
0.027578
-0.0318948
0.00257619
-0.022558
0.00303204
-0.0383648
0.0291411
-0.0304468
0.0250016
-0.0182851
0.0196871
-0.0224402
0.0175754
-0.0191684
0.016038
-0.0164705
0.0107677
-0.0208984
0.0058329
-0.0200914
0.00835206
-0.0224117
0.0120724
-0.0233092
0.0180749
-0.0259894
0.0280852
-0.0249017
0.0197873
-0.0263067
0.0313852
-0.0295849
0.0449613
-0.0254052
0.0430004
-0.0143916
0.0312021
-0.0139697
0.0439117
-0.00760715
0.0449558
0.00140929
0.0430071
0.0146835
0.0440425
0.0170503
0.0353981
0.0220352
0.0217011
0.0236171
0.00478984
-0.00589015
0.0350156
-0.0135366
0.0600183
-0.00697976
0.0649004
-0.0257761
0.0904665
-0.00668629
0.112063
-0.00873825
0.128385
0.00861322
0.118154
0.0349377
0.0998459
-0.138791
-0.0101332
-0.164614
0.00736135
-0.155629
0.0165632
-0.141645
0.032034
-0.120181
0.0258881
-0.101388
0.0409886
-0.089413
0.0299899
-0.081516
0.0352329
-0.0535546
-0.00301212
-0.0600036
-0.00408563
-0.0582815
-0.00993244
-0.0610117
-0.0175239
-0.0663389
-0.0280735
-0.0641994
-0.0163349
-0.0646266
0.027944
-0.0693203
0.0155292
-0.067385
0.0326485
-0.0477009
-0.00529161
-0.0504267
0.0272758
-0.0527309
0.0331333
-0.0349584
0.0250802
-0.03366
0.0242408
-0.0293821
0.017638
-0.0228966
0.0209792
-0.0237457
0.00976811
-0.0196181
0.0168918
-0.0185963
0.0113496
-0.0221635
0.00891094
-0.0227708
0.016318
-0.0252604
0.0200221
-0.0223025
0.0193211
-0.0273515
0.0294874
-0.0269062
0.0344406
-0.0265755
0.0355869
-0.0314467
0.0545203
-0.0231725
0.0528523
-0.0212895
0.0517299
4.3965e-005
0.049273
0.00461717
0.045249
0.00900396
0.033689
0.0123237
0.0258633
0.0118014
0.00534379
0.0130277
0.00127117
-0.0110588
0.0301034
-0.0116025
0.0462392
-0.0183553
0.0756742
-0.00878424
0.0852967
-0.010486
0.0691221
-0.0088159
0.12829
-0.00556601
0.120302
0.0165328
0.0800499
-0.141955
-0.00114715
-0.180285
0.0235295
-0.162141
0.00323963
-0.155374
0.0364784
-0.127058
0.0462338
-0.11741
0.0390441
-0.10033
0.0411973
-0.0798816
0.0460057
-0.0574221
0.00240989
-0.0560024
0.00365356
-0.0594506
-0.00964293
-0.0586922
-0.00587112
-0.0607898
-0.00690512
-0.0658021
-0.0233151
-0.0730959
0.0108145
-0.0443127
0.0281484
-0.0674385
0.012279
-0.0712895
0.0388847
-0.0581557
0.0315483
-0.048724
0.0313445
-0.0389068
0.02503
-0.0330102
0.00986912
-0.0327424
0.016953
-0.0330019
0.0128567
-0.0327746
0.0121009
-0.0241695
0.0199574
-0.021416
0.0148438
-0.0180535
0.0193656
-0.0192797
0.0214272
-0.022822
0.0152637
-0.0263683
0.0276072
-0.0268347
0.0348558
-0.030214
0.0374818
-0.0298175
0.0454464
-0.0325211
0.0551891
-0.030803
0.0575095
-0.0143316
0.0569184
-0.00513137
0.0527673
-0.00374398
0.037207
0.00334332
0.0244449
0.0103778
0.0146141
0.00555423
-0.00239504
-0.00245712
-0.0102785
-0.0164806
0.0472675
-0.0143592
0.0411321
-0.0199992
0.0672546
-0.0200209
0.0893026
-0.0254463
0.120339
-0.00978609
0.126975
-0.036556
0.13283
-0.00965714
0.0598926
-0.198954
0.014923
-0.178039
0.0325301
-0.170917
0.0303278
-0.171901
0.00657751
-0.137205
-0.0115219
-0.104025
-0.00655504
-0.0648776
-0.0137272
-0.054524
0.0168943
-0.101855
0.0505108
-0.0903976
0.0391046
-0.0824369
0.0411
-0.0818781
0.0459419
-0.08292
0.0389527
-0.0907474
0.04754
-0.0742766
0.0319564
-0.0668854
0.0161213
-0.065747
0.0463804
-0.0713726
0.0322658
-0.0720866
0.0255151
-0.0625062
0.0177498
-0.0436392
0.00993334
-0.035458
0.0169308
-0.0281844
0.0123959
-0.0257482
0.0149571
-0.0226982
0.0106026
-0.0258876
0.0233538
-0.0264505
0.0230935
-0.0244025
0.0179496
-0.0293693
0.0165693
-0.0309087
0.0140591
-0.0268551
0.0198354
-0.0258147
0.0320463
-0.0344192
0.0486
-0.0297129
0.0558241
-0.0356343
0.0567717
-0.0287755
0.0486079
-0.0311042
0.0651566
-0.0309609
0.0664277
-0.0287749
0.0644397
-0.0217605
0.0549555
-0.0208101
0.0485644
-0.0219674
0.0468439
-0.0230309
0.0606456
-0.0149439
0.0239796
-0.0152176
0.0175116
-0.0163358
0.02055
-0.0127697
0.0573917
-0.0123051
0.131025
-0.0215322
0.129474
-0.0224138
0.154204
-0.0196262
0.0996876
-0.214893
0.0461637
-0.178146
0.0473111
-0.18077
0.0356057
-0.175886
0.0131056
-0.173806
0.0108574
-0.1386
-0.00226718
-0.0923896
-0.0127538
-0.0695804
0.00673638
-0.102869
0.0337425
-0.0959856
0.0533535
-0.0919596
0.0565877
-0.0915845
0.0498359
-0.0973036
0.051176
-0.0719633
0.0281432
-0.0606234
0.0149183
-0.0851886
0.0451651
-0.0760057
0.011992
-0.0650803
0.011646
-0.0651593
0.0314592
-0.0729704
0.0282723
-0.0644429
0.0238286
-0.0515996
0.0224707
-0.0393391
0.0212547
-0.0294249
0.0106799
-0.0264432
0.0126444
-0.0315226
0.0156209
-0.0323436
0.01441
-0.0315965
0.0192079
-0.0327113
0.0221669
-0.0298467
0.0291317
-0.0332678
0.0356853
-0.0385289
0.0497194
-0.0326068
0.0502515
-0.0245821
0.0433268
-0.0410743
0.0577691
-0.0368771
0.0664937
-0.0334158
0.0468693
-0.0350526
0.0684251
-0.039633
0.0785399
-0.0307946
0.0704775
-0.0288633
0.068832
-0.0296093
0.0785456
-0.0262085
0.0632521
-0.0211347
0.0315545
-0.0210736
0.0281392
-0.017731
0.0480955
-0.0168691
0.115291
-0.0233798
0.136351
-0.0518021
0.135911
-0.023252
0.153238
-0.0304725
0.16482
-0.218103
0.0727954
-0.206188
0.0698093
-0.174864
0.0159471
-0.188971
0.0638478
-0.176399
0.0262295
-0.166411
0.0128581
-0.126365
0.00500525
-0.096917
0.00694601
-0.1125
0.0638267
-0.102212
0.0625306
-0.0991873
0.0526087
-0.104848
0.054144
-0.0504799
0.0137455
-0.0719759
0.0335174
-0.0964128
0.0526446
-0.0824211
0.0502236
-0.0672989
0.0116001
-0.075218
0.0154299
-0.0741829
0.0329878
-0.0675432
0.0330513
-0.0725478
0.0351818
-0.0664541
0.0282229
-0.0598416
0.0301907
-0.0475248
0.0232322
-0.0337445
0.0229285
-0.035156
0.0159814
-0.0428343
0.0132126
-0.0401922
0.0235057
-0.0373802
0.034523
-0.0383964
0.0442468
-0.0416287
0.0538325
-0.0254926
0.0441141
-0.0344365
0.0549102
-0.0413438
0.0546484
-0.034233
0.046032
-0.032866
0.058458
-0.0413198
0.0742425
-0.0431498
0.0701079
-0.0403786
0.0664273
-0.0453018
0.0943367
-0.0370372
0.0822778
-0.0338373
0.095313
-0.0336341
0.0943953
-0.0261638
0.0380965
-0.0230073
0.0427674
-0.0253607
0.10882
-0.022961
0.141748
-0.0657823
0.136307
-0.0192581
0.137676
-0.0392871
0.182164
-0.0451285
0.202071
-0.203411
0.0640267
-0.219886
0.0863002
-0.170004
0.03853
-0.183702
0.0258327
-0.195417
0.0582449
-0.182117
0.0332447
-0.167682
0.0171271
-0.127972
0.0132332
-0.129453
0.0849635
-0.129481
0.0726631
-0.121887
0.0655658
-0.0549905
0.0140256
-0.0975251
0.0612518
-0.102664
0.0570643
-0.0859272
0.0516191
-0.0803294
0.0534845
-0.0662222
0.0152977
-0.0686808
0.0193488
-0.0758102
0.0266788
-0.0833434
0.0450758
-0.073071
0.016631
-0.073763
0.0305768
-0.0755493
0.0410445
-0.0681868
0.0376576
-0.0550148
0.0328368
-0.0439477
0.0252709
-0.0480472
0.030333
-0.0492238
0.0385242
-0.0538205
0.0533262
-0.0409708
0.0503876
-0.023057
0.0438226
-0.061649
0.0614285
-0.0489778
0.0507993
-0.0446792
0.0369277
-0.0290341
0.0308224
-0.0377188
0.0720875
-0.0377954
0.0682997
-0.0454682
0.0854519
-0.048219
0.0855747
-0.0451548
0.081574
-0.0483843
0.104298
-0.0403814
0.097629
-0.0383753
0.114258
-0.0302339
0.062273
-0.0293803
0.0846276
-0.0340048
0.140166
-0.0341822
0.135882
-0.031879
0.131672
-0.0226892
0.12089
-0.0547947
0.192358
-0.0385755
0.183598
-0.229192
0.0933068
-0.218969
0.071995
-0.18945
0.0708319
-0.173486
0.0360498
-0.189299
0.045151
-0.18451
0.0551253
-0.185995
0.0445922
-0.169095
0.0360137
-0.147315
0.0845058
-0.127086
0.0606276
-0.0928804
0.016951
-0.14378
0.0879853
-0.118804
0.0693793
-0.0958626
0.0586145
-0.0903597
0.0612362
-0.085787
0.0529221
-0.061625
0.0109343
-0.0701608
0.0164338
-0.071587
0.0169006
-0.0743519
0.024866
-0.0813028
0.035918
-0.0741321
0.0359528
-0.0693932
0.0277327
-0.0759811
0.0398738
-0.0699791
0.0461295
-0.0652322
0.0493626
-0.0650371
0.0539377
-0.0611248
0.0581521
-0.0438622
0.0449189
-0.0376406
0.0357709
-0.0765587
0.0604597
-0.0602886
0.0522239
-0.0482226
0.0371563
-0.0465162
0.0269007
-0.0384454
0.00915632
-0.0344972
0.052005
-0.0402354
0.0885035
-0.0402707
0.0717005
-0.0482236
0.10017
-0.0561006
0.114687
-0.0413619
0.0610859
-0.0473419
0.111983
-0.0496507
0.121697
-0.0363085
0.090308
-0.0409856
0.143043
-0.0340318
0.136355
-0.0579987
0.137459
-0.02953
0.120452
-0.0341899
0.12003
-0.0415982
0.194337
-0.0475248
0.200312
-0.241574
0.101703
-0.242489
0.125253
-0.200432
0.0877756
-0.173281
0.0543711
-0.173679
0.0456865
-0.190561
0.0644952
-0.177537
0.061328
-0.188411
0.0849669
-0.161889
0.0840284
-0.149851
0.0518818
-0.161326
0.0852493
-0.128211
0.0721536
-0.11373
0.0706034
-0.107185
0.0656453
-0.102574
0.0624152
-0.0986705
0.0516515
-0.071978
0.0184802
-0.0708058
0.0105195
-0.0686699
0.0140166
-0.0682424
0.0187943
-0.0710779
0.0346862
-0.0800402
0.045429
-0.087396
0.0681225
-0.0619849
0.028685
-0.0783769
0.0565229
-0.0864031
0.0683329
-0.0764697
0.0666161
-0.0630277
0.0526659
-0.0928386
0.0628174
-0.0771909
0.05264
-0.0734156
0.0446055
-0.0638659
0.0283474
-0.0468861
0.0160522
-0.0414719
0.0159673
-0.035033
0.0110303
-0.0338762
0.061946
-0.0352436
0.0704444
-0.0417558
0.0878718
-0.0447021
0.102359
-0.048354
0.112534
-0.0591192
0.131211
-0.058777
0.122268
-0.0471364
0.125834
-0.0538066
0.149821
-0.0449509
0.142526
-0.0644736
0.142087
-0.0310358
0.137919
-0.0374587
0.100004
-0.0375349
0.103327
-0.0465392
0.20913
-0.05687
0.21639
-0.25783
0.1243
-0.262722
0.138839
-0.230246
0.122257
-0.190465
0.0962383
-0.174408
0.0847289
-0.175698
0.0497267
-0.194613
0.0733328
-0.177201
0.0604128
-0.185506
0.0887927
-0.174165
0.0770625
-0.152066
0.0723898
-0.13093
0.0833148
-0.111155
0.0613062
-0.11587
0.0639804
-0.112899
0.0565216
-0.115552
0.0488031
-0.0718234
0.0133077
-0.0724456
0.0184494
-0.0658648
0.013945
-0.0669285
0.017599
-0.0736981
0.0289589
-0.070738
0.0306006
-0.0797529
0.0476269
-0.0896168
0.0629771
-0.0888037
0.0811576
0.00682255
0.0260876
-0.0915324
0.0613028
-0.106296
0.0704222
-0.0867155
0.0535049
-0.0766565
0.0464581
-0.061226
0.0322036
-0.0517091
0.0186476
-0.0449771
0.00897823
-0.0408491
0.0205878
-0.0311898
-0.00101116
-0.0303532
0.0513168
-0.0329758
0.0786469
-0.038328
0.0755928
-0.0444887
0.0877694
-0.0469954
0.106846
-0.0511164
0.117709
-0.0584409
0.130173
-0.0667127
0.158062
-0.0525267
0.138883
-0.0881399
0.168358
-0.0394648
0.150054
-0.0376032
0.135424
-0.0398051
0.120087
-0.0395993
0.102084
-0.0530793
0.215026
-0.0608268
0.2255
-0.271426
0.135434
-0.275778
0.0995199
-0.255119
0.171096
-0.21572
0.189312
-0.202025
0.1492
-0.195284
0.110643
-0.188671
0.102947
-0.204896
0.0767214
-0.19313
0.0732665
-0.187422
0.0746441
-0.187086
0.0611687
-0.16024
0.0366396
-0.140629
0.0287144
-0.101467
0.012297
-0.0781976
0.0112329
-0.0687195
0.0132251
-0.101953
0.0456391
-0.0909511
0.0374331
-0.0933465
0.0473049
-0.0947264
0.0572483
-0.0881802
0.0603831
-0.10503
0.0733357
-0.101657
0.0732811
-0.088726
0.0697521
-0.101352
0.0663131
-0.108887
0.0789964
-0.100984
0.0975207
-0.0877091
0.0568861
-0.0847026
0.076422
-0.0769521
0.0698255
-0.0692648
0.0703391
-0.0564919
0.0643217
-0.0487804
0.0586991
-0.0401798
0.0487671
-0.0363169
0.0651593
-0.0353802
0.0344081
-0.0374762
0.0274904
-0.0425975
0.0423965
-0.0459141
0.0583246
-0.0536493
0.0829032
-0.0660201
0.131335
-0.0626251
0.158605
-0.0868433
0.151962
-0.0782556
0.186701
-0.0669326
0.170892
-0.0693459
0.177064
-0.0647395
0.200946
-0.0605599
0.229193
-0.0619746
0.218604
-0.0628345
0.24321
-0.0709735
0.243543
-0.285665
0.143511
-0.282577
0.13626
-0.26007
0.201534
-0.221782
0.160919
-0.210863
0.122566
-0.197181
0.114125
-0.225959
0.130354
-0.198293
0.110961
-0.191084
0.0588963
-0.201342
0.0923472
-0.193443
0.0791511
-0.193731
0.0715136
-0.184212
0.0642735
-0.161966
0.0405986
-0.12783
0.0266654
-0.103896
0.0194804
-0.120295
0.0595155
-0.110729
0.0617186
-0.11557
0.0737482
-0.113156
0.0747973
-0.114182
0.078793
-0.0848113
0.061331
-0.114497
0.0546526
-0.141424
0.0701412
-0.125371
0.0613806
-0.0943226
0.0573192
-0.0894147
0.0781437
-0.0971399
0.108013
-0.0910142
0.0881051
-0.0892737
0.063072
-0.0866726
0.0804695
-0.0855039
0.0939327
-0.0725649
0.087327
-0.0644518
0.0861421
-0.0480641
0.0718334
-0.0483868
0.0409723
-0.0484423
0.0446904
-0.06105
0.0758581
-0.0768794
0.126432
-0.0743527
0.149674
-0.06961
0.142858
-0.118189
0.14506
-0.0682695
0.140549
-0.0635121
0.174196
-0.0787963
0.197316
-0.073602
0.194713
-0.0751281
0.198062
-0.0687075
0.214759
-0.0674041
0.250537
-0.0857154
0.264398
-0.0835728
0.260679
-0.293665
0.137047
-0.285485
0.129525
-0.271426
0.180837
-0.217738
0.115089
-0.245166
0.146924
-0.244511
0.133959
-0.21874
0.139126
-0.215724
0.152759
-0.174931
0.0570221
-0.184313
0.0580694
-0.200403
0.068815
-0.209009
0.0864981
-0.197958
0.0809705
-0.194654
0.0742815
-0.183347
0.0663166
-0.161867
0.0527488
-0.146051
0.0899936
-0.155379
0.0953392
-0.139216
0.0861494
-0.113802
0.073551
-0.157706
0.069488
-0.165985
0.0762371
-0.15077
0.0625057
-0.139168
0.0478401
-0.12368
0.0258329
-0.0962176
0.0131543
-0.073158
0.0438923
-0.0769171
0.07451
-0.0878306
0.090826
-0.0966453
0.111209
-0.0934305
0.12885
-0.085279
0.0686864
-0.0868525
0.096973
-0.0895101
0.120646
-0.0755335
0.107907
-0.0756867
0.0815906
-0.0804164
0.120052
-0.0872076
0.147277
-0.0808771
0.148855
-0.108343
0.144459
-0.0918537
0.137019
-0.0813196
0.122768
-0.0642513
0.11796
-0.0654671
0.215727
-0.0700346
0.206898
-0.0812479
0.21335
-0.0806384
0.223468
-0.0753716
0.205112
-0.0793989
0.254765
-0.0803779
0.274581
-0.0963756
0.277754
-0.31139
0.19006
-0.305361
0.163523
-0.253431
0.12677
-0.282986
0.170491
-0.252868
0.139864
-0.246438
0.174685
-0.258321
0.183483
-0.268762
0.164941
-0.192895
0.0653513
-0.183726
0.0594636
-0.172856
0.0525658
-0.183077
0.056473
-0.19769
0.0772999
-0.198363
0.0885979
-0.197453
0.0924957
-0.191757
0.106366
-0.184064
0.104063
-0.196836
0.105395
-0.184296
0.0820349
-0.187681
0.0878244
-0.169194
0.0688576
-0.156184
0.0265581
-0.143665
0.0189514
-0.124572
-0.00508552
-0.103011
-0.0113558
-0.0768711
-0.0156621
-0.0547738
0.00695635
-0.0574223
0.0258581
-0.0650498
0.0522744
-0.0727735
0.0783687
-0.0875917
0.105808
-0.100505
0.127725
-0.105502
0.158987
-0.101969
0.140893
-0.105446
0.132468
-0.103567
0.148839
-0.10627
0.15325
-0.142636
0.139368
-0.100967
0.136324
-0.0866606
0.13067
-0.0729589
0.105702
-0.0631286
0.0854479
-0.0552109
0.0815236
-0.0650832
0.214615
-0.0732677
0.250177
-0.0783965
0.265397
-0.0819956
0.228814
-0.100704
0.275347
-0.0699996
0.21198
-0.112187
0.28232
-0.075778
0.298622
-0.302466
0.193621
-0.248535
0.106846
-0.303619
0.15778
-0.301153
0.152532
-0.30664
0.150029
-0.294877
0.147302
-0.28151
0.108417
-0.258563
0.0918967
-0.262844
0.184654
-0.239256
0.169529
-0.232239
0.144848
-0.225996
0.123139
-0.214739
0.117649
-0.21297
0.115592
-0.215248
0.115901
-0.211768
0.101359
-0.20621
0.102635
-0.192488
0.0910473
-0.194731
0.103315
-0.191581
0.083016
-0.190194
0.0833098
-0.166218
0.0627281
-0.145359
0.0489692
-0.121104
0.0212787
-0.0970452
0.0102324
-0.0774413
-0.00014007
-0.0799538
0.00564217
-0.0878631
0.0303359
-0.0955741
0.0540548
-0.113777
0.0933202
-0.128193
0.122055
-0.12407
0.137534
-0.129438
0.144955
-0.132851
0.151888
-0.115767
0.157186
-0.119608
0.186384
-0.106263
0.192431
-0.106327
0.199774
-0.0977173
0.17343
-0.0978525
0.193389
-0.087923
0.1994
-0.0783183
0.210277
-0.0697472
0.226443
-0.0651851
0.176446
-0.0753472
0.225449
-0.0936648
0.268295
-0.102926
0.282464
-0.097491
0.296018
-0.105361
0.290276
-0.0732184
0.225625
-0.0999984
0.295377
-0.301051
0.151325
-0.309097
0.178888
-0.31846
0.241151
-0.300343
0.152351
-0.294779
0.145637
-0.292627
0.146296
-0.28651
0.14374
-0.279535
0.141303
-0.272394
0.139749
-0.262074
0.135129
-0.256197
0.134235
-0.26923
0.137208
-0.253018
0.120253
-0.231034
0.103616
-0.224314
0.072691
-0.214299
0.0517442
-0.159923
0.0353445
-0.158359
0.0467865
-0.170314
0.0782421
-0.181723
0.102987
-0.178077
0.106055
-0.186814
0.11403
-0.179402
0.104609
-0.181557
0.120217
-0.177819
0.123896
-0.169129
0.113355
-0.170402
0.130145
-0.165351
0.133851
-0.159942
0.137589
-0.151053
0.124354
-0.158937
0.115914
-0.155506
0.112438
-0.129436
0.107233
-0.118842
0.0874813
-0.0878296
0.0731219
-0.0748565
0.114595
-0.0823488
0.155652
-0.100928
0.197111
-0.110276
0.238263
-0.109436
0.228411
-0.108179
0.230391
-0.110234
0.257611
-0.108686
0.248271
-0.110127
0.270372
-0.110156
0.276821
-0.106532
0.29616
-0.109613
0.259658
-0.0915896
0.277751
-0.08314
0.328492
-0.103802
0.291532
-0.109031
0.307892
