j
-0.101405
-0.0929998
-0.0817552
-0.0746626
-0.0840284
-0.0404868
-0.0586942
-0.0636891
-0.0379953
-0.0929634
-0.0658698
-0.10835
-0.0741443
-0.0342247
-0.0626478
-0.0450967
-0.0691119
-0.0606044
-0.0929161
-0.0477978
-0.0557813
-0.119809
-0.151959
-0.0644648
-0.138927
-0.0938114
-0.11999
-0.100275
-0.131558
-0.106821
-0.143927
-0.0523244
-0.137423
-0.0680502
-0.0811856
-0.0603916
-0.134911
-0.0501161
-0.135278
-0.0523587
-0.148014
-0.113002
-0.15322
-0.108335
-0.0883621
-0.155162
-0.138742
-0.100977
-0.0811307
-0.162694
-0.0301277
-0.154275
-0.175716
-0.121791
-0.0414251
-0.00316964
-0.165094
-0.162663
-0.156296
-0.00227883
-0.0971431
-0.0877107
-0.102933
-0.0931204
-0.10068
-0.10068
-0.0536549
-0.0320713
0.00349971
-0.0411622
0.0153899
0.0453633
0.0268381
0.040254
0.0278884
0.0396605
0.0482472
-0.0263956
-0.025667
0.0411142
-0.0661828
0.0855643
0.0863299
0.117262
0.0361688
0.0670787
0.0799149
0.136619
0.109247
0.212448
0.255762
0.309094
0.214886
0.386308
0.402038
0.455204
0.548431
0.635694
0.723826
0.852803
0.938294
